MTP
version = 1.1.0
potential_name = sus2mlip_l3k3
scaling = 0.01
L = 3
scaling_map = LK
species_count = 1
potential_tag =
radial_basis_type = RBChebyshev_sss
        min_dist = 1.5
        max_dist = 6.0
        radial_basis_size = 8
        radial_funcs_count = 12
alpha_moments_count =514
alpha_index_basic_count = 60
alpha_index_basic = {{0, 0, 0, 0},{1, 1, 0, 0},{1, 0, 1, 0},{1, 0, 0, 1},{2, 2, 0, 0},{2, 1, 1, 0},{2, 1, 0, 1},{2, 0, 2, 0},{2, 0, 1, 1},{2, 0, 0, 2},{3, 3, 0, 0},{3, 2, 1, 0},{3, 2, 0, 1},{3, 1, 2, 0},{3, 1, 1, 1},{3, 1, 0, 2},{3, 0, 3, 0},{3, 0, 2, 1},{3, 0, 1, 2},{3, 0, 0, 3},{4, 0, 0, 0},{5, 1, 0, 0},{5, 0, 1, 0},{5, 0, 0, 1},{6, 2, 0, 0},{6, 1, 1, 0},{6, 1, 0, 1},{6, 0, 2, 0},{6, 0, 1, 1},{6, 0, 0, 2},{7, 3, 0, 0},{7, 2, 1, 0},{7, 2, 0, 1},{7, 1, 2, 0},{7, 1, 1, 1},{7, 1, 0, 2},{7, 0, 3, 0},{7, 0, 2, 1},{7, 0, 1, 2},{7, 0, 0, 3},{8, 0, 0, 0},{9, 1, 0, 0},{9, 0, 1, 0},{9, 0, 0, 1},{10, 2, 0, 0},{10, 1, 1, 0},{10, 1, 0, 1},{10, 0, 2, 0},{10, 0, 1, 1},{10, 0, 0, 2},{11, 3, 0, 0},{11, 2, 1, 0},{11, 2, 0, 1},{11, 1, 2, 0},{11, 1, 1, 1},{11, 1, 0, 2},{11, 0, 3, 0},{11, 0, 2, 1},{11, 0, 1, 2},{11, 0, 0, 3}}
alpha_index_times_count = 1291
alpha_index_times = {{0,0,1,60},{0,60,1,61},{20,60,1,62},{40,60,1,63},{0,20,1,64},{20,64,1,65},{40,64,1,66},{0,40,1,67},{40,67,1,68},{20,20,1,69},{20,69,1,70},{40,69,1,71},{20,40,1,72},{40,72,1,73},{40,40,1,74},{40,74,1,75},{1,1,1,76},{2,2,1,76},{3,3,1,76},{1,21,1,77},{2,22,1,77},{3,23,1,77},{1,41,1,78},{2,42,1,78},{3,43,1,78},{21,21,1,79},{22,22,1,79},{23,23,1,79},{21,41,1,80},{22,42,1,80},{23,43,1,80},{41,41,1,81},{42,42,1,81},{43,43,1,81},{4,4,1,82},{5,5,2,82},{6,6,2,82},{7,7,1,82},{8,8,2,82},{9,9,1,82},{4,24,1,83},{5,25,2,83},{6,26,2,83},{7,27,1,83},{8,28,2,83},{9,29,1,83},{4,44,1,84},{5,45,2,84},{6,46,2,84},{7,47,1,84},{8,48,2,84},{9,49,1,84},{24,24,1,85},{25,25,2,85},{26,26,2,85},{27,27,1,85},{28,28,2,85},{29,29,1,85},{24,44,1,86},{25,45,2,86},{26,46,2,86},{27,47,1,86},{28,48,2,86},{29,49,1,86},{44,44,1,87},{45,45,2,87},{46,46,2,87},{47,47,1,87},{48,48,2,87},{49,49,1,87},{0,76,1,88},{0,77,1,89},{0,78,1,90},{0,79,1,91},{0,80,1,92},{0,81,1,93},{20,76,1,94},{20,77,1,95},{20,78,1,96},{20,79,1,97},{20,80,1,98},{20,81,1,99},{40,76,1,100},{40,77,1,101},{40,78,1,102},{40,79,1,103},{40,80,1,104},{40,81,1,105},{0,82,1,106},{0,83,1,107},{0,84,1,108},{0,85,1,109},{0,86,1,110},{0,87,1,111},{20,82,1,112},{20,83,1,113},{20,84,1,114},{20,85,1,115},{20,86,1,116},{20,87,1,117},{40,82,1,118},{40,83,1,119},{40,84,1,120},{40,85,1,121},{40,86,1,122},{40,87,1,123},{76,76,1,124},{76,77,1,125},{76,78,1,126},{76,79,1,127},{76,80,1,128},{76,81,1,129},{77,77,1,130},{77,78,1,131},{77,79,1,132},{77,80,1,133},{77,81,1,134},{78,78,1,135},{78,79,1,136},{78,80,1,137},{78,81,1,138},{79,79,1,139},{79,80,1,140},{79,81,1,141},{80,80,1,142},{80,81,1,143},{81,81,1,144},{76,82,1,145},{76,83,1,146},{76,84,1,147},{76,85,1,148},{76,86,1,149},{76,87,1,150},{77,82,1,151},{77,83,1,152},{77,84,1,153},{77,85,1,154},{77,86,1,155},{77,87,1,156},{78,82,1,157},{78,83,1,158},{78,84,1,159},{78,85,1,160},{78,86,1,161},{78,87,1,162},{79,82,1,163},{79,83,1,164},{79,84,1,165},{79,85,1,166},{79,86,1,167},{79,87,1,168},{80,82,1,169},{80,83,1,170},{80,84,1,171},{80,85,1,172},{80,86,1,173},{80,87,1,174},{81,82,1,175},{81,83,1,176},{81,84,1,177},{81,85,1,178},{81,86,1,179},{81,87,1,180},{82,82,1,181},{82,83,1,182},{82,84,1,183},{82,85,1,184},{82,86,1,185},{82,87,1,186},{83,83,1,187},{83,84,1,188},{83,85,1,189},{83,86,1,190},{83,87,1,191},{84,84,1,192},{84,85,1,193},{84,86,1,194},{84,87,1,195},{85,85,1,196},{85,86,1,197},{85,87,1,198},{86,86,1,199},{86,87,1,200},{87,87,1,201},{10,10,1,202},{11,11,3,202},{12,12,3,202},{13,13,3,202},{14,14,6,202},{15,15,3,202},{16,16,1,202},{17,17,3,202},{18,18,3,202},{19,19,1,202},{10,30,1,203},{11,31,3,203},{12,32,3,203},{13,33,3,203},{14,34,6,203},{15,35,3,203},{16,36,1,203},{17,37,3,203},{18,38,3,203},{19,39,1,203},{10,50,1,204},{11,51,3,204},{12,52,3,204},{13,53,3,204},{14,54,6,204},{15,55,3,204},{16,56,1,204},{17,57,3,204},{18,58,3,204},{19,59,1,204},{30,30,1,205},{31,31,3,205},{32,32,3,205},{33,33,3,205},{34,34,6,205},{35,35,3,205},{36,36,1,205},{37,37,3,205},{38,38,3,205},{39,39,1,205},{30,50,1,206},{31,51,3,206},{32,52,3,206},{33,53,3,206},{34,54,6,206},{35,55,3,206},{36,56,1,206},{37,57,3,206},{38,58,3,206},{39,59,1,206},{50,50,1,207},{51,51,3,207},{52,52,3,207},{53,53,3,207},{54,54,6,207},{55,55,3,207},{56,56,1,207},{57,57,3,207},{58,58,3,207},{59,59,1,207},{1,4,1,208},{1,5,1,209},{1,6,1,210},{1,7,1,211},{1,8,1,212},{1,9,1,213},{2,4,1,214},{2,5,1,215},{2,6,1,216},{2,7,1,217},{2,8,1,218},{2,9,1,219},{3,4,1,220},{3,5,1,221},{3,6,1,222},{3,7,1,223},{3,8,1,224},{3,9,1,225},{10,208,1,226},{11,209,2,226},{12,210,2,226},{13,211,1,226},{14,212,2,226},{15,213,1,226},{11,214,1,226},{13,215,2,226},{14,216,2,226},{16,217,1,226},{17,218,2,226},{18,219,1,226},{12,220,1,226},{14,221,2,226},{15,222,2,226},{17,223,1,226},{18,224,2,226},{19,225,1,226},{30,208,1,227},{31,209,2,227},{32,210,2,227},{33,211,1,227},{34,212,2,227},{35,213,1,227},{31,214,1,227},{33,215,2,227},{34,216,2,227},{36,217,1,227},{37,218,2,227},{38,219,1,227},{32,220,1,227},{34,221,2,227},{35,222,2,227},{37,223,1,227},{38,224,2,227},{39,225,1,227},{50,208,1,228},{51,209,2,228},{52,210,2,228},{53,211,1,228},{54,212,2,228},{55,213,1,228},{51,214,1,228},{53,215,2,228},{54,216,2,228},{56,217,1,228},{57,218,2,228},{58,219,1,228},{52,220,1,228},{54,221,2,228},{55,222,2,228},{57,223,1,228},{58,224,2,228},{59,225,1,228},{21,24,1,229},{21,25,1,230},{21,26,1,231},{21,27,1,232},{21,28,1,233},{21,29,1,234},{22,24,1,235},{22,25,1,236},{22,26,1,237},{22,27,1,238},{22,28,1,239},{22,29,1,240},{23,24,1,241},{23,25,1,242},{23,26,1,243},{23,27,1,244},{23,28,1,245},{23,29,1,246},{10,229,1,247},{11,230,2,247},{12,231,2,247},{13,232,1,247},{14,233,2,247},{15,234,1,247},{11,235,1,247},{13,236,2,247},{14,237,2,247},{16,238,1,247},{17,239,2,247},{18,240,1,247},{12,241,1,247},{14,242,2,247},{15,243,2,247},{17,244,1,247},{18,245,2,247},{19,246,1,247},{30,229,1,248},{31,230,2,248},{32,231,2,248},{33,232,1,248},{34,233,2,248},{35,234,1,248},{31,235,1,248},{33,236,2,248},{34,237,2,248},{36,238,1,248},{37,239,2,248},{38,240,1,248},{32,241,1,248},{34,242,2,248},{35,243,2,248},{37,244,1,248},{38,245,2,248},{39,246,1,248},{50,229,1,249},{51,230,2,249},{52,231,2,249},{53,232,1,249},{54,233,2,249},{55,234,1,249},{51,235,1,249},{53,236,2,249},{54,237,2,249},{56,238,1,249},{57,239,2,249},{58,240,1,249},{52,241,1,249},{54,242,2,249},{55,243,2,249},{57,244,1,249},{58,245,2,249},{59,246,1,249},{41,44,1,250},{41,45,1,251},{41,46,1,252},{41,47,1,253},{41,48,1,254},{41,49,1,255},{42,44,1,256},{42,45,1,257},{42,46,1,258},{42,47,1,259},{42,48,1,260},{42,49,1,261},{43,44,1,262},{43,45,1,263},{43,46,1,264},{43,47,1,265},{43,48,1,266},{43,49,1,267},{10,250,1,268},{11,251,2,268},{12,252,2,268},{13,253,1,268},{14,254,2,268},{15,255,1,268},{11,256,1,268},{13,257,2,268},{14,258,2,268},{16,259,1,268},{17,260,2,268},{18,261,1,268},{12,262,1,268},{14,263,2,268},{15,264,2,268},{17,265,1,268},{18,266,2,268},{19,267,1,268},{30,250,1,269},{31,251,2,269},{32,252,2,269},{33,253,1,269},{34,254,2,269},{35,255,1,269},{31,256,1,269},{33,257,2,269},{34,258,2,269},{36,259,1,269},{37,260,2,269},{38,261,1,269},{32,262,1,269},{34,263,2,269},{35,264,2,269},{37,265,1,269},{38,266,2,269},{39,267,1,269},{50,250,1,270},{51,251,2,270},{52,252,2,270},{53,253,1,270},{54,254,2,270},{55,255,1,270},{51,256,1,270},{53,257,2,270},{54,258,2,270},{56,259,1,270},{57,260,2,270},{58,261,1,270},{52,262,1,270},{54,263,2,270},{55,264,2,270},{57,265,1,270},{58,266,2,270},{59,267,1,270},{208,208,1,271},{209,209,2,271},{210,210,2,271},{211,211,1,271},{212,212,2,271},{213,213,1,271},{214,214,1,271},{215,215,2,271},{216,216,2,271},{217,217,1,271},{218,218,2,271},{219,219,1,271},{220,220,1,271},{221,221,2,271},{222,222,2,271},{223,223,1,271},{224,224,2,271},{225,225,1,271},{208,229,1,272},{209,230,2,272},{210,231,2,272},{211,232,1,272},{212,233,2,272},{213,234,1,272},{214,235,1,272},{215,236,2,272},{216,237,2,272},{217,238,1,272},{218,239,2,272},{219,240,1,272},{220,241,1,272},{221,242,2,272},{222,243,2,272},{223,244,1,272},{224,245,2,272},{225,246,1,272},{208,250,1,273},{209,251,2,273},{210,252,2,273},{211,253,1,273},{212,254,2,273},{213,255,1,273},{214,256,1,273},{215,257,2,273},{216,258,2,273},{217,259,1,273},{218,260,2,273},{219,261,1,273},{220,262,1,273},{221,263,2,273},{222,264,2,273},{223,265,1,273},{224,266,2,273},{225,267,1,273},{229,229,1,274},{230,230,2,274},{231,231,2,274},{232,232,1,274},{233,233,2,274},{234,234,1,274},{235,235,1,274},{236,236,2,274},{237,237,2,274},{238,238,1,274},{239,239,2,274},{240,240,1,274},{241,241,1,274},{242,242,2,274},{243,243,2,274},{244,244,1,274},{245,245,2,274},{246,246,1,274},{229,250,1,275},{230,251,2,275},{231,252,2,275},{232,253,1,275},{233,254,2,275},{234,255,1,275},{235,256,1,275},{236,257,2,275},{237,258,2,275},{238,259,1,275},{239,260,2,275},{240,261,1,275},{241,262,1,275},{242,263,2,275},{243,264,2,275},{244,265,1,275},{245,266,2,275},{246,267,1,275},{250,250,1,276},{251,251,2,276},{252,252,2,276},{253,253,1,276},{254,254,2,276},{255,255,1,276},{256,256,1,276},{257,257,2,276},{258,258,2,276},{259,259,1,276},{260,260,2,276},{261,261,1,276},{262,262,1,276},{263,263,2,276},{264,264,2,276},{265,265,1,276},{266,266,2,276},{267,267,1,276},{10,10,1,277},{11,11,2,277},{12,12,2,277},{13,13,1,277},{14,14,2,277},{15,15,1,277},{10,11,1,278},{11,13,2,278},{12,14,2,278},{13,16,1,278},{14,17,2,278},{15,18,1,278},{10,12,1,279},{11,14,2,279},{12,15,2,279},{13,17,1,279},{14,18,2,279},{15,19,1,279},{11,11,1,280},{13,13,2,280},{14,14,2,280},{16,16,1,280},{17,17,2,280},{18,18,1,280},{11,12,1,281},{13,14,2,281},{14,15,2,281},{16,17,1,281},{17,18,2,281},{18,19,1,281},{12,12,1,282},{14,14,2,282},{15,15,2,282},{17,17,1,282},{18,18,2,282},{19,19,1,282},{4,277,1,283},{5,278,2,283},{6,279,2,283},{7,280,1,283},{8,281,2,283},{9,282,1,283},{24,277,1,284},{25,278,2,284},{26,279,2,284},{27,280,1,284},{28,281,2,284},{29,282,1,284},{44,277,1,285},{45,278,2,285},{46,279,2,285},{47,280,1,285},{48,281,2,285},{49,282,1,285},{30,30,1,286},{31,31,2,286},{32,32,2,286},{33,33,1,286},{34,34,2,286},{35,35,1,286},{30,31,1,287},{31,33,2,287},{32,34,2,287},{33,36,1,287},{34,37,2,287},{35,38,1,287},{30,32,1,288},{31,34,2,288},{32,35,2,288},{33,37,1,288},{34,38,2,288},{35,39,1,288},{31,31,1,289},{33,33,2,289},{34,34,2,289},{36,36,1,289},{37,37,2,289},{38,38,1,289},{31,32,1,290},{33,34,2,290},{34,35,2,290},{36,37,1,290},{37,38,2,290},{38,39,1,290},{32,32,1,291},{34,34,2,291},{35,35,2,291},{37,37,1,291},{38,38,2,291},{39,39,1,291},{4,286,1,292},{5,287,2,292},{6,288,2,292},{7,289,1,292},{8,290,2,292},{9,291,1,292},{24,286,1,293},{25,287,2,293},{26,288,2,293},{27,289,1,293},{28,290,2,293},{29,291,1,293},{44,286,1,294},{45,287,2,294},{46,288,2,294},{47,289,1,294},{48,290,2,294},{49,291,1,294},{50,50,1,295},{51,51,2,295},{52,52,2,295},{53,53,1,295},{54,54,2,295},{55,55,1,295},{50,51,1,296},{51,53,2,296},{52,54,2,296},{53,56,1,296},{54,57,2,296},{55,58,1,296},{50,52,1,297},{51,54,2,297},{52,55,2,297},{53,57,1,297},{54,58,2,297},{55,59,1,297},{51,51,1,298},{53,53,2,298},{54,54,2,298},{56,56,1,298},{57,57,2,298},{58,58,1,298},{51,52,1,299},{53,54,2,299},{54,55,2,299},{56,57,1,299},{57,58,2,299},{58,59,1,299},{52,52,1,300},{54,54,2,300},{55,55,2,300},{57,57,1,300},{58,58,2,300},{59,59,1,300},{4,295,1,301},{5,296,2,301},{6,297,2,301},{7,298,1,301},{8,299,2,301},{9,300,1,301},{24,295,1,302},{25,296,2,302},{26,297,2,302},{27,298,1,302},{28,299,2,302},{29,300,1,302},{44,295,1,303},{45,296,2,303},{46,297,2,303},{47,298,1,303},{48,299,2,303},{49,300,1,303},{277,277,1,304},{278,278,2,304},{279,279,2,304},{280,280,1,304},{281,281,2,304},{282,282,1,304},{277,286,1,305},{278,287,2,305},{279,288,2,305},{280,289,1,305},{281,290,2,305},{282,291,1,305},{277,295,1,306},{278,296,2,306},{279,297,2,306},{280,298,1,306},{281,299,2,306},{282,300,1,306},{286,286,1,307},{287,287,2,307},{288,288,2,307},{289,289,1,307},{290,290,2,307},{291,291,1,307},{286,295,1,308},{287,296,2,308},{288,297,2,308},{289,298,1,308},{290,299,2,308},{291,300,1,308},{295,295,1,309},{296,296,2,309},{297,297,2,309},{298,298,1,309},{299,299,2,309},{300,300,1,309},{76,202,1,310},{76,203,1,311},{76,204,1,312},{76,205,1,313},{76,206,1,314},{76,207,1,315},{77,202,1,316},{77,203,1,317},{77,204,1,318},{77,205,1,319},{77,206,1,320},{77,207,1,321},{78,202,1,322},{78,203,1,323},{78,204,1,324},{78,205,1,325},{78,206,1,326},{78,207,1,327},{79,202,1,328},{79,203,1,329},{79,204,1,330},{79,205,1,331},{79,206,1,332},{79,207,1,333},{80,202,1,334},{80,203,1,335},{80,204,1,336},{80,205,1,337},{80,206,1,338},{80,207,1,339},{81,202,1,340},{81,203,1,341},{81,204,1,342},{81,205,1,343},{81,206,1,344},{81,207,1,345},{82,202,1,346},{82,203,1,347},{82,204,1,348},{82,205,1,349},{82,206,1,350},{82,207,1,351},{83,202,1,352},{83,203,1,353},{83,204,1,354},{83,205,1,355},{83,206,1,356},{83,207,1,357},{84,202,1,358},{84,203,1,359},{84,204,1,360},{84,205,1,361},{84,206,1,362},{84,207,1,363},{85,202,1,364},{85,203,1,365},{85,204,1,366},{85,205,1,367},{85,206,1,368},{85,207,1,369},{86,202,1,370},{86,203,1,371},{86,204,1,372},{86,205,1,373},{86,206,1,374},{86,207,1,375},{87,202,1,376},{87,203,1,377},{87,204,1,378},{87,205,1,379},{87,206,1,380},{87,207,1,381},{202,202,1,382},{202,203,1,383},{202,204,1,384},{202,205,1,385},{202,206,1,386},{202,207,1,387},{203,203,1,388},{203,204,1,389},{203,205,1,390},{203,206,1,391},{203,207,1,392},{204,204,1,393},{204,205,1,394},{204,206,1,395},{204,207,1,396},{205,205,1,397},{205,206,1,398},{205,207,1,399},{206,206,1,400},{206,207,1,401},{207,207,1,402},{0,202,1,403},{0,203,1,404},{0,204,1,405},{0,205,1,406},{0,206,1,407},{0,207,1,408},{20,202,1,409},{20,203,1,410},{20,204,1,411},{20,205,1,412},{20,206,1,413},{20,207,1,414},{40,202,1,415},{40,203,1,416},{40,204,1,417},{40,205,1,418},{40,206,1,419},{40,207,1,420},{1,1,1,421},{1,2,1,422},{1,3,1,423},{2,2,1,424},{2,3,1,425},{3,3,1,426},{4,421,1,427},{5,422,2,427},{6,423,2,427},{7,424,1,427},{8,425,2,427},{9,426,1,427},{24,421,1,428},{25,422,2,428},{26,423,2,428},{27,424,1,428},{28,425,2,428},{29,426,1,428},{44,421,1,429},{45,422,2,429},{46,423,2,429},{47,424,1,429},{48,425,2,429},{49,426,1,429},{21,21,1,430},{21,22,1,431},{21,23,1,432},{22,22,1,433},{22,23,1,434},{23,23,1,435},{4,430,1,436},{5,431,2,436},{6,432,2,436},{7,433,1,436},{8,434,2,436},{9,435,1,436},{24,430,1,437},{25,431,2,437},{26,432,2,437},{27,433,1,437},{28,434,2,437},{29,435,1,437},{44,430,1,438},{45,431,2,438},{46,432,2,438},{47,433,1,438},{48,434,2,438},{49,435,1,438},{41,41,1,439},{41,42,1,440},{41,43,1,441},{42,42,1,442},{42,43,1,443},{43,43,1,444},{4,439,1,445},{5,440,2,445},{6,441,2,445},{7,442,1,445},{8,443,2,445},{9,444,1,445},{24,439,1,446},{25,440,2,446},{26,441,2,446},{27,442,1,446},{28,443,2,446},{29,444,1,446},{44,439,1,447},{45,440,2,447},{46,441,2,447},{47,442,1,447},{48,443,2,447},{49,444,1,447},{421,421,1,448},{422,422,2,448},{423,423,2,448},{424,424,1,448},{425,425,2,448},{426,426,1,448},{421,430,1,449},{422,431,2,449},{423,432,2,449},{424,433,1,449},{425,434,2,449},{426,435,1,449},{421,439,1,450},{422,440,2,450},{423,441,2,450},{424,442,1,450},{425,443,2,450},{426,444,1,450},{430,430,1,451},{431,431,2,451},{432,432,2,451},{433,433,1,451},{434,434,2,451},{435,435,1,451},{430,439,1,452},{431,440,2,452},{432,441,2,452},{433,442,1,452},{434,443,2,452},{435,444,1,452},{439,439,1,453},{440,440,2,453},{441,441,2,453},{442,442,1,453},{443,443,2,453},{444,444,1,453},{4,4,1,454},{5,5,1,454},{6,6,1,454},{4,5,1,455},{5,7,1,455},{6,8,1,455},{4,6,1,456},{5,8,1,456},{6,9,1,456},{5,5,1,457},{7,7,1,457},{8,8,1,457},{5,6,1,458},{7,8,1,458},{8,9,1,458},{6,6,1,459},{8,8,1,459},{9,9,1,459},{4,454,1,460},{5,455,2,460},{6,456,2,460},{7,457,1,460},{8,458,2,460},{9,459,1,460},{24,454,1,461},{25,455,2,461},{26,456,2,461},{27,457,1,461},{28,458,2,461},{29,459,1,461},{44,454,1,462},{45,455,2,462},{46,456,2,462},{47,457,1,462},{48,458,2,462},{49,459,1,462},{24,24,1,463},{25,25,1,463},{26,26,1,463},{24,25,1,464},{25,27,1,464},{26,28,1,464},{24,26,1,465},{25,28,1,465},{26,29,1,465},{25,25,1,466},{27,27,1,466},{28,28,1,466},{25,26,1,467},{27,28,1,467},{28,29,1,467},{26,26,1,468},{28,28,1,468},{29,29,1,468},{4,463,1,469},{5,464,2,469},{6,465,2,469},{7,466,1,469},{8,467,2,469},{9,468,1,469},{24,463,1,470},{25,464,2,470},{26,465,2,470},{27,466,1,470},{28,467,2,470},{29,468,1,470},{44,463,1,471},{45,464,2,471},{46,465,2,471},{47,466,1,471},{48,467,2,471},{49,468,1,471},{44,44,1,472},{45,45,1,472},{46,46,1,472},{44,45,1,473},{45,47,1,473},{46,48,1,473},{44,46,1,474},{45,48,1,474},{46,49,1,474},{45,45,1,475},{47,47,1,475},{48,48,1,475},{45,46,1,476},{47,48,1,476},{48,49,1,476},{46,46,1,477},{48,48,1,477},{49,49,1,477},{4,472,1,478},{5,473,2,478},{6,474,2,478},{7,475,1,478},{8,476,2,478},{9,477,1,478},{24,472,1,479},{25,473,2,479},{26,474,2,479},{27,475,1,479},{28,476,2,479},{29,477,1,479},{44,472,1,480},{45,473,2,480},{46,474,2,480},{47,475,1,480},{48,476,2,480},{49,477,1,480},{454,454,1,481},{455,455,2,481},{456,456,2,481},{457,457,1,481},{458,458,2,481},{459,459,1,481},{454,463,1,482},{455,464,2,482},{456,465,2,482},{457,466,1,482},{458,467,2,482},{459,468,1,482},{454,472,1,483},{455,473,2,483},{456,474,2,483},{457,475,1,483},{458,476,2,483},{459,477,1,483},{463,463,1,484},{464,464,2,484},{465,465,2,484},{466,466,1,484},{467,467,2,484},{468,468,1,484},{463,472,1,485},{464,473,2,485},{465,474,2,485},{466,475,1,485},{467,476,2,485},{468,477,1,485},{472,472,1,486},{473,473,2,486},{474,474,2,486},{475,475,1,486},{476,476,2,486},{477,477,1,486},{421,454,1,487},{422,455,2,487},{423,456,2,487},{424,457,1,487},{425,458,2,487},{426,459,1,487},{421,463,1,488},{422,464,2,488},{423,465,2,488},{424,466,1,488},{425,467,2,488},{426,468,1,488},{421,472,1,489},{422,473,2,489},{423,474,2,489},{424,475,1,489},{425,476,2,489},{426,477,1,489},{430,454,1,490},{431,455,2,490},{432,456,2,490},{433,457,1,490},{434,458,2,490},{435,459,1,490},{430,463,1,491},{431,464,2,491},{432,465,2,491},{433,466,1,491},{434,467,2,491},{435,468,1,491},{430,472,1,492},{431,473,2,492},{432,474,2,492},{433,475,1,492},{434,476,2,492},{435,477,1,492},{439,454,1,493},{440,455,2,493},{441,456,2,493},{442,457,1,493},{443,458,2,493},{444,459,1,493},{439,463,1,494},{440,464,2,494},{441,465,2,494},{442,466,1,494},{443,467,2,494},{444,468,1,494},{439,472,1,495},{440,473,2,495},{441,474,2,495},{442,475,1,495},{443,476,2,495},{444,477,1,495},{277,454,1,496},{278,455,2,496},{279,456,2,496},{280,457,1,496},{281,458,2,496},{282,459,1,496},{277,463,1,497},{278,464,2,497},{279,465,2,497},{280,466,1,497},{281,467,2,497},{282,468,1,497},{277,472,1,498},{278,473,2,498},{279,474,2,498},{280,475,1,498},{281,476,2,498},{282,477,1,498},{286,454,1,499},{287,455,2,499},{288,456,2,499},{289,457,1,499},{290,458,2,499},{291,459,1,499},{286,463,1,500},{287,464,2,500},{288,465,2,500},{289,466,1,500},{290,467,2,500},{291,468,1,500},{286,472,1,501},{287,473,2,501},{288,474,2,501},{289,475,1,501},{290,476,2,501},{291,477,1,501},{295,454,1,502},{296,455,2,502},{297,456,2,502},{298,457,1,502},{299,458,2,502},{300,459,1,502},{295,463,1,503},{296,464,2,503},{297,465,2,503},{298,466,1,503},{299,467,2,503},{300,468,1,503},{295,472,1,504},{296,473,2,504},{297,474,2,504},{298,475,1,504},{299,476,2,504},{300,477,1,504},{277,421,1,505},{278,422,2,505},{279,423,2,505},{280,424,1,505},{281,425,2,505},{282,426,1,505},{277,430,1,506},{278,431,2,506},{279,432,2,506},{280,433,1,506},{281,434,2,506},{282,435,1,506},{277,439,1,507},{278,440,2,507},{279,441,2,507},{280,442,1,507},{281,443,2,507},{282,444,1,507},{286,421,1,508},{287,422,2,508},{288,423,2,508},{289,424,1,508},{290,425,2,508},{291,426,1,508},{286,430,1,509},{287,431,2,509},{288,432,2,509},{289,433,1,509},{290,434,2,509},{291,435,1,509},{286,439,1,510},{287,440,2,510},{288,441,2,510},{289,442,1,510},{290,443,2,510},{291,444,1,510},{295,421,1,511},{296,422,2,511},{297,423,2,511},{298,424,1,511},{299,425,2,511},{300,426,1,511},{295,430,1,512},{296,431,2,512},{297,432,2,512},{298,433,1,512},{299,434,2,512},{300,435,1,512},{295,439,1,513},{296,440,2,513},{297,441,2,513},{298,442,1,513},{299,443,2,513},{300,444,1,513}}
alpha_scalar_moments = 349
alpha_moment_mapping = {0, 20, 40, 60, 61, 62, 63, 64, 65, 66, 67, 68, 69, 70, 71, 72, 73, 74, 75, 76, 77, 78, 79, 80, 81, 82, 83, 84, 85, 86, 87, 88, 89, 90, 91, 92, 93, 94, 95, 96, 97, 98, 99, 100, 101, 102, 103, 104, 105, 106, 107, 108, 109, 110, 111, 112, 113, 114, 115, 116, 117, 118, 119, 120, 121, 122, 123, 124, 125, 126, 127, 128, 129, 130, 131, 132, 133, 134, 135, 136, 137, 138, 139, 140, 141, 142, 143, 144, 145, 146, 147, 148, 149, 150, 151, 152, 153, 154, 155, 156, 157, 158, 159, 160, 161, 162, 163, 164, 165, 166, 167, 168, 169, 170, 171, 172, 173, 174, 175, 176, 177, 178, 179, 180, 181, 182, 183, 184, 185, 186, 187, 188, 189, 190, 191, 192, 193, 194, 195, 196, 197, 198, 199, 200, 201, 202, 203, 204, 205, 206, 207, 226, 227, 228, 247, 248, 249, 268, 269, 270, 271, 272, 273, 274, 275, 276, 283, 284, 285, 292, 293, 294, 301, 302, 303, 304, 305, 306, 307, 308, 309, 310, 311, 312, 313, 314, 315, 316, 317, 318, 319, 320, 321, 322, 323, 324, 325, 326, 327, 328, 329, 330, 331, 332, 333, 334, 335, 336, 337, 338, 339, 340, 341, 342, 343, 344, 345, 346, 347, 348, 349, 350, 351, 352, 353, 354, 355, 356, 357, 358, 359, 360, 361, 362, 363, 364, 365, 366, 367, 368, 369, 370, 371, 372, 373, 374, 375, 376, 377, 378, 379, 380, 381, 382, 383, 384, 385, 386, 387, 388, 389, 390, 391, 392, 393, 394, 395, 396, 397, 398, 399, 400, 401, 402, 403, 404, 405, 406, 407, 408, 409, 410, 411, 412, 413, 414, 415, 416, 417, 418, 419, 420, 427, 428, 429, 436, 437, 438, 445, 446, 447, 448, 449, 450, 451, 452, 453, 460, 461, 462, 469, 470, 471, 478, 479, 480, 481, 482, 483, 484, 485, 486, 487, 488, 489, 490, 491, 492, 493, 494, 495, 496, 497, 498, 499, 500, 501, 502, 503, 504, 505, 506, 507, 508, 509, 510, 511, 512, 513}

