MTP
version = 1.1.0
potential_name = MTP_l4k3
scaling = 0.01
L = 4
scaling_map = LK
species_count = 2
potential_tag = 
radial_basis_type = RBChebyshev_sss
	min_dist = 2.3
	max_dist = 6.5
	radial_basis_size = 8
	radial_funcs_count =15
alpha_moments_count =1042
alpha_index_basic_count = 105
alpha_index_basic = {{0, 0, 0, 0},{1, 1, 0, 0},{1, 0, 1, 0},{1, 0, 0, 1},{2, 2, 0, 0},{2, 1, 1, 0},{2, 1, 0, 1},{2, 0, 2, 0},{2, 0, 1, 1},{2, 0, 0, 2},{3, 3, 0, 0},{3, 2, 1, 0},{3, 2, 0, 1},{3, 1, 2, 0},{3, 1, 1, 1},{3, 1, 0, 2},{3, 0, 3, 0},{3, 0, 2, 1},{3, 0, 1, 2},{3, 0, 0, 3},{4, 4, 0, 0},{4, 3, 1, 0},{4, 3, 0, 1},{4, 2, 2, 0},{4, 2, 1, 1},{4, 2, 0, 2},{4, 1, 3, 0},{4, 1, 2, 1},{4, 1, 1, 2},{4, 1, 0, 3},{4, 0, 4, 0},{4, 0, 3, 1},{4, 0, 2, 2},{4, 0, 1, 3},{4, 0, 0, 4},{5, 0, 0, 0},{6, 1, 0, 0},{6, 0, 1, 0},{6, 0, 0, 1},{7, 2, 0, 0},{7, 1, 1, 0},{7, 1, 0, 1},{7, 0, 2, 0},{7, 0, 1, 1},{7, 0, 0, 2},{8, 3, 0, 0},{8, 2, 1, 0},{8, 2, 0, 1},{8, 1, 2, 0},{8, 1, 1, 1},{8, 1, 0, 2},{8, 0, 3, 0},{8, 0, 2, 1},{8, 0, 1, 2},{8, 0, 0, 3},{9, 4, 0, 0},{9, 3, 1, 0},{9, 3, 0, 1},{9, 2, 2, 0},{9, 2, 1, 1},{9, 2, 0, 2},{9, 1, 3, 0},{9, 1, 2, 1},{9, 1, 1, 2},{9, 1, 0, 3},{9, 0, 4, 0},{9, 0, 3, 1},{9, 0, 2, 2},{9, 0, 1, 3},{9, 0, 0, 4},{10, 0, 0, 0},{11, 1, 0, 0},{11, 0, 1, 0},{11, 0, 0, 1},{12, 2, 0, 0},{12, 1, 1, 0},{12, 1, 0, 1},{12, 0, 2, 0},{12, 0, 1, 1},{12, 0, 0, 2},{13, 3, 0, 0},{13, 2, 1, 0},{13, 2, 0, 1},{13, 1, 2, 0},{13, 1, 1, 1},{13, 1, 0, 2},{13, 0, 3, 0},{13, 0, 2, 1},{13, 0, 1, 2},{13, 0, 0, 3},{14, 4, 0, 0},{14, 3, 1, 0},{14, 3, 0, 1},{14, 2, 2, 0},{14, 2, 1, 1},{14, 2, 0, 2},{14, 1, 3, 0},{14, 1, 2, 1},{14, 1, 1, 2},{14, 1, 0, 3},{14, 0, 4, 0},{14, 0, 3, 1},{14, 0, 2, 2},{14, 0, 1, 3},{14, 0, 0, 4}}
alpha_index_times_count = 3172
alpha_index_times = {{0,0,1,105},{0,105,1,106},{35,105,1,107},{70,105,1,108},{0,35,1,109},{35,109,1,110},{70,109,1,111},{0,70,1,112},{70,112,1,113},{35,35,1,114},{35,114,1,115},{70,114,1,116},{35,70,1,117},{70,117,1,118},{70,70,1,119},{70,119,1,120},{1,1,1,121},{2,2,1,121},{3,3,1,121},{1,36,1,122},{2,37,1,122},{3,38,1,122},{1,71,1,123},{2,72,1,123},{3,73,1,123},{36,36,1,124},{37,37,1,124},{38,38,1,124},{36,71,1,125},{37,72,1,125},{38,73,1,125},{71,71,1,126},{72,72,1,126},{73,73,1,126},{4,4,1,127},{5,5,2,127},{6,6,2,127},{7,7,1,127},{8,8,2,127},{9,9,1,127},{4,39,1,128},{5,40,2,128},{6,41,2,128},{7,42,1,128},{8,43,2,128},{9,44,1,128},{4,74,1,129},{5,75,2,129},{6,76,2,129},{7,77,1,129},{8,78,2,129},{9,79,1,129},{39,39,1,130},{40,40,2,130},{41,41,2,130},{42,42,1,130},{43,43,2,130},{44,44,1,130},{39,74,1,131},{40,75,2,131},{41,76,2,131},{42,77,1,131},{43,78,2,131},{44,79,1,131},{74,74,1,132},{75,75,2,132},{76,76,2,132},{77,77,1,132},{78,78,2,132},{79,79,1,132},{0,121,1,133},{0,122,1,134},{0,123,1,135},{0,124,1,136},{0,125,1,137},{0,126,1,138},{35,121,1,139},{35,122,1,140},{35,123,1,141},{35,124,1,142},{35,125,1,143},{35,126,1,144},{70,121,1,145},{70,122,1,146},{70,123,1,147},{70,124,1,148},{70,125,1,149},{70,126,1,150},{0,127,1,151},{0,128,1,152},{0,129,1,153},{0,130,1,154},{0,131,1,155},{0,132,1,156},{35,127,1,157},{35,128,1,158},{35,129,1,159},{35,130,1,160},{35,131,1,161},{35,132,1,162},{70,127,1,163},{70,128,1,164},{70,129,1,165},{70,130,1,166},{70,131,1,167},{70,132,1,168},{121,121,1,169},{121,122,1,170},{121,123,1,171},{121,124,1,172},{121,125,1,173},{121,126,1,174},{122,122,1,175},{122,123,1,176},{122,124,1,177},{122,125,1,178},{122,126,1,179},{123,123,1,180},{123,124,1,181},{123,125,1,182},{123,126,1,183},{124,124,1,184},{124,125,1,185},{124,126,1,186},{125,125,1,187},{125,126,1,188},{126,126,1,189},{121,127,1,190},{121,128,1,191},{121,129,1,192},{121,130,1,193},{121,131,1,194},{121,132,1,195},{122,127,1,196},{122,128,1,197},{122,129,1,198},{122,130,1,199},{122,131,1,200},{122,132,1,201},{123,127,1,202},{123,128,1,203},{123,129,1,204},{123,130,1,205},{123,131,1,206},{123,132,1,207},{124,127,1,208},{124,128,1,209},{124,129,1,210},{124,130,1,211},{124,131,1,212},{124,132,1,213},{125,127,1,214},{125,128,1,215},{125,129,1,216},{125,130,1,217},{125,131,1,218},{125,132,1,219},{126,127,1,220},{126,128,1,221},{126,129,1,222},{126,130,1,223},{126,131,1,224},{126,132,1,225},{127,127,1,226},{127,128,1,227},{127,129,1,228},{127,130,1,229},{127,131,1,230},{127,132,1,231},{128,128,1,232},{128,129,1,233},{128,130,1,234},{128,131,1,235},{128,132,1,236},{129,129,1,237},{129,130,1,238},{129,131,1,239},{129,132,1,240},{130,130,1,241},{130,131,1,242},{130,132,1,243},{131,131,1,244},{131,132,1,245},{132,132,1,246},{10,10,1,247},{11,11,3,247},{12,12,3,247},{13,13,3,247},{14,14,6,247},{15,15,3,247},{16,16,1,247},{17,17,3,247},{18,18,3,247},{19,19,1,247},{10,45,1,248},{11,46,3,248},{12,47,3,248},{13,48,3,248},{14,49,6,248},{15,50,3,248},{16,51,1,248},{17,52,3,248},{18,53,3,248},{19,54,1,248},{10,80,1,249},{11,81,3,249},{12,82,3,249},{13,83,3,249},{14,84,6,249},{15,85,3,249},{16,86,1,249},{17,87,3,249},{18,88,3,249},{19,89,1,249},{45,45,1,250},{46,46,3,250},{47,47,3,250},{48,48,3,250},{49,49,6,250},{50,50,3,250},{51,51,1,250},{52,52,3,250},{53,53,3,250},{54,54,1,250},{45,80,1,251},{46,81,3,251},{47,82,3,251},{48,83,3,251},{49,84,6,251},{50,85,3,251},{51,86,1,251},{52,87,3,251},{53,88,3,251},{54,89,1,251},{80,80,1,252},{81,81,3,252},{82,82,3,252},{83,83,3,252},{84,84,6,252},{85,85,3,252},{86,86,1,252},{87,87,3,252},{88,88,3,252},{89,89,1,252},{1,4,1,253},{1,5,1,254},{1,6,1,255},{1,7,1,256},{1,8,1,257},{1,9,1,258},{2,4,1,259},{2,5,1,260},{2,6,1,261},{2,7,1,262},{2,8,1,263},{2,9,1,264},{3,4,1,265},{3,5,1,266},{3,6,1,267},{3,7,1,268},{3,8,1,269},{3,9,1,270},{10,253,1,271},{11,254,2,271},{12,255,2,271},{13,256,1,271},{14,257,2,271},{15,258,1,271},{11,259,1,271},{13,260,2,271},{14,261,2,271},{16,262,1,271},{17,263,2,271},{18,264,1,271},{12,265,1,271},{14,266,2,271},{15,267,2,271},{17,268,1,271},{18,269,2,271},{19,270,1,271},{45,253,1,272},{46,254,2,272},{47,255,2,272},{48,256,1,272},{49,257,2,272},{50,258,1,272},{46,259,1,272},{48,260,2,272},{49,261,2,272},{51,262,1,272},{52,263,2,272},{53,264,1,272},{47,265,1,272},{49,266,2,272},{50,267,2,272},{52,268,1,272},{53,269,2,272},{54,270,1,272},{80,253,1,273},{81,254,2,273},{82,255,2,273},{83,256,1,273},{84,257,2,273},{85,258,1,273},{81,259,1,273},{83,260,2,273},{84,261,2,273},{86,262,1,273},{87,263,2,273},{88,264,1,273},{82,265,1,273},{84,266,2,273},{85,267,2,273},{87,268,1,273},{88,269,2,273},{89,270,1,273},{36,39,1,274},{36,40,1,275},{36,41,1,276},{36,42,1,277},{36,43,1,278},{36,44,1,279},{37,39,1,280},{37,40,1,281},{37,41,1,282},{37,42,1,283},{37,43,1,284},{37,44,1,285},{38,39,1,286},{38,40,1,287},{38,41,1,288},{38,42,1,289},{38,43,1,290},{38,44,1,291},{10,274,1,292},{11,275,2,292},{12,276,2,292},{13,277,1,292},{14,278,2,292},{15,279,1,292},{11,280,1,292},{13,281,2,292},{14,282,2,292},{16,283,1,292},{17,284,2,292},{18,285,1,292},{12,286,1,292},{14,287,2,292},{15,288,2,292},{17,289,1,292},{18,290,2,292},{19,291,1,292},{45,274,1,293},{46,275,2,293},{47,276,2,293},{48,277,1,293},{49,278,2,293},{50,279,1,293},{46,280,1,293},{48,281,2,293},{49,282,2,293},{51,283,1,293},{52,284,2,293},{53,285,1,293},{47,286,1,293},{49,287,2,293},{50,288,2,293},{52,289,1,293},{53,290,2,293},{54,291,1,293},{80,274,1,294},{81,275,2,294},{82,276,2,294},{83,277,1,294},{84,278,2,294},{85,279,1,294},{81,280,1,294},{83,281,2,294},{84,282,2,294},{86,283,1,294},{87,284,2,294},{88,285,1,294},{82,286,1,294},{84,287,2,294},{85,288,2,294},{87,289,1,294},{88,290,2,294},{89,291,1,294},{71,74,1,295},{71,75,1,296},{71,76,1,297},{71,77,1,298},{71,78,1,299},{71,79,1,300},{72,74,1,301},{72,75,1,302},{72,76,1,303},{72,77,1,304},{72,78,1,305},{72,79,1,306},{73,74,1,307},{73,75,1,308},{73,76,1,309},{73,77,1,310},{73,78,1,311},{73,79,1,312},{10,295,1,313},{11,296,2,313},{12,297,2,313},{13,298,1,313},{14,299,2,313},{15,300,1,313},{11,301,1,313},{13,302,2,313},{14,303,2,313},{16,304,1,313},{17,305,2,313},{18,306,1,313},{12,307,1,313},{14,308,2,313},{15,309,2,313},{17,310,1,313},{18,311,2,313},{19,312,1,313},{45,295,1,314},{46,296,2,314},{47,297,2,314},{48,298,1,314},{49,299,2,314},{50,300,1,314},{46,301,1,314},{48,302,2,314},{49,303,2,314},{51,304,1,314},{52,305,2,314},{53,306,1,314},{47,307,1,314},{49,308,2,314},{50,309,2,314},{52,310,1,314},{53,311,2,314},{54,312,1,314},{80,295,1,315},{81,296,2,315},{82,297,2,315},{83,298,1,315},{84,299,2,315},{85,300,1,315},{81,301,1,315},{83,302,2,315},{84,303,2,315},{86,304,1,315},{87,305,2,315},{88,306,1,315},{82,307,1,315},{84,308,2,315},{85,309,2,315},{87,310,1,315},{88,311,2,315},{89,312,1,315},{253,253,1,316},{254,254,2,316},{255,255,2,316},{256,256,1,316},{257,257,2,316},{258,258,1,316},{259,259,1,316},{260,260,2,316},{261,261,2,316},{262,262,1,316},{263,263,2,316},{264,264,1,316},{265,265,1,316},{266,266,2,316},{267,267,2,316},{268,268,1,316},{269,269,2,316},{270,270,1,316},{253,274,1,317},{254,275,2,317},{255,276,2,317},{256,277,1,317},{257,278,2,317},{258,279,1,317},{259,280,1,317},{260,281,2,317},{261,282,2,317},{262,283,1,317},{263,284,2,317},{264,285,1,317},{265,286,1,317},{266,287,2,317},{267,288,2,317},{268,289,1,317},{269,290,2,317},{270,291,1,317},{253,295,1,318},{254,296,2,318},{255,297,2,318},{256,298,1,318},{257,299,2,318},{258,300,1,318},{259,301,1,318},{260,302,2,318},{261,303,2,318},{262,304,1,318},{263,305,2,318},{264,306,1,318},{265,307,1,318},{266,308,2,318},{267,309,2,318},{268,310,1,318},{269,311,2,318},{270,312,1,318},{274,274,1,319},{275,275,2,319},{276,276,2,319},{277,277,1,319},{278,278,2,319},{279,279,1,319},{280,280,1,319},{281,281,2,319},{282,282,2,319},{283,283,1,319},{284,284,2,319},{285,285,1,319},{286,286,1,319},{287,287,2,319},{288,288,2,319},{289,289,1,319},{290,290,2,319},{291,291,1,319},{274,295,1,320},{275,296,2,320},{276,297,2,320},{277,298,1,320},{278,299,2,320},{279,300,1,320},{280,301,1,320},{281,302,2,320},{282,303,2,320},{283,304,1,320},{284,305,2,320},{285,306,1,320},{286,307,1,320},{287,308,2,320},{288,309,2,320},{289,310,1,320},{290,311,2,320},{291,312,1,320},{295,295,1,321},{296,296,2,321},{297,297,2,321},{298,298,1,321},{299,299,2,321},{300,300,1,321},{301,301,1,321},{302,302,2,321},{303,303,2,321},{304,304,1,321},{305,305,2,321},{306,306,1,321},{307,307,1,321},{308,308,2,321},{309,309,2,321},{310,310,1,321},{311,311,2,321},{312,312,1,321},{10,10,1,322},{11,11,2,322},{12,12,2,322},{13,13,1,322},{14,14,2,322},{15,15,1,322},{10,11,1,323},{11,13,2,323},{12,14,2,323},{13,16,1,323},{14,17,2,323},{15,18,1,323},{10,12,1,324},{11,14,2,324},{12,15,2,324},{13,17,1,324},{14,18,2,324},{15,19,1,324},{11,11,1,325},{13,13,2,325},{14,14,2,325},{16,16,1,325},{17,17,2,325},{18,18,1,325},{11,12,1,326},{13,14,2,326},{14,15,2,326},{16,17,1,326},{17,18,2,326},{18,19,1,326},{12,12,1,327},{14,14,2,327},{15,15,2,327},{17,17,1,327},{18,18,2,327},{19,19,1,327},{4,322,1,328},{5,323,2,328},{6,324,2,328},{7,325,1,328},{8,326,2,328},{9,327,1,328},{39,322,1,329},{40,323,2,329},{41,324,2,329},{42,325,1,329},{43,326,2,329},{44,327,1,329},{74,322,1,330},{75,323,2,330},{76,324,2,330},{77,325,1,330},{78,326,2,330},{79,327,1,330},{45,45,1,331},{46,46,2,331},{47,47,2,331},{48,48,1,331},{49,49,2,331},{50,50,1,331},{45,46,1,332},{46,48,2,332},{47,49,2,332},{48,51,1,332},{49,52,2,332},{50,53,1,332},{45,47,1,333},{46,49,2,333},{47,50,2,333},{48,52,1,333},{49,53,2,333},{50,54,1,333},{46,46,1,334},{48,48,2,334},{49,49,2,334},{51,51,1,334},{52,52,2,334},{53,53,1,334},{46,47,1,335},{48,49,2,335},{49,50,2,335},{51,52,1,335},{52,53,2,335},{53,54,1,335},{47,47,1,336},{49,49,2,336},{50,50,2,336},{52,52,1,336},{53,53,2,336},{54,54,1,336},{4,331,1,337},{5,332,2,337},{6,333,2,337},{7,334,1,337},{8,335,2,337},{9,336,1,337},{39,331,1,338},{40,332,2,338},{41,333,2,338},{42,334,1,338},{43,335,2,338},{44,336,1,338},{74,331,1,339},{75,332,2,339},{76,333,2,339},{77,334,1,339},{78,335,2,339},{79,336,1,339},{80,80,1,340},{81,81,2,340},{82,82,2,340},{83,83,1,340},{84,84,2,340},{85,85,1,340},{80,81,1,341},{81,83,2,341},{82,84,2,341},{83,86,1,341},{84,87,2,341},{85,88,1,341},{80,82,1,342},{81,84,2,342},{82,85,2,342},{83,87,1,342},{84,88,2,342},{85,89,1,342},{81,81,1,343},{83,83,2,343},{84,84,2,343},{86,86,1,343},{87,87,2,343},{88,88,1,343},{81,82,1,344},{83,84,2,344},{84,85,2,344},{86,87,1,344},{87,88,2,344},{88,89,1,344},{82,82,1,345},{84,84,2,345},{85,85,2,345},{87,87,1,345},{88,88,2,345},{89,89,1,345},{4,340,1,346},{5,341,2,346},{6,342,2,346},{7,343,1,346},{8,344,2,346},{9,345,1,346},{39,340,1,347},{40,341,2,347},{41,342,2,347},{42,343,1,347},{43,344,2,347},{44,345,1,347},{74,340,1,348},{75,341,2,348},{76,342,2,348},{77,343,1,348},{78,344,2,348},{79,345,1,348},{322,322,1,349},{323,323,2,349},{324,324,2,349},{325,325,1,349},{326,326,2,349},{327,327,1,349},{322,331,1,350},{323,332,2,350},{324,333,2,350},{325,334,1,350},{326,335,2,350},{327,336,1,350},{322,340,1,351},{323,341,2,351},{324,342,2,351},{325,343,1,351},{326,344,2,351},{327,345,1,351},{331,331,1,352},{332,332,2,352},{333,333,2,352},{334,334,1,352},{335,335,2,352},{336,336,1,352},{331,340,1,353},{332,341,2,353},{333,342,2,353},{334,343,1,353},{335,344,2,353},{336,345,1,353},{340,340,1,354},{341,341,2,354},{342,342,2,354},{343,343,1,354},{344,344,2,354},{345,345,1,354},{121,247,1,355},{121,248,1,356},{121,249,1,357},{121,250,1,358},{121,251,1,359},{121,252,1,360},{122,247,1,361},{122,248,1,362},{122,249,1,363},{122,250,1,364},{122,251,1,365},{122,252,1,366},{123,247,1,367},{123,248,1,368},{123,249,1,369},{123,250,1,370},{123,251,1,371},{123,252,1,372},{124,247,1,373},{124,248,1,374},{124,249,1,375},{124,250,1,376},{124,251,1,377},{124,252,1,378},{125,247,1,379},{125,248,1,380},{125,249,1,381},{125,250,1,382},{125,251,1,383},{125,252,1,384},{126,247,1,385},{126,248,1,386},{126,249,1,387},{126,250,1,388},{126,251,1,389},{126,252,1,390},{127,247,1,391},{127,248,1,392},{127,249,1,393},{127,250,1,394},{127,251,1,395},{127,252,1,396},{128,247,1,397},{128,248,1,398},{128,249,1,399},{128,250,1,400},{128,251,1,401},{128,252,1,402},{129,247,1,403},{129,248,1,404},{129,249,1,405},{129,250,1,406},{129,251,1,407},{129,252,1,408},{130,247,1,409},{130,248,1,410},{130,249,1,411},{130,250,1,412},{130,251,1,413},{130,252,1,414},{131,247,1,415},{131,248,1,416},{131,249,1,417},{131,250,1,418},{131,251,1,419},{131,252,1,420},{132,247,1,421},{132,248,1,422},{132,249,1,423},{132,250,1,424},{132,251,1,425},{132,252,1,426},{247,247,1,427},{247,248,1,428},{247,249,1,429},{247,250,1,430},{247,251,1,431},{247,252,1,432},{248,248,1,433},{248,249,1,434},{248,250,1,435},{248,251,1,436},{248,252,1,437},{249,249,1,438},{249,250,1,439},{249,251,1,440},{249,252,1,441},{250,250,1,442},{250,251,1,443},{250,252,1,444},{251,251,1,445},{251,252,1,446},{252,252,1,447},{0,247,1,448},{0,248,1,449},{0,249,1,450},{0,250,1,451},{0,251,1,452},{0,252,1,453},{35,247,1,454},{35,248,1,455},{35,249,1,456},{35,250,1,457},{35,251,1,458},{35,252,1,459},{70,247,1,460},{70,248,1,461},{70,249,1,462},{70,250,1,463},{70,251,1,464},{70,252,1,465},{1,1,1,466},{1,2,1,467},{1,3,1,468},{2,2,1,469},{2,3,1,470},{3,3,1,471},{4,466,1,472},{5,467,2,472},{6,468,2,472},{7,469,1,472},{8,470,2,472},{9,471,1,472},{39,466,1,473},{40,467,2,473},{41,468,2,473},{42,469,1,473},{43,470,2,473},{44,471,1,473},{74,466,1,474},{75,467,2,474},{76,468,2,474},{77,469,1,474},{78,470,2,474},{79,471,1,474},{36,36,1,475},{36,37,1,476},{36,38,1,477},{37,37,1,478},{37,38,1,479},{38,38,1,480},{4,475,1,481},{5,476,2,481},{6,477,2,481},{7,478,1,481},{8,479,2,481},{9,480,1,481},{39,475,1,482},{40,476,2,482},{41,477,2,482},{42,478,1,482},{43,479,2,482},{44,480,1,482},{74,475,1,483},{75,476,2,483},{76,477,2,483},{77,478,1,483},{78,479,2,483},{79,480,1,483},{71,71,1,484},{71,72,1,485},{71,73,1,486},{72,72,1,487},{72,73,1,488},{73,73,1,489},{4,484,1,490},{5,485,2,490},{6,486,2,490},{7,487,1,490},{8,488,2,490},{9,489,1,490},{39,484,1,491},{40,485,2,491},{41,486,2,491},{42,487,1,491},{43,488,2,491},{44,489,1,491},{74,484,1,492},{75,485,2,492},{76,486,2,492},{77,487,1,492},{78,488,2,492},{79,489,1,492},{466,466,1,493},{467,467,2,493},{468,468,2,493},{469,469,1,493},{470,470,2,493},{471,471,1,493},{466,475,1,494},{467,476,2,494},{468,477,2,494},{469,478,1,494},{470,479,2,494},{471,480,1,494},{466,484,1,495},{467,485,2,495},{468,486,2,495},{469,487,1,495},{470,488,2,495},{471,489,1,495},{475,475,1,496},{476,476,2,496},{477,477,2,496},{478,478,1,496},{479,479,2,496},{480,480,1,496},{475,484,1,497},{476,485,2,497},{477,486,2,497},{478,487,1,497},{479,488,2,497},{480,489,1,497},{484,484,1,498},{485,485,2,498},{486,486,2,498},{487,487,1,498},{488,488,2,498},{489,489,1,498},{4,4,1,499},{5,5,1,499},{6,6,1,499},{4,5,1,500},{5,7,1,500},{6,8,1,500},{4,6,1,501},{5,8,1,501},{6,9,1,501},{5,5,1,502},{7,7,1,502},{8,8,1,502},{5,6,1,503},{7,8,1,503},{8,9,1,503},{6,6,1,504},{8,8,1,504},{9,9,1,504},{4,499,1,505},{5,500,2,505},{6,501,2,505},{7,502,1,505},{8,503,2,505},{9,504,1,505},{39,499,1,506},{40,500,2,506},{41,501,2,506},{42,502,1,506},{43,503,2,506},{44,504,1,506},{74,499,1,507},{75,500,2,507},{76,501,2,507},{77,502,1,507},{78,503,2,507},{79,504,1,507},{39,39,1,508},{40,40,1,508},{41,41,1,508},{39,40,1,509},{40,42,1,509},{41,43,1,509},{39,41,1,510},{40,43,1,510},{41,44,1,510},{40,40,1,511},{42,42,1,511},{43,43,1,511},{40,41,1,512},{42,43,1,512},{43,44,1,512},{41,41,1,513},{43,43,1,513},{44,44,1,513},{4,508,1,514},{5,509,2,514},{6,510,2,514},{7,511,1,514},{8,512,2,514},{9,513,1,514},{39,508,1,515},{40,509,2,515},{41,510,2,515},{42,511,1,515},{43,512,2,515},{44,513,1,515},{74,508,1,516},{75,509,2,516},{76,510,2,516},{77,511,1,516},{78,512,2,516},{79,513,1,516},{74,74,1,517},{75,75,1,517},{76,76,1,517},{74,75,1,518},{75,77,1,518},{76,78,1,518},{74,76,1,519},{75,78,1,519},{76,79,1,519},{75,75,1,520},{77,77,1,520},{78,78,1,520},{75,76,1,521},{77,78,1,521},{78,79,1,521},{76,76,1,522},{78,78,1,522},{79,79,1,522},{4,517,1,523},{5,518,2,523},{6,519,2,523},{7,520,1,523},{8,521,2,523},{9,522,1,523},{39,517,1,524},{40,518,2,524},{41,519,2,524},{42,520,1,524},{43,521,2,524},{44,522,1,524},{74,517,1,525},{75,518,2,525},{76,519,2,525},{77,520,1,525},{78,521,2,525},{79,522,1,525},{499,499,1,526},{500,500,2,526},{501,501,2,526},{502,502,1,526},{503,503,2,526},{504,504,1,526},{499,508,1,527},{500,509,2,527},{501,510,2,527},{502,511,1,527},{503,512,2,527},{504,513,1,527},{499,517,1,528},{500,518,2,528},{501,519,2,528},{502,520,1,528},{503,521,2,528},{504,522,1,528},{508,508,1,529},{509,509,2,529},{510,510,2,529},{511,511,1,529},{512,512,2,529},{513,513,1,529},{508,517,1,530},{509,518,2,530},{510,519,2,530},{511,520,1,530},{512,521,2,530},{513,522,1,530},{517,517,1,531},{518,518,2,531},{519,519,2,531},{520,520,1,531},{521,521,2,531},{522,522,1,531},{20,20,1,532},{21,21,4,532},{22,22,4,532},{23,23,6,532},{24,24,12,532},{25,25,6,532},{26,26,4,532},{27,27,12,532},{28,28,12,532},{29,29,4,532},{30,30,1,532},{31,31,4,532},{32,32,6,532},{33,33,4,532},{34,34,1,532},{20,55,1,533},{21,56,4,533},{22,57,4,533},{23,58,6,533},{24,59,12,533},{25,60,6,533},{26,61,4,533},{27,62,12,533},{28,63,12,533},{29,64,4,533},{30,65,1,533},{31,66,4,533},{32,67,6,533},{33,68,4,533},{34,69,1,533},{20,90,1,534},{21,91,4,534},{22,92,4,534},{23,93,6,534},{24,94,12,534},{25,95,6,534},{26,96,4,534},{27,97,12,534},{28,98,12,534},{29,99,4,534},{30,100,1,534},{31,101,4,534},{32,102,6,534},{33,103,4,534},{34,104,1,534},{55,55,1,535},{56,56,4,535},{57,57,4,535},{58,58,6,535},{59,59,12,535},{60,60,6,535},{61,61,4,535},{62,62,12,535},{63,63,12,535},{64,64,4,535},{65,65,1,535},{66,66,4,535},{67,67,6,535},{68,68,4,535},{69,69,1,535},{55,90,1,536},{56,91,4,536},{57,92,4,536},{58,93,6,536},{59,94,12,536},{60,95,6,536},{61,96,4,536},{62,97,12,536},{63,98,12,536},{64,99,4,536},{65,100,1,536},{66,101,4,536},{67,102,6,536},{68,103,4,536},{69,104,1,536},{90,90,1,537},{91,91,4,537},{92,92,4,537},{93,93,6,537},{94,94,12,537},{95,95,6,537},{96,96,4,537},{97,97,12,537},{98,98,12,537},{99,99,4,537},{100,100,1,537},{101,101,4,537},{102,102,6,537},{103,103,4,537},{104,104,1,537},{0,532,1,538},{0,533,1,539},{0,534,1,540},{0,535,1,541},{0,536,1,542},{0,537,1,543},{35,532,1,544},{35,533,1,545},{35,534,1,546},{35,535,1,547},{35,536,1,548},{35,537,1,549},{70,532,1,550},{70,533,1,551},{70,534,1,552},{70,535,1,553},{70,536,1,554},{70,537,1,555},{4,4,1,556},{4,5,1,557},{4,6,1,558},{4,7,1,559},{4,8,1,560},{4,9,1,561},{5,5,1,562},{5,6,1,563},{5,7,1,564},{5,8,1,565},{5,9,1,566},{6,6,1,567},{6,7,1,568},{6,8,1,569},{6,9,1,570},{7,7,1,571},{7,8,1,572},{7,9,1,573},{8,8,1,574},{8,9,1,575},{9,9,1,576},{20,556,1,577},{21,557,4,577},{22,558,4,577},{23,559,2,577},{24,560,4,577},{25,561,2,577},{23,562,4,577},{24,563,8,577},{26,564,4,577},{27,565,8,577},{28,566,4,577},{25,567,4,577},{27,568,4,577},{28,569,8,577},{29,570,4,577},{30,571,1,577},{31,572,4,577},{32,573,2,577},{32,574,4,577},{33,575,4,577},{34,576,1,577},{55,556,1,578},{56,557,4,578},{57,558,4,578},{58,559,2,578},{59,560,4,578},{60,561,2,578},{58,562,4,578},{59,563,8,578},{61,564,4,578},{62,565,8,578},{63,566,4,578},{60,567,4,578},{62,568,4,578},{63,569,8,578},{64,570,4,578},{65,571,1,578},{66,572,4,578},{67,573,2,578},{67,574,4,578},{68,575,4,578},{69,576,1,578},{90,556,1,579},{91,557,4,579},{92,558,4,579},{93,559,2,579},{94,560,4,579},{95,561,2,579},{93,562,4,579},{94,563,8,579},{96,564,4,579},{97,565,8,579},{98,566,4,579},{95,567,4,579},{97,568,4,579},{98,569,8,579},{99,570,4,579},{100,571,1,579},{101,572,4,579},{102,573,2,579},{102,574,4,579},{103,575,4,579},{104,576,1,579},{39,39,1,580},{39,40,1,581},{39,41,1,582},{39,42,1,583},{39,43,1,584},{39,44,1,585},{40,40,1,586},{40,41,1,587},{40,42,1,588},{40,43,1,589},{40,44,1,590},{41,41,1,591},{41,42,1,592},{41,43,1,593},{41,44,1,594},{42,42,1,595},{42,43,1,596},{42,44,1,597},{43,43,1,598},{43,44,1,599},{44,44,1,600},{20,580,1,601},{21,581,4,601},{22,582,4,601},{23,583,2,601},{24,584,4,601},{25,585,2,601},{23,586,4,601},{24,587,8,601},{26,588,4,601},{27,589,8,601},{28,590,4,601},{25,591,4,601},{27,592,4,601},{28,593,8,601},{29,594,4,601},{30,595,1,601},{31,596,4,601},{32,597,2,601},{32,598,4,601},{33,599,4,601},{34,600,1,601},{55,580,1,602},{56,581,4,602},{57,582,4,602},{58,583,2,602},{59,584,4,602},{60,585,2,602},{58,586,4,602},{59,587,8,602},{61,588,4,602},{62,589,8,602},{63,590,4,602},{60,591,4,602},{62,592,4,602},{63,593,8,602},{64,594,4,602},{65,595,1,602},{66,596,4,602},{67,597,2,602},{67,598,4,602},{68,599,4,602},{69,600,1,602},{90,580,1,603},{91,581,4,603},{92,582,4,603},{93,583,2,603},{94,584,4,603},{95,585,2,603},{93,586,4,603},{94,587,8,603},{96,588,4,603},{97,589,8,603},{98,590,4,603},{95,591,4,603},{97,592,4,603},{98,593,8,603},{99,594,4,603},{100,595,1,603},{101,596,4,603},{102,597,2,603},{102,598,4,603},{103,599,4,603},{104,600,1,603},{74,74,1,604},{74,75,1,605},{74,76,1,606},{74,77,1,607},{74,78,1,608},{74,79,1,609},{75,75,1,610},{75,76,1,611},{75,77,1,612},{75,78,1,613},{75,79,1,614},{76,76,1,615},{76,77,1,616},{76,78,1,617},{76,79,1,618},{77,77,1,619},{77,78,1,620},{77,79,1,621},{78,78,1,622},{78,79,1,623},{79,79,1,624},{20,604,1,625},{21,605,4,625},{22,606,4,625},{23,607,2,625},{24,608,4,625},{25,609,2,625},{23,610,4,625},{24,611,8,625},{26,612,4,625},{27,613,8,625},{28,614,4,625},{25,615,4,625},{27,616,4,625},{28,617,8,625},{29,618,4,625},{30,619,1,625},{31,620,4,625},{32,621,2,625},{32,622,4,625},{33,623,4,625},{34,624,1,625},{55,604,1,626},{56,605,4,626},{57,606,4,626},{58,607,2,626},{59,608,4,626},{60,609,2,626},{58,610,4,626},{59,611,8,626},{61,612,4,626},{62,613,8,626},{63,614,4,626},{60,615,4,626},{62,616,4,626},{63,617,8,626},{64,618,4,626},{65,619,1,626},{66,620,4,626},{67,621,2,626},{67,622,4,626},{68,623,4,626},{69,624,1,626},{90,604,1,627},{91,605,4,627},{92,606,4,627},{93,607,2,627},{94,608,4,627},{95,609,2,627},{93,610,4,627},{94,611,8,627},{96,612,4,627},{97,613,8,627},{98,614,4,627},{95,615,4,627},{97,616,4,627},{98,617,8,627},{99,618,4,627},{100,619,1,627},{101,620,4,627},{102,621,2,627},{102,622,4,627},{103,623,4,627},{104,624,1,627},{1,10,1,628},{1,11,1,629},{1,12,1,630},{1,13,1,631},{1,14,1,632},{1,15,1,633},{1,16,1,634},{1,17,1,635},{1,18,1,636},{1,19,1,637},{2,10,1,638},{2,11,1,639},{2,12,1,640},{2,13,1,641},{2,14,1,642},{2,15,1,643},{2,16,1,644},{2,17,1,645},{2,18,1,646},{2,19,1,647},{3,10,1,648},{3,11,1,649},{3,12,1,650},{3,13,1,651},{3,14,1,652},{3,15,1,653},{3,16,1,654},{3,17,1,655},{3,18,1,656},{3,19,1,657},{20,628,1,658},{21,629,3,658},{22,630,3,658},{23,631,3,658},{24,632,6,658},{25,633,3,658},{26,634,1,658},{27,635,3,658},{28,636,3,658},{29,637,1,658},{21,638,1,658},{23,639,3,658},{24,640,3,658},{26,641,3,658},{27,642,6,658},{28,643,3,658},{30,644,1,658},{31,645,3,658},{32,646,3,658},{33,647,1,658},{22,648,1,658},{24,649,3,658},{25,650,3,658},{27,651,3,658},{28,652,6,658},{29,653,3,658},{31,654,1,658},{32,655,3,658},{33,656,3,658},{34,657,1,658},{55,628,1,659},{56,629,3,659},{57,630,3,659},{58,631,3,659},{59,632,6,659},{60,633,3,659},{61,634,1,659},{62,635,3,659},{63,636,3,659},{64,637,1,659},{56,638,1,659},{58,639,3,659},{59,640,3,659},{61,641,3,659},{62,642,6,659},{63,643,3,659},{65,644,1,659},{66,645,3,659},{67,646,3,659},{68,647,1,659},{57,648,1,659},{59,649,3,659},{60,650,3,659},{62,651,3,659},{63,652,6,659},{64,653,3,659},{66,654,1,659},{67,655,3,659},{68,656,3,659},{69,657,1,659},{90,628,1,660},{91,629,3,660},{92,630,3,660},{93,631,3,660},{94,632,6,660},{95,633,3,660},{96,634,1,660},{97,635,3,660},{98,636,3,660},{99,637,1,660},{91,638,1,660},{93,639,3,660},{94,640,3,660},{96,641,3,660},{97,642,6,660},{98,643,3,660},{100,644,1,660},{101,645,3,660},{102,646,3,660},{103,647,1,660},{92,648,1,660},{94,649,3,660},{95,650,3,660},{97,651,3,660},{98,652,6,660},{99,653,3,660},{101,654,1,660},{102,655,3,660},{103,656,3,660},{104,657,1,660},{36,45,1,661},{36,46,1,662},{36,47,1,663},{36,48,1,664},{36,49,1,665},{36,50,1,666},{36,51,1,667},{36,52,1,668},{36,53,1,669},{36,54,1,670},{37,45,1,671},{37,46,1,672},{37,47,1,673},{37,48,1,674},{37,49,1,675},{37,50,1,676},{37,51,1,677},{37,52,1,678},{37,53,1,679},{37,54,1,680},{38,45,1,681},{38,46,1,682},{38,47,1,683},{38,48,1,684},{38,49,1,685},{38,50,1,686},{38,51,1,687},{38,52,1,688},{38,53,1,689},{38,54,1,690},{20,661,1,691},{21,662,3,691},{22,663,3,691},{23,664,3,691},{24,665,6,691},{25,666,3,691},{26,667,1,691},{27,668,3,691},{28,669,3,691},{29,670,1,691},{21,671,1,691},{23,672,3,691},{24,673,3,691},{26,674,3,691},{27,675,6,691},{28,676,3,691},{30,677,1,691},{31,678,3,691},{32,679,3,691},{33,680,1,691},{22,681,1,691},{24,682,3,691},{25,683,3,691},{27,684,3,691},{28,685,6,691},{29,686,3,691},{31,687,1,691},{32,688,3,691},{33,689,3,691},{34,690,1,691},{55,661,1,692},{56,662,3,692},{57,663,3,692},{58,664,3,692},{59,665,6,692},{60,666,3,692},{61,667,1,692},{62,668,3,692},{63,669,3,692},{64,670,1,692},{56,671,1,692},{58,672,3,692},{59,673,3,692},{61,674,3,692},{62,675,6,692},{63,676,3,692},{65,677,1,692},{66,678,3,692},{67,679,3,692},{68,680,1,692},{57,681,1,692},{59,682,3,692},{60,683,3,692},{62,684,3,692},{63,685,6,692},{64,686,3,692},{66,687,1,692},{67,688,3,692},{68,689,3,692},{69,690,1,692},{90,661,1,693},{91,662,3,693},{92,663,3,693},{93,664,3,693},{94,665,6,693},{95,666,3,693},{96,667,1,693},{97,668,3,693},{98,669,3,693},{99,670,1,693},{91,671,1,693},{93,672,3,693},{94,673,3,693},{96,674,3,693},{97,675,6,693},{98,676,3,693},{100,677,1,693},{101,678,3,693},{102,679,3,693},{103,680,1,693},{92,681,1,693},{94,682,3,693},{95,683,3,693},{97,684,3,693},{98,685,6,693},{99,686,3,693},{101,687,1,693},{102,688,3,693},{103,689,3,693},{104,690,1,693},{71,80,1,694},{71,81,1,695},{71,82,1,696},{71,83,1,697},{71,84,1,698},{71,85,1,699},{71,86,1,700},{71,87,1,701},{71,88,1,702},{71,89,1,703},{72,80,1,704},{72,81,1,705},{72,82,1,706},{72,83,1,707},{72,84,1,708},{72,85,1,709},{72,86,1,710},{72,87,1,711},{72,88,1,712},{72,89,1,713},{73,80,1,714},{73,81,1,715},{73,82,1,716},{73,83,1,717},{73,84,1,718},{73,85,1,719},{73,86,1,720},{73,87,1,721},{73,88,1,722},{73,89,1,723},{20,694,1,724},{21,695,3,724},{22,696,3,724},{23,697,3,724},{24,698,6,724},{25,699,3,724},{26,700,1,724},{27,701,3,724},{28,702,3,724},{29,703,1,724},{21,704,1,724},{23,705,3,724},{24,706,3,724},{26,707,3,724},{27,708,6,724},{28,709,3,724},{30,710,1,724},{31,711,3,724},{32,712,3,724},{33,713,1,724},{22,714,1,724},{24,715,3,724},{25,716,3,724},{27,717,3,724},{28,718,6,724},{29,719,3,724},{31,720,1,724},{32,721,3,724},{33,722,3,724},{34,723,1,724},{55,694,1,725},{56,695,3,725},{57,696,3,725},{58,697,3,725},{59,698,6,725},{60,699,3,725},{61,700,1,725},{62,701,3,725},{63,702,3,725},{64,703,1,725},{56,704,1,725},{58,705,3,725},{59,706,3,725},{61,707,3,725},{62,708,6,725},{63,709,3,725},{65,710,1,725},{66,711,3,725},{67,712,3,725},{68,713,1,725},{57,714,1,725},{59,715,3,725},{60,716,3,725},{62,717,3,725},{63,718,6,725},{64,719,3,725},{66,720,1,725},{67,721,3,725},{68,722,3,725},{69,723,1,725},{90,694,1,726},{91,695,3,726},{92,696,3,726},{93,697,3,726},{94,698,6,726},{95,699,3,726},{96,700,1,726},{97,701,3,726},{98,702,3,726},{99,703,1,726},{91,704,1,726},{93,705,3,726},{94,706,3,726},{96,707,3,726},{97,708,6,726},{98,709,3,726},{100,710,1,726},{101,711,3,726},{102,712,3,726},{103,713,1,726},{92,714,1,726},{94,715,3,726},{95,716,3,726},{97,717,3,726},{98,718,6,726},{99,719,3,726},{101,720,1,726},{102,721,3,726},{103,722,3,726},{104,723,1,726},{10,10,1,727},{11,11,1,727},{12,12,1,727},{10,11,1,728},{11,13,1,728},{12,14,1,728},{10,12,1,729},{11,14,1,729},{12,15,1,729},{10,13,1,730},{11,16,1,730},{12,17,1,730},{10,14,1,731},{11,17,1,731},{12,18,1,731},{10,15,1,732},{11,18,1,732},{12,19,1,732},{11,11,1,733},{13,13,1,733},{14,14,1,733},{11,12,1,734},{13,14,1,734},{14,15,1,734},{11,13,1,735},{13,16,1,735},{14,17,1,735},{11,14,1,736},{13,17,1,736},{14,18,1,736},{11,15,1,737},{13,18,1,737},{14,19,1,737},{12,12,1,738},{14,14,1,738},{15,15,1,738},{12,13,1,739},{14,16,1,739},{15,17,1,739},{12,14,1,740},{14,17,1,740},{15,18,1,740},{12,15,1,741},{14,18,1,741},{15,19,1,741},{13,13,1,742},{16,16,1,742},{17,17,1,742},{13,14,1,743},{16,17,1,743},{17,18,1,743},{13,15,1,744},{16,18,1,744},{17,19,1,744},{14,14,1,745},{17,17,1,745},{18,18,1,745},{14,15,1,746},{17,18,1,746},{18,19,1,746},{15,15,1,747},{18,18,1,747},{19,19,1,747},{20,727,1,748},{21,728,4,748},{22,729,4,748},{23,730,2,748},{24,731,4,748},{25,732,2,748},{23,733,4,748},{24,734,8,748},{26,735,4,748},{27,736,8,748},{28,737,4,748},{25,738,4,748},{27,739,4,748},{28,740,8,748},{29,741,4,748},{30,742,1,748},{31,743,4,748},{32,744,2,748},{32,745,4,748},{33,746,4,748},{34,747,1,748},{55,727,1,749},{56,728,4,749},{57,729,4,749},{58,730,2,749},{59,731,4,749},{60,732,2,749},{58,733,4,749},{59,734,8,749},{61,735,4,749},{62,736,8,749},{63,737,4,749},{60,738,4,749},{62,739,4,749},{63,740,8,749},{64,741,4,749},{65,742,1,749},{66,743,4,749},{67,744,2,749},{67,745,4,749},{68,746,4,749},{69,747,1,749},{90,727,1,750},{91,728,4,750},{92,729,4,750},{93,730,2,750},{94,731,4,750},{95,732,2,750},{93,733,4,750},{94,734,8,750},{96,735,4,750},{97,736,8,750},{98,737,4,750},{95,738,4,750},{97,739,4,750},{98,740,8,750},{99,741,4,750},{100,742,1,750},{101,743,4,750},{102,744,2,750},{102,745,4,750},{103,746,4,750},{104,747,1,750},{45,45,1,751},{46,46,1,751},{47,47,1,751},{45,46,1,752},{46,48,1,752},{47,49,1,752},{45,47,1,753},{46,49,1,753},{47,50,1,753},{45,48,1,754},{46,51,1,754},{47,52,1,754},{45,49,1,755},{46,52,1,755},{47,53,1,755},{45,50,1,756},{46,53,1,756},{47,54,1,756},{46,46,1,757},{48,48,1,757},{49,49,1,757},{46,47,1,758},{48,49,1,758},{49,50,1,758},{46,48,1,759},{48,51,1,759},{49,52,1,759},{46,49,1,760},{48,52,1,760},{49,53,1,760},{46,50,1,761},{48,53,1,761},{49,54,1,761},{47,47,1,762},{49,49,1,762},{50,50,1,762},{47,48,1,763},{49,51,1,763},{50,52,1,763},{47,49,1,764},{49,52,1,764},{50,53,1,764},{47,50,1,765},{49,53,1,765},{50,54,1,765},{48,48,1,766},{51,51,1,766},{52,52,1,766},{48,49,1,767},{51,52,1,767},{52,53,1,767},{48,50,1,768},{51,53,1,768},{52,54,1,768},{49,49,1,769},{52,52,1,769},{53,53,1,769},{49,50,1,770},{52,53,1,770},{53,54,1,770},{50,50,1,771},{53,53,1,771},{54,54,1,771},{20,751,1,772},{21,752,4,772},{22,753,4,772},{23,754,2,772},{24,755,4,772},{25,756,2,772},{23,757,4,772},{24,758,8,772},{26,759,4,772},{27,760,8,772},{28,761,4,772},{25,762,4,772},{27,763,4,772},{28,764,8,772},{29,765,4,772},{30,766,1,772},{31,767,4,772},{32,768,2,772},{32,769,4,772},{33,770,4,772},{34,771,1,772},{55,751,1,773},{56,752,4,773},{57,753,4,773},{58,754,2,773},{59,755,4,773},{60,756,2,773},{58,757,4,773},{59,758,8,773},{61,759,4,773},{62,760,8,773},{63,761,4,773},{60,762,4,773},{62,763,4,773},{63,764,8,773},{64,765,4,773},{65,766,1,773},{66,767,4,773},{67,768,2,773},{67,769,4,773},{68,770,4,773},{69,771,1,773},{90,751,1,774},{91,752,4,774},{92,753,4,774},{93,754,2,774},{94,755,4,774},{95,756,2,774},{93,757,4,774},{94,758,8,774},{96,759,4,774},{97,760,8,774},{98,761,4,774},{95,762,4,774},{97,763,4,774},{98,764,8,774},{99,765,4,774},{100,766,1,774},{101,767,4,774},{102,768,2,774},{102,769,4,774},{103,770,4,774},{104,771,1,774},{80,80,1,775},{81,81,1,775},{82,82,1,775},{80,81,1,776},{81,83,1,776},{82,84,1,776},{80,82,1,777},{81,84,1,777},{82,85,1,777},{80,83,1,778},{81,86,1,778},{82,87,1,778},{80,84,1,779},{81,87,1,779},{82,88,1,779},{80,85,1,780},{81,88,1,780},{82,89,1,780},{81,81,1,781},{83,83,1,781},{84,84,1,781},{81,82,1,782},{83,84,1,782},{84,85,1,782},{81,83,1,783},{83,86,1,783},{84,87,1,783},{81,84,1,784},{83,87,1,784},{84,88,1,784},{81,85,1,785},{83,88,1,785},{84,89,1,785},{82,82,1,786},{84,84,1,786},{85,85,1,786},{82,83,1,787},{84,86,1,787},{85,87,1,787},{82,84,1,788},{84,87,1,788},{85,88,1,788},{82,85,1,789},{84,88,1,789},{85,89,1,789},{83,83,1,790},{86,86,1,790},{87,87,1,790},{83,84,1,791},{86,87,1,791},{87,88,1,791},{83,85,1,792},{86,88,1,792},{87,89,1,792},{84,84,1,793},{87,87,1,793},{88,88,1,793},{84,85,1,794},{87,88,1,794},{88,89,1,794},{85,85,1,795},{88,88,1,795},{89,89,1,795},{20,775,1,796},{21,776,4,796},{22,777,4,796},{23,778,2,796},{24,779,4,796},{25,780,2,796},{23,781,4,796},{24,782,8,796},{26,783,4,796},{27,784,8,796},{28,785,4,796},{25,786,4,796},{27,787,4,796},{28,788,8,796},{29,789,4,796},{30,790,1,796},{31,791,4,796},{32,792,2,796},{32,793,4,796},{33,794,4,796},{34,795,1,796},{55,775,1,797},{56,776,4,797},{57,777,4,797},{58,778,2,797},{59,779,4,797},{60,780,2,797},{58,781,4,797},{59,782,8,797},{61,783,4,797},{62,784,8,797},{63,785,4,797},{60,786,4,797},{62,787,4,797},{63,788,8,797},{64,789,4,797},{65,790,1,797},{66,791,4,797},{67,792,2,797},{67,793,4,797},{68,794,4,797},{69,795,1,797},{90,775,1,798},{91,776,4,798},{92,777,4,798},{93,778,2,798},{94,779,4,798},{95,780,2,798},{93,781,4,798},{94,782,8,798},{96,783,4,798},{97,784,8,798},{98,785,4,798},{95,786,4,798},{97,787,4,798},{98,788,8,798},{99,789,4,798},{100,790,1,798},{101,791,4,798},{102,792,2,798},{102,793,4,798},{103,794,4,798},{104,795,1,798},{20,20,1,799},{21,21,2,799},{22,22,2,799},{23,23,1,799},{24,24,2,799},{25,25,1,799},{20,21,1,800},{21,23,2,800},{22,24,2,800},{23,26,1,800},{24,27,2,800},{25,28,1,800},{20,22,1,801},{21,24,2,801},{22,25,2,801},{23,27,1,801},{24,28,2,801},{25,29,1,801},{20,23,1,802},{21,26,2,802},{22,27,2,802},{23,30,1,802},{24,31,2,802},{25,32,1,802},{20,24,1,803},{21,27,2,803},{22,28,2,803},{23,31,1,803},{24,32,2,803},{25,33,1,803},{20,25,1,804},{21,28,2,804},{22,29,2,804},{23,32,1,804},{24,33,2,804},{25,34,1,804},{21,21,1,805},{23,23,2,805},{24,24,2,805},{26,26,1,805},{27,27,2,805},{28,28,1,805},{21,22,1,806},{23,24,2,806},{24,25,2,806},{26,27,1,806},{27,28,2,806},{28,29,1,806},{21,23,1,807},{23,26,2,807},{24,27,2,807},{26,30,1,807},{27,31,2,807},{28,32,1,807},{21,24,1,808},{23,27,2,808},{24,28,2,808},{26,31,1,808},{27,32,2,808},{28,33,1,808},{21,25,1,809},{23,28,2,809},{24,29,2,809},{26,32,1,809},{27,33,2,809},{28,34,1,809},{22,22,1,810},{24,24,2,810},{25,25,2,810},{27,27,1,810},{28,28,2,810},{29,29,1,810},{22,23,1,811},{24,26,2,811},{25,27,2,811},{27,30,1,811},{28,31,2,811},{29,32,1,811},{22,24,1,812},{24,27,2,812},{25,28,2,812},{27,31,1,812},{28,32,2,812},{29,33,1,812},{22,25,1,813},{24,28,2,813},{25,29,2,813},{27,32,1,813},{28,33,2,813},{29,34,1,813},{23,23,1,814},{26,26,2,814},{27,27,2,814},{30,30,1,814},{31,31,2,814},{32,32,1,814},{23,24,1,815},{26,27,2,815},{27,28,2,815},{30,31,1,815},{31,32,2,815},{32,33,1,815},{23,25,1,816},{26,28,2,816},{27,29,2,816},{30,32,1,816},{31,33,2,816},{32,34,1,816},{24,24,1,817},{27,27,2,817},{28,28,2,817},{31,31,1,817},{32,32,2,817},{33,33,1,817},{24,25,1,818},{27,28,2,818},{28,29,2,818},{31,32,1,818},{32,33,2,818},{33,34,1,818},{25,25,1,819},{28,28,2,819},{29,29,2,819},{32,32,1,819},{33,33,2,819},{34,34,1,819},{20,799,1,820},{21,800,4,820},{22,801,4,820},{23,802,2,820},{24,803,4,820},{25,804,2,820},{23,805,4,820},{24,806,8,820},{26,807,4,820},{27,808,8,820},{28,809,4,820},{25,810,4,820},{27,811,4,820},{28,812,8,820},{29,813,4,820},{30,814,1,820},{31,815,4,820},{32,816,2,820},{32,817,4,820},{33,818,4,820},{34,819,1,820},{55,799,1,821},{56,800,4,821},{57,801,4,821},{58,802,2,821},{59,803,4,821},{60,804,2,821},{58,805,4,821},{59,806,8,821},{61,807,4,821},{62,808,8,821},{63,809,4,821},{60,810,4,821},{62,811,4,821},{63,812,8,821},{64,813,4,821},{65,814,1,821},{66,815,4,821},{67,816,2,821},{67,817,4,821},{68,818,4,821},{69,819,1,821},{90,799,1,822},{91,800,4,822},{92,801,4,822},{93,802,2,822},{94,803,4,822},{95,804,2,822},{93,805,4,822},{94,806,8,822},{96,807,4,822},{97,808,8,822},{98,809,4,822},{95,810,4,822},{97,811,4,822},{98,812,8,822},{99,813,4,822},{100,814,1,822},{101,815,4,822},{102,816,2,822},{102,817,4,822},{103,818,4,822},{104,819,1,822},{55,55,1,823},{56,56,2,823},{57,57,2,823},{58,58,1,823},{59,59,2,823},{60,60,1,823},{55,56,1,824},{56,58,2,824},{57,59,2,824},{58,61,1,824},{59,62,2,824},{60,63,1,824},{55,57,1,825},{56,59,2,825},{57,60,2,825},{58,62,1,825},{59,63,2,825},{60,64,1,825},{55,58,1,826},{56,61,2,826},{57,62,2,826},{58,65,1,826},{59,66,2,826},{60,67,1,826},{55,59,1,827},{56,62,2,827},{57,63,2,827},{58,66,1,827},{59,67,2,827},{60,68,1,827},{55,60,1,828},{56,63,2,828},{57,64,2,828},{58,67,1,828},{59,68,2,828},{60,69,1,828},{56,56,1,829},{58,58,2,829},{59,59,2,829},{61,61,1,829},{62,62,2,829},{63,63,1,829},{56,57,1,830},{58,59,2,830},{59,60,2,830},{61,62,1,830},{62,63,2,830},{63,64,1,830},{56,58,1,831},{58,61,2,831},{59,62,2,831},{61,65,1,831},{62,66,2,831},{63,67,1,831},{56,59,1,832},{58,62,2,832},{59,63,2,832},{61,66,1,832},{62,67,2,832},{63,68,1,832},{56,60,1,833},{58,63,2,833},{59,64,2,833},{61,67,1,833},{62,68,2,833},{63,69,1,833},{57,57,1,834},{59,59,2,834},{60,60,2,834},{62,62,1,834},{63,63,2,834},{64,64,1,834},{57,58,1,835},{59,61,2,835},{60,62,2,835},{62,65,1,835},{63,66,2,835},{64,67,1,835},{57,59,1,836},{59,62,2,836},{60,63,2,836},{62,66,1,836},{63,67,2,836},{64,68,1,836},{57,60,1,837},{59,63,2,837},{60,64,2,837},{62,67,1,837},{63,68,2,837},{64,69,1,837},{58,58,1,838},{61,61,2,838},{62,62,2,838},{65,65,1,838},{66,66,2,838},{67,67,1,838},{58,59,1,839},{61,62,2,839},{62,63,2,839},{65,66,1,839},{66,67,2,839},{67,68,1,839},{58,60,1,840},{61,63,2,840},{62,64,2,840},{65,67,1,840},{66,68,2,840},{67,69,1,840},{59,59,1,841},{62,62,2,841},{63,63,2,841},{66,66,1,841},{67,67,2,841},{68,68,1,841},{59,60,1,842},{62,63,2,842},{63,64,2,842},{66,67,1,842},{67,68,2,842},{68,69,1,842},{60,60,1,843},{63,63,2,843},{64,64,2,843},{67,67,1,843},{68,68,2,843},{69,69,1,843},{20,823,1,844},{21,824,4,844},{22,825,4,844},{23,826,2,844},{24,827,4,844},{25,828,2,844},{23,829,4,844},{24,830,8,844},{26,831,4,844},{27,832,8,844},{28,833,4,844},{25,834,4,844},{27,835,4,844},{28,836,8,844},{29,837,4,844},{30,838,1,844},{31,839,4,844},{32,840,2,844},{32,841,4,844},{33,842,4,844},{34,843,1,844},{55,823,1,845},{56,824,4,845},{57,825,4,845},{58,826,2,845},{59,827,4,845},{60,828,2,845},{58,829,4,845},{59,830,8,845},{61,831,4,845},{62,832,8,845},{63,833,4,845},{60,834,4,845},{62,835,4,845},{63,836,8,845},{64,837,4,845},{65,838,1,845},{66,839,4,845},{67,840,2,845},{67,841,4,845},{68,842,4,845},{69,843,1,845},{90,823,1,846},{91,824,4,846},{92,825,4,846},{93,826,2,846},{94,827,4,846},{95,828,2,846},{93,829,4,846},{94,830,8,846},{96,831,4,846},{97,832,8,846},{98,833,4,846},{95,834,4,846},{97,835,4,846},{98,836,8,846},{99,837,4,846},{100,838,1,846},{101,839,4,846},{102,840,2,846},{102,841,4,846},{103,842,4,846},{104,843,1,846},{90,90,1,847},{91,91,2,847},{92,92,2,847},{93,93,1,847},{94,94,2,847},{95,95,1,847},{90,91,1,848},{91,93,2,848},{92,94,2,848},{93,96,1,848},{94,97,2,848},{95,98,1,848},{90,92,1,849},{91,94,2,849},{92,95,2,849},{93,97,1,849},{94,98,2,849},{95,99,1,849},{90,93,1,850},{91,96,2,850},{92,97,2,850},{93,100,1,850},{94,101,2,850},{95,102,1,850},{90,94,1,851},{91,97,2,851},{92,98,2,851},{93,101,1,851},{94,102,2,851},{95,103,1,851},{90,95,1,852},{91,98,2,852},{92,99,2,852},{93,102,1,852},{94,103,2,852},{95,104,1,852},{91,91,1,853},{93,93,2,853},{94,94,2,853},{96,96,1,853},{97,97,2,853},{98,98,1,853},{91,92,1,854},{93,94,2,854},{94,95,2,854},{96,97,1,854},{97,98,2,854},{98,99,1,854},{91,93,1,855},{93,96,2,855},{94,97,2,855},{96,100,1,855},{97,101,2,855},{98,102,1,855},{91,94,1,856},{93,97,2,856},{94,98,2,856},{96,101,1,856},{97,102,2,856},{98,103,1,856},{91,95,1,857},{93,98,2,857},{94,99,2,857},{96,102,1,857},{97,103,2,857},{98,104,1,857},{92,92,1,858},{94,94,2,858},{95,95,2,858},{97,97,1,858},{98,98,2,858},{99,99,1,858},{92,93,1,859},{94,96,2,859},{95,97,2,859},{97,100,1,859},{98,101,2,859},{99,102,1,859},{92,94,1,860},{94,97,2,860},{95,98,2,860},{97,101,1,860},{98,102,2,860},{99,103,1,860},{92,95,1,861},{94,98,2,861},{95,99,2,861},{97,102,1,861},{98,103,2,861},{99,104,1,861},{93,93,1,862},{96,96,2,862},{97,97,2,862},{100,100,1,862},{101,101,2,862},{102,102,1,862},{93,94,1,863},{96,97,2,863},{97,98,2,863},{100,101,1,863},{101,102,2,863},{102,103,1,863},{93,95,1,864},{96,98,2,864},{97,99,2,864},{100,102,1,864},{101,103,2,864},{102,104,1,864},{94,94,1,865},{97,97,2,865},{98,98,2,865},{101,101,1,865},{102,102,2,865},{103,103,1,865},{94,95,1,866},{97,98,2,866},{98,99,2,866},{101,102,1,866},{102,103,2,866},{103,104,1,866},{95,95,1,867},{98,98,2,867},{99,99,2,867},{102,102,1,867},{103,103,2,867},{104,104,1,867},{20,847,1,868},{21,848,4,868},{22,849,4,868},{23,850,2,868},{24,851,4,868},{25,852,2,868},{23,853,4,868},{24,854,8,868},{26,855,4,868},{27,856,8,868},{28,857,4,868},{25,858,4,868},{27,859,4,868},{28,860,8,868},{29,861,4,868},{30,862,1,868},{31,863,4,868},{32,864,2,868},{32,865,4,868},{33,866,4,868},{34,867,1,868},{55,847,1,869},{56,848,4,869},{57,849,4,869},{58,850,2,869},{59,851,4,869},{60,852,2,869},{58,853,4,869},{59,854,8,869},{61,855,4,869},{62,856,8,869},{63,857,4,869},{60,858,4,869},{62,859,4,869},{63,860,8,869},{64,861,4,869},{65,862,1,869},{66,863,4,869},{67,864,2,869},{67,865,4,869},{68,866,4,869},{69,867,1,869},{90,847,1,870},{91,848,4,870},{92,849,4,870},{93,850,2,870},{94,851,4,870},{95,852,2,870},{93,853,4,870},{94,854,8,870},{96,855,4,870},{97,856,8,870},{98,857,4,870},{95,858,4,870},{97,859,4,870},{98,860,8,870},{99,861,4,870},{100,862,1,870},{101,863,4,870},{102,864,2,870},{102,865,4,870},{103,866,4,870},{104,867,1,870},{20,20,1,871},{21,21,3,871},{22,22,3,871},{23,23,3,871},{24,24,6,871},{25,25,3,871},{26,26,1,871},{27,27,3,871},{28,28,3,871},{29,29,1,871},{20,21,1,872},{21,23,3,872},{22,24,3,872},{23,26,3,872},{24,27,6,872},{25,28,3,872},{26,30,1,872},{27,31,3,872},{28,32,3,872},{29,33,1,872},{20,22,1,873},{21,24,3,873},{22,25,3,873},{23,27,3,873},{24,28,6,873},{25,29,3,873},{26,31,1,873},{27,32,3,873},{28,33,3,873},{29,34,1,873},{21,21,1,874},{23,23,3,874},{24,24,3,874},{26,26,3,874},{27,27,6,874},{28,28,3,874},{30,30,1,874},{31,31,3,874},{32,32,3,874},{33,33,1,874},{21,22,1,875},{23,24,3,875},{24,25,3,875},{26,27,3,875},{27,28,6,875},{28,29,3,875},{30,31,1,875},{31,32,3,875},{32,33,3,875},{33,34,1,875},{22,22,1,876},{24,24,3,876},{25,25,3,876},{27,27,3,876},{28,28,6,876},{29,29,3,876},{31,31,1,876},{32,32,3,876},{33,33,3,876},{34,34,1,876},{4,871,1,877},{5,872,2,877},{6,873,2,877},{7,874,1,877},{8,875,2,877},{9,876,1,877},{39,871,1,878},{40,872,2,878},{41,873,2,878},{42,874,1,878},{43,875,2,878},{44,876,1,878},{74,871,1,879},{75,872,2,879},{76,873,2,879},{77,874,1,879},{78,875,2,879},{79,876,1,879},{55,55,1,880},{56,56,3,880},{57,57,3,880},{58,58,3,880},{59,59,6,880},{60,60,3,880},{61,61,1,880},{62,62,3,880},{63,63,3,880},{64,64,1,880},{55,56,1,881},{56,58,3,881},{57,59,3,881},{58,61,3,881},{59,62,6,881},{60,63,3,881},{61,65,1,881},{62,66,3,881},{63,67,3,881},{64,68,1,881},{55,57,1,882},{56,59,3,882},{57,60,3,882},{58,62,3,882},{59,63,6,882},{60,64,3,882},{61,66,1,882},{62,67,3,882},{63,68,3,882},{64,69,1,882},{56,56,1,883},{58,58,3,883},{59,59,3,883},{61,61,3,883},{62,62,6,883},{63,63,3,883},{65,65,1,883},{66,66,3,883},{67,67,3,883},{68,68,1,883},{56,57,1,884},{58,59,3,884},{59,60,3,884},{61,62,3,884},{62,63,6,884},{63,64,3,884},{65,66,1,884},{66,67,3,884},{67,68,3,884},{68,69,1,884},{57,57,1,885},{59,59,3,885},{60,60,3,885},{62,62,3,885},{63,63,6,885},{64,64,3,885},{66,66,1,885},{67,67,3,885},{68,68,3,885},{69,69,1,885},{4,880,1,886},{5,881,2,886},{6,882,2,886},{7,883,1,886},{8,884,2,886},{9,885,1,886},{39,880,1,887},{40,881,2,887},{41,882,2,887},{42,883,1,887},{43,884,2,887},{44,885,1,887},{74,880,1,888},{75,881,2,888},{76,882,2,888},{77,883,1,888},{78,884,2,888},{79,885,1,888},{90,90,1,889},{91,91,3,889},{92,92,3,889},{93,93,3,889},{94,94,6,889},{95,95,3,889},{96,96,1,889},{97,97,3,889},{98,98,3,889},{99,99,1,889},{90,91,1,890},{91,93,3,890},{92,94,3,890},{93,96,3,890},{94,97,6,890},{95,98,3,890},{96,100,1,890},{97,101,3,890},{98,102,3,890},{99,103,1,890},{90,92,1,891},{91,94,3,891},{92,95,3,891},{93,97,3,891},{94,98,6,891},{95,99,3,891},{96,101,1,891},{97,102,3,891},{98,103,3,891},{99,104,1,891},{91,91,1,892},{93,93,3,892},{94,94,3,892},{96,96,3,892},{97,97,6,892},{98,98,3,892},{100,100,1,892},{101,101,3,892},{102,102,3,892},{103,103,1,892},{91,92,1,893},{93,94,3,893},{94,95,3,893},{96,97,3,893},{97,98,6,893},{98,99,3,893},{100,101,1,893},{101,102,3,893},{102,103,3,893},{103,104,1,893},{92,92,1,894},{94,94,3,894},{95,95,3,894},{97,97,3,894},{98,98,6,894},{99,99,3,894},{101,101,1,894},{102,102,3,894},{103,103,3,894},{104,104,1,894},{4,889,1,895},{5,890,2,895},{6,891,2,895},{7,892,1,895},{8,893,2,895},{9,894,1,895},{39,889,1,896},{40,890,2,896},{41,891,2,896},{42,892,1,896},{43,893,2,896},{44,894,1,896},{74,889,1,897},{75,890,2,897},{76,891,2,897},{77,892,1,897},{78,893,2,897},{79,894,1,897},{121,532,1,898},{121,533,1,899},{121,534,1,900},{121,535,1,901},{121,536,1,902},{121,537,1,903},{122,532,1,904},{122,533,1,905},{122,534,1,906},{122,535,1,907},{122,536,1,908},{122,537,1,909},{123,532,1,910},{123,533,1,911},{123,534,1,912},{123,535,1,913},{123,536,1,914},{123,537,1,915},{124,532,1,916},{124,533,1,917},{124,534,1,918},{124,535,1,919},{124,536,1,920},{124,537,1,921},{125,532,1,922},{125,533,1,923},{125,534,1,924},{125,535,1,925},{125,536,1,926},{125,537,1,927},{126,532,1,928},{126,533,1,929},{126,534,1,930},{126,535,1,931},{126,536,1,932},{126,537,1,933},{127,532,1,934},{127,533,1,935},{127,534,1,936},{127,535,1,937},{127,536,1,938},{127,537,1,939},{128,532,1,940},{128,533,1,941},{128,534,1,942},{128,535,1,943},{128,536,1,944},{128,537,1,945},{129,532,1,946},{129,533,1,947},{129,534,1,948},{129,535,1,949},{129,536,1,950},{129,537,1,951},{130,532,1,952},{130,533,1,953},{130,534,1,954},{130,535,1,955},{130,536,1,956},{130,537,1,957},{131,532,1,958},{131,533,1,959},{131,534,1,960},{131,535,1,961},{131,536,1,962},{131,537,1,963},{132,532,1,964},{132,533,1,965},{132,534,1,966},{132,535,1,967},{132,536,1,968},{132,537,1,969},{247,532,1,970},{247,533,1,971},{247,534,1,972},{247,535,1,973},{247,536,1,974},{247,537,1,975},{248,532,1,976},{248,533,1,977},{248,534,1,978},{248,535,1,979},{248,536,1,980},{248,537,1,981},{249,532,1,982},{249,533,1,983},{249,534,1,984},{249,535,1,985},{249,536,1,986},{249,537,1,987},{250,532,1,988},{250,533,1,989},{250,534,1,990},{250,535,1,991},{250,536,1,992},{250,537,1,993},{251,532,1,994},{251,533,1,995},{251,534,1,996},{251,535,1,997},{251,536,1,998},{251,537,1,999},{252,532,1,1000},{252,533,1,1001},{252,534,1,1002},{252,535,1,1003},{252,536,1,1004},{252,537,1,1005},{532,532,1,1006},{532,533,1,1007},{532,534,1,1008},{532,535,1,1009},{532,536,1,1010},{532,537,1,1011},{533,532,1,1012},{533,533,1,1013},{533,534,1,1014},{533,535,1,1015},{533,536,1,1016},{533,537,1,1017},{534,532,1,1018},{534,533,1,1019},{534,534,1,1020},{534,535,1,1021},{534,536,1,1022},{534,537,1,1023},{535,532,1,1024},{535,533,1,1025},{535,534,1,1026},{535,535,1,1027},{535,536,1,1028},{535,537,1,1029},{536,532,1,1030},{536,533,1,1031},{536,534,1,1032},{536,535,1,1033},{536,536,1,1034},{536,537,1,1035},{537,532,1,1036},{537,533,1,1037},{537,534,1,1038},{537,535,1,1039},{537,536,1,1040},{537,537,1,1041}}
alpha_scalar_moments = 535
alpha_moment_mapping = {0, 35, 70, 105, 106, 107, 108, 109, 110, 111, 112, 113, 114, 115, 116, 117, 118, 119, 120, 121, 122, 123, 124, 125, 126, 127, 128, 129, 130, 131, 132, 133, 134, 135, 136, 137, 138, 139, 140, 141, 142, 143, 144, 145, 146, 147, 148, 149, 150, 151, 152, 153, 154, 155, 156, 157, 158, 159, 160, 161, 162, 163, 164, 165, 166, 167, 168, 169, 170, 171, 172, 173, 174, 175, 176, 177, 178, 179, 180, 181, 182, 183, 184, 185, 186, 187, 188, 189, 190, 191, 192, 193, 194, 195, 196, 197, 198, 199, 200, 201, 202, 203, 204, 205, 206, 207, 208, 209, 210, 211, 212, 213, 214, 215, 216, 217, 218, 219, 220, 221, 222, 223, 224, 225, 226, 227, 228, 229, 230, 231, 232, 233, 234, 235, 236, 237, 238, 239, 240, 241, 242, 243, 244, 245, 246, 247, 248, 249, 250, 251, 252, 271, 272, 273, 292, 293, 294, 313, 314, 315, 316, 317, 318, 319, 320, 321, 328, 329, 330, 337, 338, 339, 346, 347, 348, 349, 350, 351, 352, 353, 354, 355, 356, 357, 358, 359, 360, 361, 362, 363, 364, 365, 366, 367, 368, 369, 370, 371, 372, 373, 374, 375, 376, 377, 378, 379, 380, 381, 382, 383, 384, 385, 386, 387, 388, 389, 390, 391, 392, 393, 394, 395, 396, 397, 398, 399, 400, 401, 402, 403, 404, 405, 406, 407, 408, 409, 410, 411, 412, 413, 414, 415, 416, 417, 418, 419, 420, 421, 422, 423, 424, 425, 426, 427, 428, 429, 430, 431, 432, 433, 434, 435, 436, 437, 438, 439, 440, 441, 442, 443, 444, 445, 446, 447, 448, 449, 450, 451, 452, 453, 454, 455, 456, 457, 458, 459, 460, 461, 462, 463, 464, 465, 472, 473, 474, 481, 482, 483, 490, 491, 492, 493, 494, 495, 496, 497, 498, 505, 506, 507, 514, 515, 516, 523, 524, 525, 526, 527, 528, 529, 530, 531, 532, 533, 534, 535, 536, 537, 538, 539, 540, 541, 542, 543, 544, 545, 546, 547, 548, 549, 550, 551, 552, 553, 554, 555, 577, 578, 579, 601, 602, 603, 625, 626, 627, 658, 659, 660, 691, 692, 693, 724, 725, 726, 748, 749, 750, 772, 773, 774, 796, 797, 798, 820, 821, 822, 844, 845, 846, 868, 869, 870, 877, 878, 879, 886, 887, 888, 895, 896, 897, 898, 899, 900, 901, 902, 903, 904, 905, 906, 907, 908, 909, 910, 911, 912, 913, 914, 915, 916, 917, 918, 919, 920, 921, 922, 923, 924, 925, 926, 927, 928, 929, 930, 931, 932, 933, 934, 935, 936, 937, 938, 939, 940, 941, 942, 943, 944, 945, 946, 947, 948, 949, 950, 951, 952, 953, 954, 955, 956, 957, 958, 959, 960, 961, 962, 963, 964, 965, 966, 967, 968, 969, 970, 971, 972, 973, 974, 975, 976, 977, 978, 979, 980, 981, 982, 983, 984, 985, 986, 987, 988, 989, 990, 991, 992, 993, 994, 995, 996, 997, 998, 999, 1000, 1001, 1002, 1003, 1004, 1005, 1006, 1007, 1008, 1009, 1010, 1011, 1012, 1013, 1014, 1015, 1016, 1017, 1018, 1019, 1020, 1021, 1022, 1023, 1024, 1025, 1026, 1027, 1028, 1029, 1030, 1031, 1032, 1033, 1034, 1035, 1036, 1037, 1038, 1039, 1040, 1041}
