MTP
version = 1.1.0
potential_name = sus2mlip_l4k4
scaling = 0.01
L = 4
scaling_map = LK
species_count = 1
potential_tag =
radial_basis_type = RBChebyshev_sss
        min_dist = 1.5
        max_dist = 6.0
        radial_basis_size = 10
        radial_funcs_count = 20
alpha_moments_count =2075
alpha_index_basic_count = 140
alpha_index_basic = {{0, 0, 0, 0},{1, 1, 0, 0},{1, 0, 1, 0},{1, 0, 0, 1},{2, 2, 0, 0},{2, 1, 1, 0},{2, 1, 0, 1},{2, 0, 2, 0},{2, 0, 1, 1},{2, 0, 0, 2},{3, 3, 0, 0},{3, 2, 1, 0},{3, 2, 0, 1},{3, 1, 2, 0},{3, 1, 1, 1},{3, 1, 0, 2},{3, 0, 3, 0},{3, 0, 2, 1},{3, 0, 1, 2},{3, 0, 0, 3},{4, 4, 0, 0},{4, 3, 1, 0},{4, 3, 0, 1},{4, 2, 2, 0},{4, 2, 1, 1},{4, 2, 0, 2},{4, 1, 3, 0},{4, 1, 2, 1},{4, 1, 1, 2},{4, 1, 0, 3},{4, 0, 4, 0},{4, 0, 3, 1},{4, 0, 2, 2},{4, 0, 1, 3},{4, 0, 0, 4},{5, 0, 0, 0},{6, 1, 0, 0},{6, 0, 1, 0},{6, 0, 0, 1},{7, 2, 0, 0},{7, 1, 1, 0},{7, 1, 0, 1},{7, 0, 2, 0},{7, 0, 1, 1},{7, 0, 0, 2},{8, 3, 0, 0},{8, 2, 1, 0},{8, 2, 0, 1},{8, 1, 2, 0},{8, 1, 1, 1},{8, 1, 0, 2},{8, 0, 3, 0},{8, 0, 2, 1},{8, 0, 1, 2},{8, 0, 0, 3},{9, 4, 0, 0},{9, 3, 1, 0},{9, 3, 0, 1},{9, 2, 2, 0},{9, 2, 1, 1},{9, 2, 0, 2},{9, 1, 3, 0},{9, 1, 2, 1},{9, 1, 1, 2},{9, 1, 0, 3},{9, 0, 4, 0},{9, 0, 3, 1},{9, 0, 2, 2},{9, 0, 1, 3},{9, 0, 0, 4},{10, 0, 0, 0},{11, 1, 0, 0},{11, 0, 1, 0},{11, 0, 0, 1},{12, 2, 0, 0},{12, 1, 1, 0},{12, 1, 0, 1},{12, 0, 2, 0},{12, 0, 1, 1},{12, 0, 0, 2},{13, 3, 0, 0},{13, 2, 1, 0},{13, 2, 0, 1},{13, 1, 2, 0},{13, 1, 1, 1},{13, 1, 0, 2},{13, 0, 3, 0},{13, 0, 2, 1},{13, 0, 1, 2},{13, 0, 0, 3},{14, 4, 0, 0},{14, 3, 1, 0},{14, 3, 0, 1},{14, 2, 2, 0},{14, 2, 1, 1},{14, 2, 0, 2},{14, 1, 3, 0},{14, 1, 2, 1},{14, 1, 1, 2},{14, 1, 0, 3},{14, 0, 4, 0},{14, 0, 3, 1},{14, 0, 2, 2},{14, 0, 1, 3},{14, 0, 0, 4},{15, 0, 0, 0},{16, 1, 0, 0},{16, 0, 1, 0},{16, 0, 0, 1},{17, 2, 0, 0},{17, 1, 1, 0},{17, 1, 0, 1},{17, 0, 2, 0},{17, 0, 1, 1},{17, 0, 0, 2},{18, 3, 0, 0},{18, 2, 1, 0},{18, 2, 0, 1},{18, 1, 2, 0},{18, 1, 1, 1},{18, 1, 0, 2},{18, 0, 3, 0},{18, 0, 2, 1},{18, 0, 1, 2},{18, 0, 0, 3},{19, 4, 0, 0},{19, 3, 1, 0},{19, 3, 0, 1},{19, 2, 2, 0},{19, 2, 1, 1},{19, 2, 0, 2},{19, 1, 3, 0},{19, 1, 2, 1},{19, 1, 1, 2},{19, 1, 0, 3},{19, 0, 4, 0},{19, 0, 3, 1},{19, 0, 2, 2},{19, 0, 1, 3},{19, 0, 0, 4}}
alpha_index_times_count = 6399
alpha_index_times = {{0,0,1,140},{0,140,1,141},{35,140,1,142},{70,140,1,143},{105,140,1,144},{0,35,1,145},{35,145,1,146},{70,145,1,147},{105,145,1,148},{0,70,1,149},{70,149,1,150},{105,149,1,151},{0,105,1,152},{105,152,1,153},{35,35,1,154},{35,154,1,155},{70,154,1,156},{105,154,1,157},{35,70,1,158},{70,158,1,159},{105,158,1,160},{35,105,1,161},{105,161,1,162},{70,70,1,163},{70,163,1,164},{105,163,1,165},{70,105,1,166},{105,166,1,167},{105,105,1,168},{105,168,1,169},{1,1,1,170},{2,2,1,170},{3,3,1,170},{1,36,1,171},{2,37,1,171},{3,38,1,171},{1,71,1,172},{2,72,1,172},{3,73,1,172},{1,106,1,173},{2,107,1,173},{3,108,1,173},{36,36,1,174},{37,37,1,174},{38,38,1,174},{36,71,1,175},{37,72,1,175},{38,73,1,175},{36,106,1,176},{37,107,1,176},{38,108,1,176},{71,71,1,177},{72,72,1,177},{73,73,1,177},{71,106,1,178},{72,107,1,178},{73,108,1,178},{106,106,1,179},{107,107,1,179},{108,108,1,179},{4,4,1,180},{5,5,2,180},{6,6,2,180},{7,7,1,180},{8,8,2,180},{9,9,1,180},{4,39,1,181},{5,40,2,181},{6,41,2,181},{7,42,1,181},{8,43,2,181},{9,44,1,181},{4,74,1,182},{5,75,2,182},{6,76,2,182},{7,77,1,182},{8,78,2,182},{9,79,1,182},{4,109,1,183},{5,110,2,183},{6,111,2,183},{7,112,1,183},{8,113,2,183},{9,114,1,183},{39,39,1,184},{40,40,2,184},{41,41,2,184},{42,42,1,184},{43,43,2,184},{44,44,1,184},{39,74,1,185},{40,75,2,185},{41,76,2,185},{42,77,1,185},{43,78,2,185},{44,79,1,185},{39,109,1,186},{40,110,2,186},{41,111,2,186},{42,112,1,186},{43,113,2,186},{44,114,1,186},{74,74,1,187},{75,75,2,187},{76,76,2,187},{77,77,1,187},{78,78,2,187},{79,79,1,187},{74,109,1,188},{75,110,2,188},{76,111,2,188},{77,112,1,188},{78,113,2,188},{79,114,1,188},{109,109,1,189},{110,110,2,189},{111,111,2,189},{112,112,1,189},{113,113,2,189},{114,114,1,189},{0,170,1,190},{0,171,1,191},{0,172,1,192},{0,173,1,193},{0,174,1,194},{0,175,1,195},{0,176,1,196},{0,177,1,197},{0,178,1,198},{0,179,1,199},{35,170,1,200},{35,171,1,201},{35,172,1,202},{35,173,1,203},{35,174,1,204},{35,175,1,205},{35,176,1,206},{35,177,1,207},{35,178,1,208},{35,179,1,209},{70,170,1,210},{70,171,1,211},{70,172,1,212},{70,173,1,213},{70,174,1,214},{70,175,1,215},{70,176,1,216},{70,177,1,217},{70,178,1,218},{70,179,1,219},{105,170,1,220},{105,171,1,221},{105,172,1,222},{105,173,1,223},{105,174,1,224},{105,175,1,225},{105,176,1,226},{105,177,1,227},{105,178,1,228},{105,179,1,229},{0,180,1,230},{0,181,1,231},{0,182,1,232},{0,183,1,233},{0,184,1,234},{0,185,1,235},{0,186,1,236},{0,187,1,237},{0,188,1,238},{0,189,1,239},{35,180,1,240},{35,181,1,241},{35,182,1,242},{35,183,1,243},{35,184,1,244},{35,185,1,245},{35,186,1,246},{35,187,1,247},{35,188,1,248},{35,189,1,249},{70,180,1,250},{70,181,1,251},{70,182,1,252},{70,183,1,253},{70,184,1,254},{70,185,1,255},{70,186,1,256},{70,187,1,257},{70,188,1,258},{70,189,1,259},{105,180,1,260},{105,181,1,261},{105,182,1,262},{105,183,1,263},{105,184,1,264},{105,185,1,265},{105,186,1,266},{105,187,1,267},{105,188,1,268},{105,189,1,269},{170,170,1,270},{170,171,1,271},{170,172,1,272},{170,173,1,273},{170,174,1,274},{170,175,1,275},{170,176,1,276},{170,177,1,277},{170,178,1,278},{170,179,1,279},{171,171,1,280},{171,172,1,281},{171,173,1,282},{171,174,1,283},{171,175,1,284},{171,176,1,285},{171,177,1,286},{171,178,1,287},{171,179,1,288},{172,172,1,289},{172,173,1,290},{172,174,1,291},{172,175,1,292},{172,176,1,293},{172,177,1,294},{172,178,1,295},{172,179,1,296},{173,173,1,297},{173,174,1,298},{173,175,1,299},{173,176,1,300},{173,177,1,301},{173,178,1,302},{173,179,1,303},{174,174,1,304},{174,175,1,305},{174,176,1,306},{174,177,1,307},{174,178,1,308},{174,179,1,309},{175,175,1,310},{175,176,1,311},{175,177,1,312},{175,178,1,313},{175,179,1,314},{176,176,1,315},{176,177,1,316},{176,178,1,317},{176,179,1,318},{177,177,1,319},{177,178,1,320},{177,179,1,321},{178,178,1,322},{178,179,1,323},{179,179,1,324},{170,180,1,325},{170,181,1,326},{170,182,1,327},{170,183,1,328},{170,184,1,329},{170,185,1,330},{170,186,1,331},{170,187,1,332},{170,188,1,333},{170,189,1,334},{171,180,1,335},{171,181,1,336},{171,182,1,337},{171,183,1,338},{171,184,1,339},{171,185,1,340},{171,186,1,341},{171,187,1,342},{171,188,1,343},{171,189,1,344},{172,180,1,345},{172,181,1,346},{172,182,1,347},{172,183,1,348},{172,184,1,349},{172,185,1,350},{172,186,1,351},{172,187,1,352},{172,188,1,353},{172,189,1,354},{173,180,1,355},{173,181,1,356},{173,182,1,357},{173,183,1,358},{173,184,1,359},{173,185,1,360},{173,186,1,361},{173,187,1,362},{173,188,1,363},{173,189,1,364},{174,180,1,365},{174,181,1,366},{174,182,1,367},{174,183,1,368},{174,184,1,369},{174,185,1,370},{174,186,1,371},{174,187,1,372},{174,188,1,373},{174,189,1,374},{175,180,1,375},{175,181,1,376},{175,182,1,377},{175,183,1,378},{175,184,1,379},{175,185,1,380},{175,186,1,381},{175,187,1,382},{175,188,1,383},{175,189,1,384},{176,180,1,385},{176,181,1,386},{176,182,1,387},{176,183,1,388},{176,184,1,389},{176,185,1,390},{176,186,1,391},{176,187,1,392},{176,188,1,393},{176,189,1,394},{177,180,1,395},{177,181,1,396},{177,182,1,397},{177,183,1,398},{177,184,1,399},{177,185,1,400},{177,186,1,401},{177,187,1,402},{177,188,1,403},{177,189,1,404},{178,180,1,405},{178,181,1,406},{178,182,1,407},{178,183,1,408},{178,184,1,409},{178,185,1,410},{178,186,1,411},{178,187,1,412},{178,188,1,413},{178,189,1,414},{179,180,1,415},{179,181,1,416},{179,182,1,417},{179,183,1,418},{179,184,1,419},{179,185,1,420},{179,186,1,421},{179,187,1,422},{179,188,1,423},{179,189,1,424},{180,180,1,425},{180,181,1,426},{180,182,1,427},{180,183,1,428},{180,184,1,429},{180,185,1,430},{180,186,1,431},{180,187,1,432},{180,188,1,433},{180,189,1,434},{181,181,1,435},{181,182,1,436},{181,183,1,437},{181,184,1,438},{181,185,1,439},{181,186,1,440},{181,187,1,441},{181,188,1,442},{181,189,1,443},{182,182,1,444},{182,183,1,445},{182,184,1,446},{182,185,1,447},{182,186,1,448},{182,187,1,449},{182,188,1,450},{182,189,1,451},{183,183,1,452},{183,184,1,453},{183,185,1,454},{183,186,1,455},{183,187,1,456},{183,188,1,457},{183,189,1,458},{184,184,1,459},{184,185,1,460},{184,186,1,461},{184,187,1,462},{184,188,1,463},{184,189,1,464},{185,185,1,465},{185,186,1,466},{185,187,1,467},{185,188,1,468},{185,189,1,469},{186,186,1,470},{186,187,1,471},{186,188,1,472},{186,189,1,473},{187,187,1,474},{187,188,1,475},{187,189,1,476},{188,188,1,477},{188,189,1,478},{189,189,1,479},{10,10,1,480},{11,11,3,480},{12,12,3,480},{13,13,3,480},{14,14,6,480},{15,15,3,480},{16,16,1,480},{17,17,3,480},{18,18,3,480},{19,19,1,480},{10,45,1,481},{11,46,3,481},{12,47,3,481},{13,48,3,481},{14,49,6,481},{15,50,3,481},{16,51,1,481},{17,52,3,481},{18,53,3,481},{19,54,1,481},{10,80,1,482},{11,81,3,482},{12,82,3,482},{13,83,3,482},{14,84,6,482},{15,85,3,482},{16,86,1,482},{17,87,3,482},{18,88,3,482},{19,89,1,482},{10,115,1,483},{11,116,3,483},{12,117,3,483},{13,118,3,483},{14,119,6,483},{15,120,3,483},{16,121,1,483},{17,122,3,483},{18,123,3,483},{19,124,1,483},{45,45,1,484},{46,46,3,484},{47,47,3,484},{48,48,3,484},{49,49,6,484},{50,50,3,484},{51,51,1,484},{52,52,3,484},{53,53,3,484},{54,54,1,484},{45,80,1,485},{46,81,3,485},{47,82,3,485},{48,83,3,485},{49,84,6,485},{50,85,3,485},{51,86,1,485},{52,87,3,485},{53,88,3,485},{54,89,1,485},{45,115,1,486},{46,116,3,486},{47,117,3,486},{48,118,3,486},{49,119,6,486},{50,120,3,486},{51,121,1,486},{52,122,3,486},{53,123,3,486},{54,124,1,486},{80,80,1,487},{81,81,3,487},{82,82,3,487},{83,83,3,487},{84,84,6,487},{85,85,3,487},{86,86,1,487},{87,87,3,487},{88,88,3,487},{89,89,1,487},{80,115,1,488},{81,116,3,488},{82,117,3,488},{83,118,3,488},{84,119,6,488},{85,120,3,488},{86,121,1,488},{87,122,3,488},{88,123,3,488},{89,124,1,488},{115,115,1,489},{116,116,3,489},{117,117,3,489},{118,118,3,489},{119,119,6,489},{120,120,3,489},{121,121,1,489},{122,122,3,489},{123,123,3,489},{124,124,1,489},{1,4,1,490},{1,5,1,491},{1,6,1,492},{1,7,1,493},{1,8,1,494},{1,9,1,495},{2,4,1,496},{2,5,1,497},{2,6,1,498},{2,7,1,499},{2,8,1,500},{2,9,1,501},{3,4,1,502},{3,5,1,503},{3,6,1,504},{3,7,1,505},{3,8,1,506},{3,9,1,507},{10,490,1,508},{11,491,2,508},{12,492,2,508},{13,493,1,508},{14,494,2,508},{15,495,1,508},{11,496,1,508},{13,497,2,508},{14,498,2,508},{16,499,1,508},{17,500,2,508},{18,501,1,508},{12,502,1,508},{14,503,2,508},{15,504,2,508},{17,505,1,508},{18,506,2,508},{19,507,1,508},{45,490,1,509},{46,491,2,509},{47,492,2,509},{48,493,1,509},{49,494,2,509},{50,495,1,509},{46,496,1,509},{48,497,2,509},{49,498,2,509},{51,499,1,509},{52,500,2,509},{53,501,1,509},{47,502,1,509},{49,503,2,509},{50,504,2,509},{52,505,1,509},{53,506,2,509},{54,507,1,509},{80,490,1,510},{81,491,2,510},{82,492,2,510},{83,493,1,510},{84,494,2,510},{85,495,1,510},{81,496,1,510},{83,497,2,510},{84,498,2,510},{86,499,1,510},{87,500,2,510},{88,501,1,510},{82,502,1,510},{84,503,2,510},{85,504,2,510},{87,505,1,510},{88,506,2,510},{89,507,1,510},{115,490,1,511},{116,491,2,511},{117,492,2,511},{118,493,1,511},{119,494,2,511},{120,495,1,511},{116,496,1,511},{118,497,2,511},{119,498,2,511},{121,499,1,511},{122,500,2,511},{123,501,1,511},{117,502,1,511},{119,503,2,511},{120,504,2,511},{122,505,1,511},{123,506,2,511},{124,507,1,511},{36,39,1,512},{36,40,1,513},{36,41,1,514},{36,42,1,515},{36,43,1,516},{36,44,1,517},{37,39,1,518},{37,40,1,519},{37,41,1,520},{37,42,1,521},{37,43,1,522},{37,44,1,523},{38,39,1,524},{38,40,1,525},{38,41,1,526},{38,42,1,527},{38,43,1,528},{38,44,1,529},{10,512,1,530},{11,513,2,530},{12,514,2,530},{13,515,1,530},{14,516,2,530},{15,517,1,530},{11,518,1,530},{13,519,2,530},{14,520,2,530},{16,521,1,530},{17,522,2,530},{18,523,1,530},{12,524,1,530},{14,525,2,530},{15,526,2,530},{17,527,1,530},{18,528,2,530},{19,529,1,530},{45,512,1,531},{46,513,2,531},{47,514,2,531},{48,515,1,531},{49,516,2,531},{50,517,1,531},{46,518,1,531},{48,519,2,531},{49,520,2,531},{51,521,1,531},{52,522,2,531},{53,523,1,531},{47,524,1,531},{49,525,2,531},{50,526,2,531},{52,527,1,531},{53,528,2,531},{54,529,1,531},{80,512,1,532},{81,513,2,532},{82,514,2,532},{83,515,1,532},{84,516,2,532},{85,517,1,532},{81,518,1,532},{83,519,2,532},{84,520,2,532},{86,521,1,532},{87,522,2,532},{88,523,1,532},{82,524,1,532},{84,525,2,532},{85,526,2,532},{87,527,1,532},{88,528,2,532},{89,529,1,532},{115,512,1,533},{116,513,2,533},{117,514,2,533},{118,515,1,533},{119,516,2,533},{120,517,1,533},{116,518,1,533},{118,519,2,533},{119,520,2,533},{121,521,1,533},{122,522,2,533},{123,523,1,533},{117,524,1,533},{119,525,2,533},{120,526,2,533},{122,527,1,533},{123,528,2,533},{124,529,1,533},{71,74,1,534},{71,75,1,535},{71,76,1,536},{71,77,1,537},{71,78,1,538},{71,79,1,539},{72,74,1,540},{72,75,1,541},{72,76,1,542},{72,77,1,543},{72,78,1,544},{72,79,1,545},{73,74,1,546},{73,75,1,547},{73,76,1,548},{73,77,1,549},{73,78,1,550},{73,79,1,551},{10,534,1,552},{11,535,2,552},{12,536,2,552},{13,537,1,552},{14,538,2,552},{15,539,1,552},{11,540,1,552},{13,541,2,552},{14,542,2,552},{16,543,1,552},{17,544,2,552},{18,545,1,552},{12,546,1,552},{14,547,2,552},{15,548,2,552},{17,549,1,552},{18,550,2,552},{19,551,1,552},{45,534,1,553},{46,535,2,553},{47,536,2,553},{48,537,1,553},{49,538,2,553},{50,539,1,553},{46,540,1,553},{48,541,2,553},{49,542,2,553},{51,543,1,553},{52,544,2,553},{53,545,1,553},{47,546,1,553},{49,547,2,553},{50,548,2,553},{52,549,1,553},{53,550,2,553},{54,551,1,553},{80,534,1,554},{81,535,2,554},{82,536,2,554},{83,537,1,554},{84,538,2,554},{85,539,1,554},{81,540,1,554},{83,541,2,554},{84,542,2,554},{86,543,1,554},{87,544,2,554},{88,545,1,554},{82,546,1,554},{84,547,2,554},{85,548,2,554},{87,549,1,554},{88,550,2,554},{89,551,1,554},{115,534,1,555},{116,535,2,555},{117,536,2,555},{118,537,1,555},{119,538,2,555},{120,539,1,555},{116,540,1,555},{118,541,2,555},{119,542,2,555},{121,543,1,555},{122,544,2,555},{123,545,1,555},{117,546,1,555},{119,547,2,555},{120,548,2,555},{122,549,1,555},{123,550,2,555},{124,551,1,555},{106,109,1,556},{106,110,1,557},{106,111,1,558},{106,112,1,559},{106,113,1,560},{106,114,1,561},{107,109,1,562},{107,110,1,563},{107,111,1,564},{107,112,1,565},{107,113,1,566},{107,114,1,567},{108,109,1,568},{108,110,1,569},{108,111,1,570},{108,112,1,571},{108,113,1,572},{108,114,1,573},{10,556,1,574},{11,557,2,574},{12,558,2,574},{13,559,1,574},{14,560,2,574},{15,561,1,574},{11,562,1,574},{13,563,2,574},{14,564,2,574},{16,565,1,574},{17,566,2,574},{18,567,1,574},{12,568,1,574},{14,569,2,574},{15,570,2,574},{17,571,1,574},{18,572,2,574},{19,573,1,574},{45,556,1,575},{46,557,2,575},{47,558,2,575},{48,559,1,575},{49,560,2,575},{50,561,1,575},{46,562,1,575},{48,563,2,575},{49,564,2,575},{51,565,1,575},{52,566,2,575},{53,567,1,575},{47,568,1,575},{49,569,2,575},{50,570,2,575},{52,571,1,575},{53,572,2,575},{54,573,1,575},{80,556,1,576},{81,557,2,576},{82,558,2,576},{83,559,1,576},{84,560,2,576},{85,561,1,576},{81,562,1,576},{83,563,2,576},{84,564,2,576},{86,565,1,576},{87,566,2,576},{88,567,1,576},{82,568,1,576},{84,569,2,576},{85,570,2,576},{87,571,1,576},{88,572,2,576},{89,573,1,576},{115,556,1,577},{116,557,2,577},{117,558,2,577},{118,559,1,577},{119,560,2,577},{120,561,1,577},{116,562,1,577},{118,563,2,577},{119,564,2,577},{121,565,1,577},{122,566,2,577},{123,567,1,577},{117,568,1,577},{119,569,2,577},{120,570,2,577},{122,571,1,577},{123,572,2,577},{124,573,1,577},{490,490,1,578},{491,491,2,578},{492,492,2,578},{493,493,1,578},{494,494,2,578},{495,495,1,578},{496,496,1,578},{497,497,2,578},{498,498,2,578},{499,499,1,578},{500,500,2,578},{501,501,1,578},{502,502,1,578},{503,503,2,578},{504,504,2,578},{505,505,1,578},{506,506,2,578},{507,507,1,578},{490,512,1,579},{491,513,2,579},{492,514,2,579},{493,515,1,579},{494,516,2,579},{495,517,1,579},{496,518,1,579},{497,519,2,579},{498,520,2,579},{499,521,1,579},{500,522,2,579},{501,523,1,579},{502,524,1,579},{503,525,2,579},{504,526,2,579},{505,527,1,579},{506,528,2,579},{507,529,1,579},{490,534,1,580},{491,535,2,580},{492,536,2,580},{493,537,1,580},{494,538,2,580},{495,539,1,580},{496,540,1,580},{497,541,2,580},{498,542,2,580},{499,543,1,580},{500,544,2,580},{501,545,1,580},{502,546,1,580},{503,547,2,580},{504,548,2,580},{505,549,1,580},{506,550,2,580},{507,551,1,580},{490,556,1,581},{491,557,2,581},{492,558,2,581},{493,559,1,581},{494,560,2,581},{495,561,1,581},{496,562,1,581},{497,563,2,581},{498,564,2,581},{499,565,1,581},{500,566,2,581},{501,567,1,581},{502,568,1,581},{503,569,2,581},{504,570,2,581},{505,571,1,581},{506,572,2,581},{507,573,1,581},{512,512,1,582},{513,513,2,582},{514,514,2,582},{515,515,1,582},{516,516,2,582},{517,517,1,582},{518,518,1,582},{519,519,2,582},{520,520,2,582},{521,521,1,582},{522,522,2,582},{523,523,1,582},{524,524,1,582},{525,525,2,582},{526,526,2,582},{527,527,1,582},{528,528,2,582},{529,529,1,582},{512,534,1,583},{513,535,2,583},{514,536,2,583},{515,537,1,583},{516,538,2,583},{517,539,1,583},{518,540,1,583},{519,541,2,583},{520,542,2,583},{521,543,1,583},{522,544,2,583},{523,545,1,583},{524,546,1,583},{525,547,2,583},{526,548,2,583},{527,549,1,583},{528,550,2,583},{529,551,1,583},{512,556,1,584},{513,557,2,584},{514,558,2,584},{515,559,1,584},{516,560,2,584},{517,561,1,584},{518,562,1,584},{519,563,2,584},{520,564,2,584},{521,565,1,584},{522,566,2,584},{523,567,1,584},{524,568,1,584},{525,569,2,584},{526,570,2,584},{527,571,1,584},{528,572,2,584},{529,573,1,584},{534,534,1,585},{535,535,2,585},{536,536,2,585},{537,537,1,585},{538,538,2,585},{539,539,1,585},{540,540,1,585},{541,541,2,585},{542,542,2,585},{543,543,1,585},{544,544,2,585},{545,545,1,585},{546,546,1,585},{547,547,2,585},{548,548,2,585},{549,549,1,585},{550,550,2,585},{551,551,1,585},{534,556,1,586},{535,557,2,586},{536,558,2,586},{537,559,1,586},{538,560,2,586},{539,561,1,586},{540,562,1,586},{541,563,2,586},{542,564,2,586},{543,565,1,586},{544,566,2,586},{545,567,1,586},{546,568,1,586},{547,569,2,586},{548,570,2,586},{549,571,1,586},{550,572,2,586},{551,573,1,586},{556,556,1,587},{557,557,2,587},{558,558,2,587},{559,559,1,587},{560,560,2,587},{561,561,1,587},{562,562,1,587},{563,563,2,587},{564,564,2,587},{565,565,1,587},{566,566,2,587},{567,567,1,587},{568,568,1,587},{569,569,2,587},{570,570,2,587},{571,571,1,587},{572,572,2,587},{573,573,1,587},{10,10,1,588},{11,11,2,588},{12,12,2,588},{13,13,1,588},{14,14,2,588},{15,15,1,588},{10,11,1,589},{11,13,2,589},{12,14,2,589},{13,16,1,589},{14,17,2,589},{15,18,1,589},{10,12,1,590},{11,14,2,590},{12,15,2,590},{13,17,1,590},{14,18,2,590},{15,19,1,590},{11,11,1,591},{13,13,2,591},{14,14,2,591},{16,16,1,591},{17,17,2,591},{18,18,1,591},{11,12,1,592},{13,14,2,592},{14,15,2,592},{16,17,1,592},{17,18,2,592},{18,19,1,592},{12,12,1,593},{14,14,2,593},{15,15,2,593},{17,17,1,593},{18,18,2,593},{19,19,1,593},{4,588,1,594},{5,589,2,594},{6,590,2,594},{7,591,1,594},{8,592,2,594},{9,593,1,594},{39,588,1,595},{40,589,2,595},{41,590,2,595},{42,591,1,595},{43,592,2,595},{44,593,1,595},{74,588,1,596},{75,589,2,596},{76,590,2,596},{77,591,1,596},{78,592,2,596},{79,593,1,596},{109,588,1,597},{110,589,2,597},{111,590,2,597},{112,591,1,597},{113,592,2,597},{114,593,1,597},{45,45,1,598},{46,46,2,598},{47,47,2,598},{48,48,1,598},{49,49,2,598},{50,50,1,598},{45,46,1,599},{46,48,2,599},{47,49,2,599},{48,51,1,599},{49,52,2,599},{50,53,1,599},{45,47,1,600},{46,49,2,600},{47,50,2,600},{48,52,1,600},{49,53,2,600},{50,54,1,600},{46,46,1,601},{48,48,2,601},{49,49,2,601},{51,51,1,601},{52,52,2,601},{53,53,1,601},{46,47,1,602},{48,49,2,602},{49,50,2,602},{51,52,1,602},{52,53,2,602},{53,54,1,602},{47,47,1,603},{49,49,2,603},{50,50,2,603},{52,52,1,603},{53,53,2,603},{54,54,1,603},{4,598,1,604},{5,599,2,604},{6,600,2,604},{7,601,1,604},{8,602,2,604},{9,603,1,604},{39,598,1,605},{40,599,2,605},{41,600,2,605},{42,601,1,605},{43,602,2,605},{44,603,1,605},{74,598,1,606},{75,599,2,606},{76,600,2,606},{77,601,1,606},{78,602,2,606},{79,603,1,606},{109,598,1,607},{110,599,2,607},{111,600,2,607},{112,601,1,607},{113,602,2,607},{114,603,1,607},{80,80,1,608},{81,81,2,608},{82,82,2,608},{83,83,1,608},{84,84,2,608},{85,85,1,608},{80,81,1,609},{81,83,2,609},{82,84,2,609},{83,86,1,609},{84,87,2,609},{85,88,1,609},{80,82,1,610},{81,84,2,610},{82,85,2,610},{83,87,1,610},{84,88,2,610},{85,89,1,610},{81,81,1,611},{83,83,2,611},{84,84,2,611},{86,86,1,611},{87,87,2,611},{88,88,1,611},{81,82,1,612},{83,84,2,612},{84,85,2,612},{86,87,1,612},{87,88,2,612},{88,89,1,612},{82,82,1,613},{84,84,2,613},{85,85,2,613},{87,87,1,613},{88,88,2,613},{89,89,1,613},{4,608,1,614},{5,609,2,614},{6,610,2,614},{7,611,1,614},{8,612,2,614},{9,613,1,614},{39,608,1,615},{40,609,2,615},{41,610,2,615},{42,611,1,615},{43,612,2,615},{44,613,1,615},{74,608,1,616},{75,609,2,616},{76,610,2,616},{77,611,1,616},{78,612,2,616},{79,613,1,616},{109,608,1,617},{110,609,2,617},{111,610,2,617},{112,611,1,617},{113,612,2,617},{114,613,1,617},{115,115,1,618},{116,116,2,618},{117,117,2,618},{118,118,1,618},{119,119,2,618},{120,120,1,618},{115,116,1,619},{116,118,2,619},{117,119,2,619},{118,121,1,619},{119,122,2,619},{120,123,1,619},{115,117,1,620},{116,119,2,620},{117,120,2,620},{118,122,1,620},{119,123,2,620},{120,124,1,620},{116,116,1,621},{118,118,2,621},{119,119,2,621},{121,121,1,621},{122,122,2,621},{123,123,1,621},{116,117,1,622},{118,119,2,622},{119,120,2,622},{121,122,1,622},{122,123,2,622},{123,124,1,622},{117,117,1,623},{119,119,2,623},{120,120,2,623},{122,122,1,623},{123,123,2,623},{124,124,1,623},{4,618,1,624},{5,619,2,624},{6,620,2,624},{7,621,1,624},{8,622,2,624},{9,623,1,624},{39,618,1,625},{40,619,2,625},{41,620,2,625},{42,621,1,625},{43,622,2,625},{44,623,1,625},{74,618,1,626},{75,619,2,626},{76,620,2,626},{77,621,1,626},{78,622,2,626},{79,623,1,626},{109,618,1,627},{110,619,2,627},{111,620,2,627},{112,621,1,627},{113,622,2,627},{114,623,1,627},{588,588,1,628},{589,589,2,628},{590,590,2,628},{591,591,1,628},{592,592,2,628},{593,593,1,628},{588,598,1,629},{589,599,2,629},{590,600,2,629},{591,601,1,629},{592,602,2,629},{593,603,1,629},{588,608,1,630},{589,609,2,630},{590,610,2,630},{591,611,1,630},{592,612,2,630},{593,613,1,630},{588,618,1,631},{589,619,2,631},{590,620,2,631},{591,621,1,631},{592,622,2,631},{593,623,1,631},{598,598,1,632},{599,599,2,632},{600,600,2,632},{601,601,1,632},{602,602,2,632},{603,603,1,632},{598,608,1,633},{599,609,2,633},{600,610,2,633},{601,611,1,633},{602,612,2,633},{603,613,1,633},{598,618,1,634},{599,619,2,634},{600,620,2,634},{601,621,1,634},{602,622,2,634},{603,623,1,634},{608,608,1,635},{609,609,2,635},{610,610,2,635},{611,611,1,635},{612,612,2,635},{613,613,1,635},{608,618,1,636},{609,619,2,636},{610,620,2,636},{611,621,1,636},{612,622,2,636},{613,623,1,636},{618,618,1,637},{619,619,2,637},{620,620,2,637},{621,621,1,637},{622,622,2,637},{623,623,1,637},{170,480,1,638},{170,481,1,639},{170,482,1,640},{170,483,1,641},{170,484,1,642},{170,485,1,643},{170,486,1,644},{170,487,1,645},{170,488,1,646},{170,489,1,647},{171,480,1,648},{171,481,1,649},{171,482,1,650},{171,483,1,651},{171,484,1,652},{171,485,1,653},{171,486,1,654},{171,487,1,655},{171,488,1,656},{171,489,1,657},{172,480,1,658},{172,481,1,659},{172,482,1,660},{172,483,1,661},{172,484,1,662},{172,485,1,663},{172,486,1,664},{172,487,1,665},{172,488,1,666},{172,489,1,667},{173,480,1,668},{173,481,1,669},{173,482,1,670},{173,483,1,671},{173,484,1,672},{173,485,1,673},{173,486,1,674},{173,487,1,675},{173,488,1,676},{173,489,1,677},{174,480,1,678},{174,481,1,679},{174,482,1,680},{174,483,1,681},{174,484,1,682},{174,485,1,683},{174,486,1,684},{174,487,1,685},{174,488,1,686},{174,489,1,687},{175,480,1,688},{175,481,1,689},{175,482,1,690},{175,483,1,691},{175,484,1,692},{175,485,1,693},{175,486,1,694},{175,487,1,695},{175,488,1,696},{175,489,1,697},{176,480,1,698},{176,481,1,699},{176,482,1,700},{176,483,1,701},{176,484,1,702},{176,485,1,703},{176,486,1,704},{176,487,1,705},{176,488,1,706},{176,489,1,707},{177,480,1,708},{177,481,1,709},{177,482,1,710},{177,483,1,711},{177,484,1,712},{177,485,1,713},{177,486,1,714},{177,487,1,715},{177,488,1,716},{177,489,1,717},{178,480,1,718},{178,481,1,719},{178,482,1,720},{178,483,1,721},{178,484,1,722},{178,485,1,723},{178,486,1,724},{178,487,1,725},{178,488,1,726},{178,489,1,727},{179,480,1,728},{179,481,1,729},{179,482,1,730},{179,483,1,731},{179,484,1,732},{179,485,1,733},{179,486,1,734},{179,487,1,735},{179,488,1,736},{179,489,1,737},{180,480,1,738},{180,481,1,739},{180,482,1,740},{180,483,1,741},{180,484,1,742},{180,485,1,743},{180,486,1,744},{180,487,1,745},{180,488,1,746},{180,489,1,747},{181,480,1,748},{181,481,1,749},{181,482,1,750},{181,483,1,751},{181,484,1,752},{181,485,1,753},{181,486,1,754},{181,487,1,755},{181,488,1,756},{181,489,1,757},{182,480,1,758},{182,481,1,759},{182,482,1,760},{182,483,1,761},{182,484,1,762},{182,485,1,763},{182,486,1,764},{182,487,1,765},{182,488,1,766},{182,489,1,767},{183,480,1,768},{183,481,1,769},{183,482,1,770},{183,483,1,771},{183,484,1,772},{183,485,1,773},{183,486,1,774},{183,487,1,775},{183,488,1,776},{183,489,1,777},{184,480,1,778},{184,481,1,779},{184,482,1,780},{184,483,1,781},{184,484,1,782},{184,485,1,783},{184,486,1,784},{184,487,1,785},{184,488,1,786},{184,489,1,787},{185,480,1,788},{185,481,1,789},{185,482,1,790},{185,483,1,791},{185,484,1,792},{185,485,1,793},{185,486,1,794},{185,487,1,795},{185,488,1,796},{185,489,1,797},{186,480,1,798},{186,481,1,799},{186,482,1,800},{186,483,1,801},{186,484,1,802},{186,485,1,803},{186,486,1,804},{186,487,1,805},{186,488,1,806},{186,489,1,807},{187,480,1,808},{187,481,1,809},{187,482,1,810},{187,483,1,811},{187,484,1,812},{187,485,1,813},{187,486,1,814},{187,487,1,815},{187,488,1,816},{187,489,1,817},{188,480,1,818},{188,481,1,819},{188,482,1,820},{188,483,1,821},{188,484,1,822},{188,485,1,823},{188,486,1,824},{188,487,1,825},{188,488,1,826},{188,489,1,827},{189,480,1,828},{189,481,1,829},{189,482,1,830},{189,483,1,831},{189,484,1,832},{189,485,1,833},{189,486,1,834},{189,487,1,835},{189,488,1,836},{189,489,1,837},{480,480,1,838},{480,481,1,839},{480,482,1,840},{480,483,1,841},{480,484,1,842},{480,485,1,843},{480,486,1,844},{480,487,1,845},{480,488,1,846},{480,489,1,847},{481,481,1,848},{481,482,1,849},{481,483,1,850},{481,484,1,851},{481,485,1,852},{481,486,1,853},{481,487,1,854},{481,488,1,855},{481,489,1,856},{482,482,1,857},{482,483,1,858},{482,484,1,859},{482,485,1,860},{482,486,1,861},{482,487,1,862},{482,488,1,863},{482,489,1,864},{483,483,1,865},{483,484,1,866},{483,485,1,867},{483,486,1,868},{483,487,1,869},{483,488,1,870},{483,489,1,871},{484,484,1,872},{484,485,1,873},{484,486,1,874},{484,487,1,875},{484,488,1,876},{484,489,1,877},{485,485,1,878},{485,486,1,879},{485,487,1,880},{485,488,1,881},{485,489,1,882},{486,486,1,883},{486,487,1,884},{486,488,1,885},{486,489,1,886},{487,487,1,887},{487,488,1,888},{487,489,1,889},{488,488,1,890},{488,489,1,891},{489,489,1,892},{0,480,1,893},{0,481,1,894},{0,482,1,895},{0,483,1,896},{0,484,1,897},{0,485,1,898},{0,486,1,899},{0,487,1,900},{0,488,1,901},{0,489,1,902},{35,480,1,903},{35,481,1,904},{35,482,1,905},{35,483,1,906},{35,484,1,907},{35,485,1,908},{35,486,1,909},{35,487,1,910},{35,488,1,911},{35,489,1,912},{70,480,1,913},{70,481,1,914},{70,482,1,915},{70,483,1,916},{70,484,1,917},{70,485,1,918},{70,486,1,919},{70,487,1,920},{70,488,1,921},{70,489,1,922},{105,480,1,923},{105,481,1,924},{105,482,1,925},{105,483,1,926},{105,484,1,927},{105,485,1,928},{105,486,1,929},{105,487,1,930},{105,488,1,931},{105,489,1,932},{1,1,1,933},{1,2,1,934},{1,3,1,935},{2,2,1,936},{2,3,1,937},{3,3,1,938},{4,933,1,939},{5,934,2,939},{6,935,2,939},{7,936,1,939},{8,937,2,939},{9,938,1,939},{39,933,1,940},{40,934,2,940},{41,935,2,940},{42,936,1,940},{43,937,2,940},{44,938,1,940},{74,933,1,941},{75,934,2,941},{76,935,2,941},{77,936,1,941},{78,937,2,941},{79,938,1,941},{109,933,1,942},{110,934,2,942},{111,935,2,942},{112,936,1,942},{113,937,2,942},{114,938,1,942},{36,36,1,943},{36,37,1,944},{36,38,1,945},{37,37,1,946},{37,38,1,947},{38,38,1,948},{4,943,1,949},{5,944,2,949},{6,945,2,949},{7,946,1,949},{8,947,2,949},{9,948,1,949},{39,943,1,950},{40,944,2,950},{41,945,2,950},{42,946,1,950},{43,947,2,950},{44,948,1,950},{74,943,1,951},{75,944,2,951},{76,945,2,951},{77,946,1,951},{78,947,2,951},{79,948,1,951},{109,943,1,952},{110,944,2,952},{111,945,2,952},{112,946,1,952},{113,947,2,952},{114,948,1,952},{71,71,1,953},{71,72,1,954},{71,73,1,955},{72,72,1,956},{72,73,1,957},{73,73,1,958},{4,953,1,959},{5,954,2,959},{6,955,2,959},{7,956,1,959},{8,957,2,959},{9,958,1,959},{39,953,1,960},{40,954,2,960},{41,955,2,960},{42,956,1,960},{43,957,2,960},{44,958,1,960},{74,953,1,961},{75,954,2,961},{76,955,2,961},{77,956,1,961},{78,957,2,961},{79,958,1,961},{109,953,1,962},{110,954,2,962},{111,955,2,962},{112,956,1,962},{113,957,2,962},{114,958,1,962},{106,106,1,963},{106,107,1,964},{106,108,1,965},{107,107,1,966},{107,108,1,967},{108,108,1,968},{4,963,1,969},{5,964,2,969},{6,965,2,969},{7,966,1,969},{8,967,2,969},{9,968,1,969},{39,963,1,970},{40,964,2,970},{41,965,2,970},{42,966,1,970},{43,967,2,970},{44,968,1,970},{74,963,1,971},{75,964,2,971},{76,965,2,971},{77,966,1,971},{78,967,2,971},{79,968,1,971},{109,963,1,972},{110,964,2,972},{111,965,2,972},{112,966,1,972},{113,967,2,972},{114,968,1,972},{933,933,1,973},{934,934,2,973},{935,935,2,973},{936,936,1,973},{937,937,2,973},{938,938,1,973},{933,943,1,974},{934,944,2,974},{935,945,2,974},{936,946,1,974},{937,947,2,974},{938,948,1,974},{933,953,1,975},{934,954,2,975},{935,955,2,975},{936,956,1,975},{937,957,2,975},{938,958,1,975},{933,963,1,976},{934,964,2,976},{935,965,2,976},{936,966,1,976},{937,967,2,976},{938,968,1,976},{943,943,1,977},{944,944,2,977},{945,945,2,977},{946,946,1,977},{947,947,2,977},{948,948,1,977},{943,953,1,978},{944,954,2,978},{945,955,2,978},{946,956,1,978},{947,957,2,978},{948,958,1,978},{943,963,1,979},{944,964,2,979},{945,965,2,979},{946,966,1,979},{947,967,2,979},{948,968,1,979},{953,953,1,980},{954,954,2,980},{955,955,2,980},{956,956,1,980},{957,957,2,980},{958,958,1,980},{953,963,1,981},{954,964,2,981},{955,965,2,981},{956,966,1,981},{957,967,2,981},{958,968,1,981},{963,963,1,982},{964,964,2,982},{965,965,2,982},{966,966,1,982},{967,967,2,982},{968,968,1,982},{4,4,1,983},{5,5,1,983},{6,6,1,983},{4,5,1,984},{5,7,1,984},{6,8,1,984},{4,6,1,985},{5,8,1,985},{6,9,1,985},{5,5,1,986},{7,7,1,986},{8,8,1,986},{5,6,1,987},{7,8,1,987},{8,9,1,987},{6,6,1,988},{8,8,1,988},{9,9,1,988},{4,983,1,989},{5,984,2,989},{6,985,2,989},{7,986,1,989},{8,987,2,989},{9,988,1,989},{39,983,1,990},{40,984,2,990},{41,985,2,990},{42,986,1,990},{43,987,2,990},{44,988,1,990},{74,983,1,991},{75,984,2,991},{76,985,2,991},{77,986,1,991},{78,987,2,991},{79,988,1,991},{109,983,1,992},{110,984,2,992},{111,985,2,992},{112,986,1,992},{113,987,2,992},{114,988,1,992},{39,39,1,993},{40,40,1,993},{41,41,1,993},{39,40,1,994},{40,42,1,994},{41,43,1,994},{39,41,1,995},{40,43,1,995},{41,44,1,995},{40,40,1,996},{42,42,1,996},{43,43,1,996},{40,41,1,997},{42,43,1,997},{43,44,1,997},{41,41,1,998},{43,43,1,998},{44,44,1,998},{4,993,1,999},{5,994,2,999},{6,995,2,999},{7,996,1,999},{8,997,2,999},{9,998,1,999},{39,993,1,1000},{40,994,2,1000},{41,995,2,1000},{42,996,1,1000},{43,997,2,1000},{44,998,1,1000},{74,993,1,1001},{75,994,2,1001},{76,995,2,1001},{77,996,1,1001},{78,997,2,1001},{79,998,1,1001},{109,993,1,1002},{110,994,2,1002},{111,995,2,1002},{112,996,1,1002},{113,997,2,1002},{114,998,1,1002},{74,74,1,1003},{75,75,1,1003},{76,76,1,1003},{74,75,1,1004},{75,77,1,1004},{76,78,1,1004},{74,76,1,1005},{75,78,1,1005},{76,79,1,1005},{75,75,1,1006},{77,77,1,1006},{78,78,1,1006},{75,76,1,1007},{77,78,1,1007},{78,79,1,1007},{76,76,1,1008},{78,78,1,1008},{79,79,1,1008},{4,1003,1,1009},{5,1004,2,1009},{6,1005,2,1009},{7,1006,1,1009},{8,1007,2,1009},{9,1008,1,1009},{39,1003,1,1010},{40,1004,2,1010},{41,1005,2,1010},{42,1006,1,1010},{43,1007,2,1010},{44,1008,1,1010},{74,1003,1,1011},{75,1004,2,1011},{76,1005,2,1011},{77,1006,1,1011},{78,1007,2,1011},{79,1008,1,1011},{109,1003,1,1012},{110,1004,2,1012},{111,1005,2,1012},{112,1006,1,1012},{113,1007,2,1012},{114,1008,1,1012},{109,109,1,1013},{110,110,1,1013},{111,111,1,1013},{109,110,1,1014},{110,112,1,1014},{111,113,1,1014},{109,111,1,1015},{110,113,1,1015},{111,114,1,1015},{110,110,1,1016},{112,112,1,1016},{113,113,1,1016},{110,111,1,1017},{112,113,1,1017},{113,114,1,1017},{111,111,1,1018},{113,113,1,1018},{114,114,1,1018},{4,1013,1,1019},{5,1014,2,1019},{6,1015,2,1019},{7,1016,1,1019},{8,1017,2,1019},{9,1018,1,1019},{39,1013,1,1020},{40,1014,2,1020},{41,1015,2,1020},{42,1016,1,1020},{43,1017,2,1020},{44,1018,1,1020},{74,1013,1,1021},{75,1014,2,1021},{76,1015,2,1021},{77,1016,1,1021},{78,1017,2,1021},{79,1018,1,1021},{109,1013,1,1022},{110,1014,2,1022},{111,1015,2,1022},{112,1016,1,1022},{113,1017,2,1022},{114,1018,1,1022},{983,983,1,1023},{984,984,2,1023},{985,985,2,1023},{986,986,1,1023},{987,987,2,1023},{988,988,1,1023},{983,993,1,1024},{984,994,2,1024},{985,995,2,1024},{986,996,1,1024},{987,997,2,1024},{988,998,1,1024},{983,1003,1,1025},{984,1004,2,1025},{985,1005,2,1025},{986,1006,1,1025},{987,1007,2,1025},{988,1008,1,1025},{983,1013,1,1026},{984,1014,2,1026},{985,1015,2,1026},{986,1016,1,1026},{987,1017,2,1026},{988,1018,1,1026},{993,993,1,1027},{994,994,2,1027},{995,995,2,1027},{996,996,1,1027},{997,997,2,1027},{998,998,1,1027},{993,1003,1,1028},{994,1004,2,1028},{995,1005,2,1028},{996,1006,1,1028},{997,1007,2,1028},{998,1008,1,1028},{993,1013,1,1029},{994,1014,2,1029},{995,1015,2,1029},{996,1016,1,1029},{997,1017,2,1029},{998,1018,1,1029},{1003,1003,1,1030},{1004,1004,2,1030},{1005,1005,2,1030},{1006,1006,1,1030},{1007,1007,2,1030},{1008,1008,1,1030},{1003,1013,1,1031},{1004,1014,2,1031},{1005,1015,2,1031},{1006,1016,1,1031},{1007,1017,2,1031},{1008,1018,1,1031},{1013,1013,1,1032},{1014,1014,2,1032},{1015,1015,2,1032},{1016,1016,1,1032},{1017,1017,2,1032},{1018,1018,1,1032},{933,983,1,1033},{934,984,2,1033},{935,985,2,1033},{936,986,1,1033},{937,987,2,1033},{938,988,1,1033},{933,993,1,1034},{934,994,2,1034},{935,995,2,1034},{936,996,1,1034},{937,997,2,1034},{938,998,1,1034},{933,1003,1,1035},{934,1004,2,1035},{935,1005,2,1035},{936,1006,1,1035},{937,1007,2,1035},{938,1008,1,1035},{933,1013,1,1036},{934,1014,2,1036},{935,1015,2,1036},{936,1016,1,1036},{937,1017,2,1036},{938,1018,1,1036},{943,983,1,1037},{944,984,2,1037},{945,985,2,1037},{946,986,1,1037},{947,987,2,1037},{948,988,1,1037},{943,993,1,1038},{944,994,2,1038},{945,995,2,1038},{946,996,1,1038},{947,997,2,1038},{948,998,1,1038},{943,1003,1,1039},{944,1004,2,1039},{945,1005,2,1039},{946,1006,1,1039},{947,1007,2,1039},{948,1008,1,1039},{943,1013,1,1040},{944,1014,2,1040},{945,1015,2,1040},{946,1016,1,1040},{947,1017,2,1040},{948,1018,1,1040},{953,983,1,1041},{954,984,2,1041},{955,985,2,1041},{956,986,1,1041},{957,987,2,1041},{958,988,1,1041},{953,993,1,1042},{954,994,2,1042},{955,995,2,1042},{956,996,1,1042},{957,997,2,1042},{958,998,1,1042},{953,1003,1,1043},{954,1004,2,1043},{955,1005,2,1043},{956,1006,1,1043},{957,1007,2,1043},{958,1008,1,1043},{953,1013,1,1044},{954,1014,2,1044},{955,1015,2,1044},{956,1016,1,1044},{957,1017,2,1044},{958,1018,1,1044},{963,983,1,1045},{964,984,2,1045},{965,985,2,1045},{966,986,1,1045},{967,987,2,1045},{968,988,1,1045},{963,993,1,1046},{964,994,2,1046},{965,995,2,1046},{966,996,1,1046},{967,997,2,1046},{968,998,1,1046},{963,1003,1,1047},{964,1004,2,1047},{965,1005,2,1047},{966,1006,1,1047},{967,1007,2,1047},{968,1008,1,1047},{963,1013,1,1048},{964,1014,2,1048},{965,1015,2,1048},{966,1016,1,1048},{967,1017,2,1048},{968,1018,1,1048},{588,983,1,1049},{589,984,2,1049},{590,985,2,1049},{591,986,1,1049},{592,987,2,1049},{593,988,1,1049},{588,993,1,1050},{589,994,2,1050},{590,995,2,1050},{591,996,1,1050},{592,997,2,1050},{593,998,1,1050},{588,1003,1,1051},{589,1004,2,1051},{590,1005,2,1051},{591,1006,1,1051},{592,1007,2,1051},{593,1008,1,1051},{588,1013,1,1052},{589,1014,2,1052},{590,1015,2,1052},{591,1016,1,1052},{592,1017,2,1052},{593,1018,1,1052},{598,983,1,1053},{599,984,2,1053},{600,985,2,1053},{601,986,1,1053},{602,987,2,1053},{603,988,1,1053},{598,993,1,1054},{599,994,2,1054},{600,995,2,1054},{601,996,1,1054},{602,997,2,1054},{603,998,1,1054},{598,1003,1,1055},{599,1004,2,1055},{600,1005,2,1055},{601,1006,1,1055},{602,1007,2,1055},{603,1008,1,1055},{598,1013,1,1056},{599,1014,2,1056},{600,1015,2,1056},{601,1016,1,1056},{602,1017,2,1056},{603,1018,1,1056},{608,983,1,1057},{609,984,2,1057},{610,985,2,1057},{611,986,1,1057},{612,987,2,1057},{613,988,1,1057},{608,993,1,1058},{609,994,2,1058},{610,995,2,1058},{611,996,1,1058},{612,997,2,1058},{613,998,1,1058},{608,1003,1,1059},{609,1004,2,1059},{610,1005,2,1059},{611,1006,1,1059},{612,1007,2,1059},{613,1008,1,1059},{608,1013,1,1060},{609,1014,2,1060},{610,1015,2,1060},{611,1016,1,1060},{612,1017,2,1060},{613,1018,1,1060},{618,983,1,1061},{619,984,2,1061},{620,985,2,1061},{621,986,1,1061},{622,987,2,1061},{623,988,1,1061},{618,993,1,1062},{619,994,2,1062},{620,995,2,1062},{621,996,1,1062},{622,997,2,1062},{623,998,1,1062},{618,1003,1,1063},{619,1004,2,1063},{620,1005,2,1063},{621,1006,1,1063},{622,1007,2,1063},{623,1008,1,1063},{618,1013,1,1064},{619,1014,2,1064},{620,1015,2,1064},{621,1016,1,1064},{622,1017,2,1064},{623,1018,1,1064},{588,933,1,1065},{589,934,2,1065},{590,935,2,1065},{591,936,1,1065},{592,937,2,1065},{593,938,1,1065},{588,943,1,1066},{589,944,2,1066},{590,945,2,1066},{591,946,1,1066},{592,947,2,1066},{593,948,1,1066},{588,953,1,1067},{589,954,2,1067},{590,955,2,1067},{591,956,1,1067},{592,957,2,1067},{593,958,1,1067},{588,963,1,1068},{589,964,2,1068},{590,965,2,1068},{591,966,1,1068},{592,967,2,1068},{593,968,1,1068},{598,933,1,1069},{599,934,2,1069},{600,935,2,1069},{601,936,1,1069},{602,937,2,1069},{603,938,1,1069},{598,943,1,1070},{599,944,2,1070},{600,945,2,1070},{601,946,1,1070},{602,947,2,1070},{603,948,1,1070},{598,953,1,1071},{599,954,2,1071},{600,955,2,1071},{601,956,1,1071},{602,957,2,1071},{603,958,1,1071},{598,963,1,1072},{599,964,2,1072},{600,965,2,1072},{601,966,1,1072},{602,967,2,1072},{603,968,1,1072},{608,933,1,1073},{609,934,2,1073},{610,935,2,1073},{611,936,1,1073},{612,937,2,1073},{613,938,1,1073},{608,943,1,1074},{609,944,2,1074},{610,945,2,1074},{611,946,1,1074},{612,947,2,1074},{613,948,1,1074},{608,953,1,1075},{609,954,2,1075},{610,955,2,1075},{611,956,1,1075},{612,957,2,1075},{613,958,1,1075},{608,963,1,1076},{609,964,2,1076},{610,965,2,1076},{611,966,1,1076},{612,967,2,1076},{613,968,1,1076},{618,933,1,1077},{619,934,2,1077},{620,935,2,1077},{621,936,1,1077},{622,937,2,1077},{623,938,1,1077},{618,943,1,1078},{619,944,2,1078},{620,945,2,1078},{621,946,1,1078},{622,947,2,1078},{623,948,1,1078},{618,953,1,1079},{619,954,2,1079},{620,955,2,1079},{621,956,1,1079},{622,957,2,1079},{623,958,1,1079},{618,963,1,1080},{619,964,2,1080},{620,965,2,1080},{621,966,1,1080},{622,967,2,1080},{623,968,1,1080},{20,20,1,1081},{21,21,4,1081},{22,22,4,1081},{23,23,6,1081},{24,24,12,1081},{25,25,6,1081},{26,26,4,1081},{27,27,12,1081},{28,28,12,1081},{29,29,4,1081},{30,30,1,1081},{31,31,4,1081},{32,32,6,1081},{33,33,4,1081},{34,34,1,1081},{20,55,1,1082},{21,56,4,1082},{22,57,4,1082},{23,58,6,1082},{24,59,12,1082},{25,60,6,1082},{26,61,4,1082},{27,62,12,1082},{28,63,12,1082},{29,64,4,1082},{30,65,1,1082},{31,66,4,1082},{32,67,6,1082},{33,68,4,1082},{34,69,1,1082},{20,90,1,1083},{21,91,4,1083},{22,92,4,1083},{23,93,6,1083},{24,94,12,1083},{25,95,6,1083},{26,96,4,1083},{27,97,12,1083},{28,98,12,1083},{29,99,4,1083},{30,100,1,1083},{31,101,4,1083},{32,102,6,1083},{33,103,4,1083},{34,104,1,1083},{20,125,1,1084},{21,126,4,1084},{22,127,4,1084},{23,128,6,1084},{24,129,12,1084},{25,130,6,1084},{26,131,4,1084},{27,132,12,1084},{28,133,12,1084},{29,134,4,1084},{30,135,1,1084},{31,136,4,1084},{32,137,6,1084},{33,138,4,1084},{34,139,1,1084},{55,55,1,1085},{56,56,4,1085},{57,57,4,1085},{58,58,6,1085},{59,59,12,1085},{60,60,6,1085},{61,61,4,1085},{62,62,12,1085},{63,63,12,1085},{64,64,4,1085},{65,65,1,1085},{66,66,4,1085},{67,67,6,1085},{68,68,4,1085},{69,69,1,1085},{55,90,1,1086},{56,91,4,1086},{57,92,4,1086},{58,93,6,1086},{59,94,12,1086},{60,95,6,1086},{61,96,4,1086},{62,97,12,1086},{63,98,12,1086},{64,99,4,1086},{65,100,1,1086},{66,101,4,1086},{67,102,6,1086},{68,103,4,1086},{69,104,1,1086},{55,125,1,1087},{56,126,4,1087},{57,127,4,1087},{58,128,6,1087},{59,129,12,1087},{60,130,6,1087},{61,131,4,1087},{62,132,12,1087},{63,133,12,1087},{64,134,4,1087},{65,135,1,1087},{66,136,4,1087},{67,137,6,1087},{68,138,4,1087},{69,139,1,1087},{90,90,1,1088},{91,91,4,1088},{92,92,4,1088},{93,93,6,1088},{94,94,12,1088},{95,95,6,1088},{96,96,4,1088},{97,97,12,1088},{98,98,12,1088},{99,99,4,1088},{100,100,1,1088},{101,101,4,1088},{102,102,6,1088},{103,103,4,1088},{104,104,1,1088},{90,125,1,1089},{91,126,4,1089},{92,127,4,1089},{93,128,6,1089},{94,129,12,1089},{95,130,6,1089},{96,131,4,1089},{97,132,12,1089},{98,133,12,1089},{99,134,4,1089},{100,135,1,1089},{101,136,4,1089},{102,137,6,1089},{103,138,4,1089},{104,139,1,1089},{125,125,1,1090},{126,126,4,1090},{127,127,4,1090},{128,128,6,1090},{129,129,12,1090},{130,130,6,1090},{131,131,4,1090},{132,132,12,1090},{133,133,12,1090},{134,134,4,1090},{135,135,1,1090},{136,136,4,1090},{137,137,6,1090},{138,138,4,1090},{139,139,1,1090},{0,1081,1,1091},{0,1082,1,1092},{0,1083,1,1093},{0,1084,1,1094},{0,1085,1,1095},{0,1086,1,1096},{0,1087,1,1097},{0,1088,1,1098},{0,1089,1,1099},{0,1090,1,1100},{35,1081,1,1101},{35,1082,1,1102},{35,1083,1,1103},{35,1084,1,1104},{35,1085,1,1105},{35,1086,1,1106},{35,1087,1,1107},{35,1088,1,1108},{35,1089,1,1109},{35,1090,1,1110},{70,1081,1,1111},{70,1082,1,1112},{70,1083,1,1113},{70,1084,1,1114},{70,1085,1,1115},{70,1086,1,1116},{70,1087,1,1117},{70,1088,1,1118},{70,1089,1,1119},{70,1090,1,1120},{105,1081,1,1121},{105,1082,1,1122},{105,1083,1,1123},{105,1084,1,1124},{105,1085,1,1125},{105,1086,1,1126},{105,1087,1,1127},{105,1088,1,1128},{105,1089,1,1129},{105,1090,1,1130},{4,4,1,1131},{4,5,1,1132},{4,6,1,1133},{4,7,1,1134},{4,8,1,1135},{4,9,1,1136},{5,5,1,1137},{5,6,1,1138},{5,7,1,1139},{5,8,1,1140},{5,9,1,1141},{6,6,1,1142},{6,7,1,1143},{6,8,1,1144},{6,9,1,1145},{7,7,1,1146},{7,8,1,1147},{7,9,1,1148},{8,8,1,1149},{8,9,1,1150},{9,9,1,1151},{1131,1131,1,1152},{1132,1132,4,1152},{1133,1133,4,1152},{1134,1134,2,1152},{1135,1135,4,1152},{1136,1136,2,1152},{1137,1137,4,1152},{1138,1138,8,1152},{1139,1139,4,1152},{1140,1140,8,1152},{1141,1141,4,1152},{1142,1142,4,1152},{1143,1143,4,1152},{1144,1144,8,1152},{1145,1145,4,1152},{1146,1146,1,1152},{1147,1147,4,1152},{1148,1148,2,1152},{1149,1149,4,1152},{1150,1150,4,1152},{1151,1151,1,1152},{20,1131,1,1153},{21,1132,4,1153},{22,1133,4,1153},{23,1134,2,1153},{24,1135,4,1153},{25,1136,2,1153},{23,1137,4,1153},{24,1138,8,1153},{26,1139,4,1153},{27,1140,8,1153},{28,1141,4,1153},{25,1142,4,1153},{27,1143,4,1153},{28,1144,8,1153},{29,1145,4,1153},{30,1146,1,1153},{31,1147,4,1153},{32,1148,2,1153},{32,1149,4,1153},{33,1150,4,1153},{34,1151,1,1153},{55,1131,1,1154},{56,1132,4,1154},{57,1133,4,1154},{58,1134,2,1154},{59,1135,4,1154},{60,1136,2,1154},{58,1137,4,1154},{59,1138,8,1154},{61,1139,4,1154},{62,1140,8,1154},{63,1141,4,1154},{60,1142,4,1154},{62,1143,4,1154},{63,1144,8,1154},{64,1145,4,1154},{65,1146,1,1154},{66,1147,4,1154},{67,1148,2,1154},{67,1149,4,1154},{68,1150,4,1154},{69,1151,1,1154},{90,1131,1,1155},{91,1132,4,1155},{92,1133,4,1155},{93,1134,2,1155},{94,1135,4,1155},{95,1136,2,1155},{93,1137,4,1155},{94,1138,8,1155},{96,1139,4,1155},{97,1140,8,1155},{98,1141,4,1155},{95,1142,4,1155},{97,1143,4,1155},{98,1144,8,1155},{99,1145,4,1155},{100,1146,1,1155},{101,1147,4,1155},{102,1148,2,1155},{102,1149,4,1155},{103,1150,4,1155},{104,1151,1,1155},{125,1131,1,1156},{126,1132,4,1156},{127,1133,4,1156},{128,1134,2,1156},{129,1135,4,1156},{130,1136,2,1156},{128,1137,4,1156},{129,1138,8,1156},{131,1139,4,1156},{132,1140,8,1156},{133,1141,4,1156},{130,1142,4,1156},{132,1143,4,1156},{133,1144,8,1156},{134,1145,4,1156},{135,1146,1,1156},{136,1147,4,1156},{137,1148,2,1156},{137,1149,4,1156},{138,1150,4,1156},{139,1151,1,1156},{39,39,1,1157},{39,40,1,1158},{39,41,1,1159},{39,42,1,1160},{39,43,1,1161},{39,44,1,1162},{40,40,1,1163},{40,41,1,1164},{40,42,1,1165},{40,43,1,1166},{40,44,1,1167},{41,41,1,1168},{41,42,1,1169},{41,43,1,1170},{41,44,1,1171},{42,42,1,1172},{42,43,1,1173},{42,44,1,1174},{43,43,1,1175},{43,44,1,1176},{44,44,1,1177},{1157,1157,1,1178},{1158,1158,4,1178},{1159,1159,4,1178},{1160,1160,2,1178},{1161,1161,4,1178},{1162,1162,2,1178},{1163,1163,4,1178},{1164,1164,8,1178},{1165,1165,4,1178},{1166,1166,8,1178},{1167,1167,4,1178},{1168,1168,4,1178},{1169,1169,4,1178},{1170,1170,8,1178},{1171,1171,4,1178},{1172,1172,1,1178},{1173,1173,4,1178},{1174,1174,2,1178},{1175,1175,4,1178},{1176,1176,4,1178},{1177,1177,1,1178},{20,1157,1,1179},{21,1158,4,1179},{22,1159,4,1179},{23,1160,2,1179},{24,1161,4,1179},{25,1162,2,1179},{23,1163,4,1179},{24,1164,8,1179},{26,1165,4,1179},{27,1166,8,1179},{28,1167,4,1179},{25,1168,4,1179},{27,1169,4,1179},{28,1170,8,1179},{29,1171,4,1179},{30,1172,1,1179},{31,1173,4,1179},{32,1174,2,1179},{32,1175,4,1179},{33,1176,4,1179},{34,1177,1,1179},{55,1157,1,1180},{56,1158,4,1180},{57,1159,4,1180},{58,1160,2,1180},{59,1161,4,1180},{60,1162,2,1180},{58,1163,4,1180},{59,1164,8,1180},{61,1165,4,1180},{62,1166,8,1180},{63,1167,4,1180},{60,1168,4,1180},{62,1169,4,1180},{63,1170,8,1180},{64,1171,4,1180},{65,1172,1,1180},{66,1173,4,1180},{67,1174,2,1180},{67,1175,4,1180},{68,1176,4,1180},{69,1177,1,1180},{90,1157,1,1181},{91,1158,4,1181},{92,1159,4,1181},{93,1160,2,1181},{94,1161,4,1181},{95,1162,2,1181},{93,1163,4,1181},{94,1164,8,1181},{96,1165,4,1181},{97,1166,8,1181},{98,1167,4,1181},{95,1168,4,1181},{97,1169,4,1181},{98,1170,8,1181},{99,1171,4,1181},{100,1172,1,1181},{101,1173,4,1181},{102,1174,2,1181},{102,1175,4,1181},{103,1176,4,1181},{104,1177,1,1181},{125,1157,1,1182},{126,1158,4,1182},{127,1159,4,1182},{128,1160,2,1182},{129,1161,4,1182},{130,1162,2,1182},{128,1163,4,1182},{129,1164,8,1182},{131,1165,4,1182},{132,1166,8,1182},{133,1167,4,1182},{130,1168,4,1182},{132,1169,4,1182},{133,1170,8,1182},{134,1171,4,1182},{135,1172,1,1182},{136,1173,4,1182},{137,1174,2,1182},{137,1175,4,1182},{138,1176,4,1182},{139,1177,1,1182},{74,74,1,1183},{74,75,1,1184},{74,76,1,1185},{74,77,1,1186},{74,78,1,1187},{74,79,1,1188},{75,75,1,1189},{75,76,1,1190},{75,77,1,1191},{75,78,1,1192},{75,79,1,1193},{76,76,1,1194},{76,77,1,1195},{76,78,1,1196},{76,79,1,1197},{77,77,1,1198},{77,78,1,1199},{77,79,1,1200},{78,78,1,1201},{78,79,1,1202},{79,79,1,1203},{1183,1183,1,1204},{1184,1184,4,1204},{1185,1185,4,1204},{1186,1186,2,1204},{1187,1187,4,1204},{1188,1188,2,1204},{1189,1189,4,1204},{1190,1190,8,1204},{1191,1191,4,1204},{1192,1192,8,1204},{1193,1193,4,1204},{1194,1194,4,1204},{1195,1195,4,1204},{1196,1196,8,1204},{1197,1197,4,1204},{1198,1198,1,1204},{1199,1199,4,1204},{1200,1200,2,1204},{1201,1201,4,1204},{1202,1202,4,1204},{1203,1203,1,1204},{20,1183,1,1205},{21,1184,4,1205},{22,1185,4,1205},{23,1186,2,1205},{24,1187,4,1205},{25,1188,2,1205},{23,1189,4,1205},{24,1190,8,1205},{26,1191,4,1205},{27,1192,8,1205},{28,1193,4,1205},{25,1194,4,1205},{27,1195,4,1205},{28,1196,8,1205},{29,1197,4,1205},{30,1198,1,1205},{31,1199,4,1205},{32,1200,2,1205},{32,1201,4,1205},{33,1202,4,1205},{34,1203,1,1205},{55,1183,1,1206},{56,1184,4,1206},{57,1185,4,1206},{58,1186,2,1206},{59,1187,4,1206},{60,1188,2,1206},{58,1189,4,1206},{59,1190,8,1206},{61,1191,4,1206},{62,1192,8,1206},{63,1193,4,1206},{60,1194,4,1206},{62,1195,4,1206},{63,1196,8,1206},{64,1197,4,1206},{65,1198,1,1206},{66,1199,4,1206},{67,1200,2,1206},{67,1201,4,1206},{68,1202,4,1206},{69,1203,1,1206},{90,1183,1,1207},{91,1184,4,1207},{92,1185,4,1207},{93,1186,2,1207},{94,1187,4,1207},{95,1188,2,1207},{93,1189,4,1207},{94,1190,8,1207},{96,1191,4,1207},{97,1192,8,1207},{98,1193,4,1207},{95,1194,4,1207},{97,1195,4,1207},{98,1196,8,1207},{99,1197,4,1207},{100,1198,1,1207},{101,1199,4,1207},{102,1200,2,1207},{102,1201,4,1207},{103,1202,4,1207},{104,1203,1,1207},{125,1183,1,1208},{126,1184,4,1208},{127,1185,4,1208},{128,1186,2,1208},{129,1187,4,1208},{130,1188,2,1208},{128,1189,4,1208},{129,1190,8,1208},{131,1191,4,1208},{132,1192,8,1208},{133,1193,4,1208},{130,1194,4,1208},{132,1195,4,1208},{133,1196,8,1208},{134,1197,4,1208},{135,1198,1,1208},{136,1199,4,1208},{137,1200,2,1208},{137,1201,4,1208},{138,1202,4,1208},{139,1203,1,1208},{109,109,1,1209},{109,110,1,1210},{109,111,1,1211},{109,112,1,1212},{109,113,1,1213},{109,114,1,1214},{110,110,1,1215},{110,111,1,1216},{110,112,1,1217},{110,113,1,1218},{110,114,1,1219},{111,111,1,1220},{111,112,1,1221},{111,113,1,1222},{111,114,1,1223},{112,112,1,1224},{112,113,1,1225},{112,114,1,1226},{113,113,1,1227},{113,114,1,1228},{114,114,1,1229},{1209,1209,1,1230},{1210,1210,4,1230},{1211,1211,4,1230},{1212,1212,2,1230},{1213,1213,4,1230},{1214,1214,2,1230},{1215,1215,4,1230},{1216,1216,8,1230},{1217,1217,4,1230},{1218,1218,8,1230},{1219,1219,4,1230},{1220,1220,4,1230},{1221,1221,4,1230},{1222,1222,8,1230},{1223,1223,4,1230},{1224,1224,1,1230},{1225,1225,4,1230},{1226,1226,2,1230},{1227,1227,4,1230},{1228,1228,4,1230},{1229,1229,1,1230},{20,1209,1,1231},{21,1210,4,1231},{22,1211,4,1231},{23,1212,2,1231},{24,1213,4,1231},{25,1214,2,1231},{23,1215,4,1231},{24,1216,8,1231},{26,1217,4,1231},{27,1218,8,1231},{28,1219,4,1231},{25,1220,4,1231},{27,1221,4,1231},{28,1222,8,1231},{29,1223,4,1231},{30,1224,1,1231},{31,1225,4,1231},{32,1226,2,1231},{32,1227,4,1231},{33,1228,4,1231},{34,1229,1,1231},{55,1209,1,1232},{56,1210,4,1232},{57,1211,4,1232},{58,1212,2,1232},{59,1213,4,1232},{60,1214,2,1232},{58,1215,4,1232},{59,1216,8,1232},{61,1217,4,1232},{62,1218,8,1232},{63,1219,4,1232},{60,1220,4,1232},{62,1221,4,1232},{63,1222,8,1232},{64,1223,4,1232},{65,1224,1,1232},{66,1225,4,1232},{67,1226,2,1232},{67,1227,4,1232},{68,1228,4,1232},{69,1229,1,1232},{90,1209,1,1233},{91,1210,4,1233},{92,1211,4,1233},{93,1212,2,1233},{94,1213,4,1233},{95,1214,2,1233},{93,1215,4,1233},{94,1216,8,1233},{96,1217,4,1233},{97,1218,8,1233},{98,1219,4,1233},{95,1220,4,1233},{97,1221,4,1233},{98,1222,8,1233},{99,1223,4,1233},{100,1224,1,1233},{101,1225,4,1233},{102,1226,2,1233},{102,1227,4,1233},{103,1228,4,1233},{104,1229,1,1233},{125,1209,1,1234},{126,1210,4,1234},{127,1211,4,1234},{128,1212,2,1234},{129,1213,4,1234},{130,1214,2,1234},{128,1215,4,1234},{129,1216,8,1234},{131,1217,4,1234},{132,1218,8,1234},{133,1219,4,1234},{130,1220,4,1234},{132,1221,4,1234},{133,1222,8,1234},{134,1223,4,1234},{135,1224,1,1234},{136,1225,4,1234},{137,1226,2,1234},{137,1227,4,1234},{138,1228,4,1234},{139,1229,1,1234},{1,10,1,1235},{1,11,1,1236},{1,12,1,1237},{1,13,1,1238},{1,14,1,1239},{1,15,1,1240},{1,16,1,1241},{1,17,1,1242},{1,18,1,1243},{1,19,1,1244},{2,10,1,1245},{2,11,1,1246},{2,12,1,1247},{2,13,1,1248},{2,14,1,1249},{2,15,1,1250},{2,16,1,1251},{2,17,1,1252},{2,18,1,1253},{2,19,1,1254},{3,10,1,1255},{3,11,1,1256},{3,12,1,1257},{3,13,1,1258},{3,14,1,1259},{3,15,1,1260},{3,16,1,1261},{3,17,1,1262},{3,18,1,1263},{3,19,1,1264},{1235,1235,1,1265},{1236,1236,3,1265},{1237,1237,3,1265},{1238,1238,3,1265},{1239,1239,6,1265},{1240,1240,3,1265},{1241,1241,1,1265},{1242,1242,3,1265},{1243,1243,3,1265},{1244,1244,1,1265},{1245,1245,1,1265},{1246,1246,3,1265},{1247,1247,3,1265},{1248,1248,3,1265},{1249,1249,6,1265},{1250,1250,3,1265},{1251,1251,1,1265},{1252,1252,3,1265},{1253,1253,3,1265},{1254,1254,1,1265},{1255,1255,1,1265},{1256,1256,3,1265},{1257,1257,3,1265},{1258,1258,3,1265},{1259,1259,6,1265},{1260,1260,3,1265},{1261,1261,1,1265},{1262,1262,3,1265},{1263,1263,3,1265},{1264,1264,1,1265},{20,1235,1,1266},{21,1236,3,1266},{22,1237,3,1266},{23,1238,3,1266},{24,1239,6,1266},{25,1240,3,1266},{26,1241,1,1266},{27,1242,3,1266},{28,1243,3,1266},{29,1244,1,1266},{21,1245,1,1266},{23,1246,3,1266},{24,1247,3,1266},{26,1248,3,1266},{27,1249,6,1266},{28,1250,3,1266},{30,1251,1,1266},{31,1252,3,1266},{32,1253,3,1266},{33,1254,1,1266},{22,1255,1,1266},{24,1256,3,1266},{25,1257,3,1266},{27,1258,3,1266},{28,1259,6,1266},{29,1260,3,1266},{31,1261,1,1266},{32,1262,3,1266},{33,1263,3,1266},{34,1264,1,1266},{55,1235,1,1267},{56,1236,3,1267},{57,1237,3,1267},{58,1238,3,1267},{59,1239,6,1267},{60,1240,3,1267},{61,1241,1,1267},{62,1242,3,1267},{63,1243,3,1267},{64,1244,1,1267},{56,1245,1,1267},{58,1246,3,1267},{59,1247,3,1267},{61,1248,3,1267},{62,1249,6,1267},{63,1250,3,1267},{65,1251,1,1267},{66,1252,3,1267},{67,1253,3,1267},{68,1254,1,1267},{57,1255,1,1267},{59,1256,3,1267},{60,1257,3,1267},{62,1258,3,1267},{63,1259,6,1267},{64,1260,3,1267},{66,1261,1,1267},{67,1262,3,1267},{68,1263,3,1267},{69,1264,1,1267},{90,1235,1,1268},{91,1236,3,1268},{92,1237,3,1268},{93,1238,3,1268},{94,1239,6,1268},{95,1240,3,1268},{96,1241,1,1268},{97,1242,3,1268},{98,1243,3,1268},{99,1244,1,1268},{91,1245,1,1268},{93,1246,3,1268},{94,1247,3,1268},{96,1248,3,1268},{97,1249,6,1268},{98,1250,3,1268},{100,1251,1,1268},{101,1252,3,1268},{102,1253,3,1268},{103,1254,1,1268},{92,1255,1,1268},{94,1256,3,1268},{95,1257,3,1268},{97,1258,3,1268},{98,1259,6,1268},{99,1260,3,1268},{101,1261,1,1268},{102,1262,3,1268},{103,1263,3,1268},{104,1264,1,1268},{125,1235,1,1269},{126,1236,3,1269},{127,1237,3,1269},{128,1238,3,1269},{129,1239,6,1269},{130,1240,3,1269},{131,1241,1,1269},{132,1242,3,1269},{133,1243,3,1269},{134,1244,1,1269},{126,1245,1,1269},{128,1246,3,1269},{129,1247,3,1269},{131,1248,3,1269},{132,1249,6,1269},{133,1250,3,1269},{135,1251,1,1269},{136,1252,3,1269},{137,1253,3,1269},{138,1254,1,1269},{127,1255,1,1269},{129,1256,3,1269},{130,1257,3,1269},{132,1258,3,1269},{133,1259,6,1269},{134,1260,3,1269},{136,1261,1,1269},{137,1262,3,1269},{138,1263,3,1269},{139,1264,1,1269},{36,45,1,1270},{36,46,1,1271},{36,47,1,1272},{36,48,1,1273},{36,49,1,1274},{36,50,1,1275},{36,51,1,1276},{36,52,1,1277},{36,53,1,1278},{36,54,1,1279},{37,45,1,1280},{37,46,1,1281},{37,47,1,1282},{37,48,1,1283},{37,49,1,1284},{37,50,1,1285},{37,51,1,1286},{37,52,1,1287},{37,53,1,1288},{37,54,1,1289},{38,45,1,1290},{38,46,1,1291},{38,47,1,1292},{38,48,1,1293},{38,49,1,1294},{38,50,1,1295},{38,51,1,1296},{38,52,1,1297},{38,53,1,1298},{38,54,1,1299},{1270,1270,1,1300},{1271,1271,3,1300},{1272,1272,3,1300},{1273,1273,3,1300},{1274,1274,6,1300},{1275,1275,3,1300},{1276,1276,1,1300},{1277,1277,3,1300},{1278,1278,3,1300},{1279,1279,1,1300},{1280,1280,1,1300},{1281,1281,3,1300},{1282,1282,3,1300},{1283,1283,3,1300},{1284,1284,6,1300},{1285,1285,3,1300},{1286,1286,1,1300},{1287,1287,3,1300},{1288,1288,3,1300},{1289,1289,1,1300},{1290,1290,1,1300},{1291,1291,3,1300},{1292,1292,3,1300},{1293,1293,3,1300},{1294,1294,6,1300},{1295,1295,3,1300},{1296,1296,1,1300},{1297,1297,3,1300},{1298,1298,3,1300},{1299,1299,1,1300},{20,1270,1,1301},{21,1271,3,1301},{22,1272,3,1301},{23,1273,3,1301},{24,1274,6,1301},{25,1275,3,1301},{26,1276,1,1301},{27,1277,3,1301},{28,1278,3,1301},{29,1279,1,1301},{21,1280,1,1301},{23,1281,3,1301},{24,1282,3,1301},{26,1283,3,1301},{27,1284,6,1301},{28,1285,3,1301},{30,1286,1,1301},{31,1287,3,1301},{32,1288,3,1301},{33,1289,1,1301},{22,1290,1,1301},{24,1291,3,1301},{25,1292,3,1301},{27,1293,3,1301},{28,1294,6,1301},{29,1295,3,1301},{31,1296,1,1301},{32,1297,3,1301},{33,1298,3,1301},{34,1299,1,1301},{55,1270,1,1302},{56,1271,3,1302},{57,1272,3,1302},{58,1273,3,1302},{59,1274,6,1302},{60,1275,3,1302},{61,1276,1,1302},{62,1277,3,1302},{63,1278,3,1302},{64,1279,1,1302},{56,1280,1,1302},{58,1281,3,1302},{59,1282,3,1302},{61,1283,3,1302},{62,1284,6,1302},{63,1285,3,1302},{65,1286,1,1302},{66,1287,3,1302},{67,1288,3,1302},{68,1289,1,1302},{57,1290,1,1302},{59,1291,3,1302},{60,1292,3,1302},{62,1293,3,1302},{63,1294,6,1302},{64,1295,3,1302},{66,1296,1,1302},{67,1297,3,1302},{68,1298,3,1302},{69,1299,1,1302},{90,1270,1,1303},{91,1271,3,1303},{92,1272,3,1303},{93,1273,3,1303},{94,1274,6,1303},{95,1275,3,1303},{96,1276,1,1303},{97,1277,3,1303},{98,1278,3,1303},{99,1279,1,1303},{91,1280,1,1303},{93,1281,3,1303},{94,1282,3,1303},{96,1283,3,1303},{97,1284,6,1303},{98,1285,3,1303},{100,1286,1,1303},{101,1287,3,1303},{102,1288,3,1303},{103,1289,1,1303},{92,1290,1,1303},{94,1291,3,1303},{95,1292,3,1303},{97,1293,3,1303},{98,1294,6,1303},{99,1295,3,1303},{101,1296,1,1303},{102,1297,3,1303},{103,1298,3,1303},{104,1299,1,1303},{125,1270,1,1304},{126,1271,3,1304},{127,1272,3,1304},{128,1273,3,1304},{129,1274,6,1304},{130,1275,3,1304},{131,1276,1,1304},{132,1277,3,1304},{133,1278,3,1304},{134,1279,1,1304},{126,1280,1,1304},{128,1281,3,1304},{129,1282,3,1304},{131,1283,3,1304},{132,1284,6,1304},{133,1285,3,1304},{135,1286,1,1304},{136,1287,3,1304},{137,1288,3,1304},{138,1289,1,1304},{127,1290,1,1304},{129,1291,3,1304},{130,1292,3,1304},{132,1293,3,1304},{133,1294,6,1304},{134,1295,3,1304},{136,1296,1,1304},{137,1297,3,1304},{138,1298,3,1304},{139,1299,1,1304},{71,80,1,1305},{71,81,1,1306},{71,82,1,1307},{71,83,1,1308},{71,84,1,1309},{71,85,1,1310},{71,86,1,1311},{71,87,1,1312},{71,88,1,1313},{71,89,1,1314},{72,80,1,1315},{72,81,1,1316},{72,82,1,1317},{72,83,1,1318},{72,84,1,1319},{72,85,1,1320},{72,86,1,1321},{72,87,1,1322},{72,88,1,1323},{72,89,1,1324},{73,80,1,1325},{73,81,1,1326},{73,82,1,1327},{73,83,1,1328},{73,84,1,1329},{73,85,1,1330},{73,86,1,1331},{73,87,1,1332},{73,88,1,1333},{73,89,1,1334},{1305,1305,1,1335},{1306,1306,3,1335},{1307,1307,3,1335},{1308,1308,3,1335},{1309,1309,6,1335},{1310,1310,3,1335},{1311,1311,1,1335},{1312,1312,3,1335},{1313,1313,3,1335},{1314,1314,1,1335},{1315,1315,1,1335},{1316,1316,3,1335},{1317,1317,3,1335},{1318,1318,3,1335},{1319,1319,6,1335},{1320,1320,3,1335},{1321,1321,1,1335},{1322,1322,3,1335},{1323,1323,3,1335},{1324,1324,1,1335},{1325,1325,1,1335},{1326,1326,3,1335},{1327,1327,3,1335},{1328,1328,3,1335},{1329,1329,6,1335},{1330,1330,3,1335},{1331,1331,1,1335},{1332,1332,3,1335},{1333,1333,3,1335},{1334,1334,1,1335},{20,1305,1,1336},{21,1306,3,1336},{22,1307,3,1336},{23,1308,3,1336},{24,1309,6,1336},{25,1310,3,1336},{26,1311,1,1336},{27,1312,3,1336},{28,1313,3,1336},{29,1314,1,1336},{21,1315,1,1336},{23,1316,3,1336},{24,1317,3,1336},{26,1318,3,1336},{27,1319,6,1336},{28,1320,3,1336},{30,1321,1,1336},{31,1322,3,1336},{32,1323,3,1336},{33,1324,1,1336},{22,1325,1,1336},{24,1326,3,1336},{25,1327,3,1336},{27,1328,3,1336},{28,1329,6,1336},{29,1330,3,1336},{31,1331,1,1336},{32,1332,3,1336},{33,1333,3,1336},{34,1334,1,1336},{55,1305,1,1337},{56,1306,3,1337},{57,1307,3,1337},{58,1308,3,1337},{59,1309,6,1337},{60,1310,3,1337},{61,1311,1,1337},{62,1312,3,1337},{63,1313,3,1337},{64,1314,1,1337},{56,1315,1,1337},{58,1316,3,1337},{59,1317,3,1337},{61,1318,3,1337},{62,1319,6,1337},{63,1320,3,1337},{65,1321,1,1337},{66,1322,3,1337},{67,1323,3,1337},{68,1324,1,1337},{57,1325,1,1337},{59,1326,3,1337},{60,1327,3,1337},{62,1328,3,1337},{63,1329,6,1337},{64,1330,3,1337},{66,1331,1,1337},{67,1332,3,1337},{68,1333,3,1337},{69,1334,1,1337},{90,1305,1,1338},{91,1306,3,1338},{92,1307,3,1338},{93,1308,3,1338},{94,1309,6,1338},{95,1310,3,1338},{96,1311,1,1338},{97,1312,3,1338},{98,1313,3,1338},{99,1314,1,1338},{91,1315,1,1338},{93,1316,3,1338},{94,1317,3,1338},{96,1318,3,1338},{97,1319,6,1338},{98,1320,3,1338},{100,1321,1,1338},{101,1322,3,1338},{102,1323,3,1338},{103,1324,1,1338},{92,1325,1,1338},{94,1326,3,1338},{95,1327,3,1338},{97,1328,3,1338},{98,1329,6,1338},{99,1330,3,1338},{101,1331,1,1338},{102,1332,3,1338},{103,1333,3,1338},{104,1334,1,1338},{125,1305,1,1339},{126,1306,3,1339},{127,1307,3,1339},{128,1308,3,1339},{129,1309,6,1339},{130,1310,3,1339},{131,1311,1,1339},{132,1312,3,1339},{133,1313,3,1339},{134,1314,1,1339},{126,1315,1,1339},{128,1316,3,1339},{129,1317,3,1339},{131,1318,3,1339},{132,1319,6,1339},{133,1320,3,1339},{135,1321,1,1339},{136,1322,3,1339},{137,1323,3,1339},{138,1324,1,1339},{127,1325,1,1339},{129,1326,3,1339},{130,1327,3,1339},{132,1328,3,1339},{133,1329,6,1339},{134,1330,3,1339},{136,1331,1,1339},{137,1332,3,1339},{138,1333,3,1339},{139,1334,1,1339},{106,115,1,1340},{106,116,1,1341},{106,117,1,1342},{106,118,1,1343},{106,119,1,1344},{106,120,1,1345},{106,121,1,1346},{106,122,1,1347},{106,123,1,1348},{106,124,1,1349},{107,115,1,1350},{107,116,1,1351},{107,117,1,1352},{107,118,1,1353},{107,119,1,1354},{107,120,1,1355},{107,121,1,1356},{107,122,1,1357},{107,123,1,1358},{107,124,1,1359},{108,115,1,1360},{108,116,1,1361},{108,117,1,1362},{108,118,1,1363},{108,119,1,1364},{108,120,1,1365},{108,121,1,1366},{108,122,1,1367},{108,123,1,1368},{108,124,1,1369},{1340,1340,1,1370},{1341,1341,3,1370},{1342,1342,3,1370},{1343,1343,3,1370},{1344,1344,6,1370},{1345,1345,3,1370},{1346,1346,1,1370},{1347,1347,3,1370},{1348,1348,3,1370},{1349,1349,1,1370},{1350,1350,1,1370},{1351,1351,3,1370},{1352,1352,3,1370},{1353,1353,3,1370},{1354,1354,6,1370},{1355,1355,3,1370},{1356,1356,1,1370},{1357,1357,3,1370},{1358,1358,3,1370},{1359,1359,1,1370},{1360,1360,1,1370},{1361,1361,3,1370},{1362,1362,3,1370},{1363,1363,3,1370},{1364,1364,6,1370},{1365,1365,3,1370},{1366,1366,1,1370},{1367,1367,3,1370},{1368,1368,3,1370},{1369,1369,1,1370},{20,1340,1,1371},{21,1341,3,1371},{22,1342,3,1371},{23,1343,3,1371},{24,1344,6,1371},{25,1345,3,1371},{26,1346,1,1371},{27,1347,3,1371},{28,1348,3,1371},{29,1349,1,1371},{21,1350,1,1371},{23,1351,3,1371},{24,1352,3,1371},{26,1353,3,1371},{27,1354,6,1371},{28,1355,3,1371},{30,1356,1,1371},{31,1357,3,1371},{32,1358,3,1371},{33,1359,1,1371},{22,1360,1,1371},{24,1361,3,1371},{25,1362,3,1371},{27,1363,3,1371},{28,1364,6,1371},{29,1365,3,1371},{31,1366,1,1371},{32,1367,3,1371},{33,1368,3,1371},{34,1369,1,1371},{55,1340,1,1372},{56,1341,3,1372},{57,1342,3,1372},{58,1343,3,1372},{59,1344,6,1372},{60,1345,3,1372},{61,1346,1,1372},{62,1347,3,1372},{63,1348,3,1372},{64,1349,1,1372},{56,1350,1,1372},{58,1351,3,1372},{59,1352,3,1372},{61,1353,3,1372},{62,1354,6,1372},{63,1355,3,1372},{65,1356,1,1372},{66,1357,3,1372},{67,1358,3,1372},{68,1359,1,1372},{57,1360,1,1372},{59,1361,3,1372},{60,1362,3,1372},{62,1363,3,1372},{63,1364,6,1372},{64,1365,3,1372},{66,1366,1,1372},{67,1367,3,1372},{68,1368,3,1372},{69,1369,1,1372},{90,1340,1,1373},{91,1341,3,1373},{92,1342,3,1373},{93,1343,3,1373},{94,1344,6,1373},{95,1345,3,1373},{96,1346,1,1373},{97,1347,3,1373},{98,1348,3,1373},{99,1349,1,1373},{91,1350,1,1373},{93,1351,3,1373},{94,1352,3,1373},{96,1353,3,1373},{97,1354,6,1373},{98,1355,3,1373},{100,1356,1,1373},{101,1357,3,1373},{102,1358,3,1373},{103,1359,1,1373},{92,1360,1,1373},{94,1361,3,1373},{95,1362,3,1373},{97,1363,3,1373},{98,1364,6,1373},{99,1365,3,1373},{101,1366,1,1373},{102,1367,3,1373},{103,1368,3,1373},{104,1369,1,1373},{125,1340,1,1374},{126,1341,3,1374},{127,1342,3,1374},{128,1343,3,1374},{129,1344,6,1374},{130,1345,3,1374},{131,1346,1,1374},{132,1347,3,1374},{133,1348,3,1374},{134,1349,1,1374},{126,1350,1,1374},{128,1351,3,1374},{129,1352,3,1374},{131,1353,3,1374},{132,1354,6,1374},{133,1355,3,1374},{135,1356,1,1374},{136,1357,3,1374},{137,1358,3,1374},{138,1359,1,1374},{127,1360,1,1374},{129,1361,3,1374},{130,1362,3,1374},{132,1363,3,1374},{133,1364,6,1374},{134,1365,3,1374},{136,1366,1,1374},{137,1367,3,1374},{138,1368,3,1374},{139,1369,1,1374},{10,10,1,1375},{11,11,1,1375},{12,12,1,1375},{10,11,1,1376},{11,13,1,1376},{12,14,1,1376},{10,12,1,1377},{11,14,1,1377},{12,15,1,1377},{10,13,1,1378},{11,16,1,1378},{12,17,1,1378},{10,14,1,1379},{11,17,1,1379},{12,18,1,1379},{10,15,1,1380},{11,18,1,1380},{12,19,1,1380},{11,11,1,1381},{13,13,1,1381},{14,14,1,1381},{11,12,1,1382},{13,14,1,1382},{14,15,1,1382},{11,13,1,1383},{13,16,1,1383},{14,17,1,1383},{11,14,1,1384},{13,17,1,1384},{14,18,1,1384},{11,15,1,1385},{13,18,1,1385},{14,19,1,1385},{12,12,1,1386},{14,14,1,1386},{15,15,1,1386},{12,13,1,1387},{14,16,1,1387},{15,17,1,1387},{12,14,1,1388},{14,17,1,1388},{15,18,1,1388},{12,15,1,1389},{14,18,1,1389},{15,19,1,1389},{13,13,1,1390},{16,16,1,1390},{17,17,1,1390},{13,14,1,1391},{16,17,1,1391},{17,18,1,1391},{13,15,1,1392},{16,18,1,1392},{17,19,1,1392},{14,14,1,1393},{17,17,1,1393},{18,18,1,1393},{14,15,1,1394},{17,18,1,1394},{18,19,1,1394},{15,15,1,1395},{18,18,1,1395},{19,19,1,1395},{1375,1375,1,1396},{1376,1376,4,1396},{1377,1377,4,1396},{1378,1378,2,1396},{1379,1379,4,1396},{1380,1380,2,1396},{1381,1381,4,1396},{1382,1382,8,1396},{1383,1383,4,1396},{1384,1384,8,1396},{1385,1385,4,1396},{1386,1386,4,1396},{1387,1387,4,1396},{1388,1388,8,1396},{1389,1389,4,1396},{1390,1390,1,1396},{1391,1391,4,1396},{1392,1392,2,1396},{1393,1393,4,1396},{1394,1394,4,1396},{1395,1395,1,1396},{20,1375,1,1397},{21,1376,4,1397},{22,1377,4,1397},{23,1378,2,1397},{24,1379,4,1397},{25,1380,2,1397},{23,1381,4,1397},{24,1382,8,1397},{26,1383,4,1397},{27,1384,8,1397},{28,1385,4,1397},{25,1386,4,1397},{27,1387,4,1397},{28,1388,8,1397},{29,1389,4,1397},{30,1390,1,1397},{31,1391,4,1397},{32,1392,2,1397},{32,1393,4,1397},{33,1394,4,1397},{34,1395,1,1397},{55,1375,1,1398},{56,1376,4,1398},{57,1377,4,1398},{58,1378,2,1398},{59,1379,4,1398},{60,1380,2,1398},{58,1381,4,1398},{59,1382,8,1398},{61,1383,4,1398},{62,1384,8,1398},{63,1385,4,1398},{60,1386,4,1398},{62,1387,4,1398},{63,1388,8,1398},{64,1389,4,1398},{65,1390,1,1398},{66,1391,4,1398},{67,1392,2,1398},{67,1393,4,1398},{68,1394,4,1398},{69,1395,1,1398},{90,1375,1,1399},{91,1376,4,1399},{92,1377,4,1399},{93,1378,2,1399},{94,1379,4,1399},{95,1380,2,1399},{93,1381,4,1399},{94,1382,8,1399},{96,1383,4,1399},{97,1384,8,1399},{98,1385,4,1399},{95,1386,4,1399},{97,1387,4,1399},{98,1388,8,1399},{99,1389,4,1399},{100,1390,1,1399},{101,1391,4,1399},{102,1392,2,1399},{102,1393,4,1399},{103,1394,4,1399},{104,1395,1,1399},{125,1375,1,1400},{126,1376,4,1400},{127,1377,4,1400},{128,1378,2,1400},{129,1379,4,1400},{130,1380,2,1400},{128,1381,4,1400},{129,1382,8,1400},{131,1383,4,1400},{132,1384,8,1400},{133,1385,4,1400},{130,1386,4,1400},{132,1387,4,1400},{133,1388,8,1400},{134,1389,4,1400},{135,1390,1,1400},{136,1391,4,1400},{137,1392,2,1400},{137,1393,4,1400},{138,1394,4,1400},{139,1395,1,1400},{45,45,1,1401},{46,46,1,1401},{47,47,1,1401},{45,46,1,1402},{46,48,1,1402},{47,49,1,1402},{45,47,1,1403},{46,49,1,1403},{47,50,1,1403},{45,48,1,1404},{46,51,1,1404},{47,52,1,1404},{45,49,1,1405},{46,52,1,1405},{47,53,1,1405},{45,50,1,1406},{46,53,1,1406},{47,54,1,1406},{46,46,1,1407},{48,48,1,1407},{49,49,1,1407},{46,47,1,1408},{48,49,1,1408},{49,50,1,1408},{46,48,1,1409},{48,51,1,1409},{49,52,1,1409},{46,49,1,1410},{48,52,1,1410},{49,53,1,1410},{46,50,1,1411},{48,53,1,1411},{49,54,1,1411},{47,47,1,1412},{49,49,1,1412},{50,50,1,1412},{47,48,1,1413},{49,51,1,1413},{50,52,1,1413},{47,49,1,1414},{49,52,1,1414},{50,53,1,1414},{47,50,1,1415},{49,53,1,1415},{50,54,1,1415},{48,48,1,1416},{51,51,1,1416},{52,52,1,1416},{48,49,1,1417},{51,52,1,1417},{52,53,1,1417},{48,50,1,1418},{51,53,1,1418},{52,54,1,1418},{49,49,1,1419},{52,52,1,1419},{53,53,1,1419},{49,50,1,1420},{52,53,1,1420},{53,54,1,1420},{50,50,1,1421},{53,53,1,1421},{54,54,1,1421},{1401,1401,1,1422},{1402,1402,4,1422},{1403,1403,4,1422},{1404,1404,2,1422},{1405,1405,4,1422},{1406,1406,2,1422},{1407,1407,4,1422},{1408,1408,8,1422},{1409,1409,4,1422},{1410,1410,8,1422},{1411,1411,4,1422},{1412,1412,4,1422},{1413,1413,4,1422},{1414,1414,8,1422},{1415,1415,4,1422},{1416,1416,1,1422},{1417,1417,4,1422},{1418,1418,2,1422},{1419,1419,4,1422},{1420,1420,4,1422},{1421,1421,1,1422},{20,1401,1,1423},{21,1402,4,1423},{22,1403,4,1423},{23,1404,2,1423},{24,1405,4,1423},{25,1406,2,1423},{23,1407,4,1423},{24,1408,8,1423},{26,1409,4,1423},{27,1410,8,1423},{28,1411,4,1423},{25,1412,4,1423},{27,1413,4,1423},{28,1414,8,1423},{29,1415,4,1423},{30,1416,1,1423},{31,1417,4,1423},{32,1418,2,1423},{32,1419,4,1423},{33,1420,4,1423},{34,1421,1,1423},{55,1401,1,1424},{56,1402,4,1424},{57,1403,4,1424},{58,1404,2,1424},{59,1405,4,1424},{60,1406,2,1424},{58,1407,4,1424},{59,1408,8,1424},{61,1409,4,1424},{62,1410,8,1424},{63,1411,4,1424},{60,1412,4,1424},{62,1413,4,1424},{63,1414,8,1424},{64,1415,4,1424},{65,1416,1,1424},{66,1417,4,1424},{67,1418,2,1424},{67,1419,4,1424},{68,1420,4,1424},{69,1421,1,1424},{90,1401,1,1425},{91,1402,4,1425},{92,1403,4,1425},{93,1404,2,1425},{94,1405,4,1425},{95,1406,2,1425},{93,1407,4,1425},{94,1408,8,1425},{96,1409,4,1425},{97,1410,8,1425},{98,1411,4,1425},{95,1412,4,1425},{97,1413,4,1425},{98,1414,8,1425},{99,1415,4,1425},{100,1416,1,1425},{101,1417,4,1425},{102,1418,2,1425},{102,1419,4,1425},{103,1420,4,1425},{104,1421,1,1425},{125,1401,1,1426},{126,1402,4,1426},{127,1403,4,1426},{128,1404,2,1426},{129,1405,4,1426},{130,1406,2,1426},{128,1407,4,1426},{129,1408,8,1426},{131,1409,4,1426},{132,1410,8,1426},{133,1411,4,1426},{130,1412,4,1426},{132,1413,4,1426},{133,1414,8,1426},{134,1415,4,1426},{135,1416,1,1426},{136,1417,4,1426},{137,1418,2,1426},{137,1419,4,1426},{138,1420,4,1426},{139,1421,1,1426},{80,80,1,1427},{81,81,1,1427},{82,82,1,1427},{80,81,1,1428},{81,83,1,1428},{82,84,1,1428},{80,82,1,1429},{81,84,1,1429},{82,85,1,1429},{80,83,1,1430},{81,86,1,1430},{82,87,1,1430},{80,84,1,1431},{81,87,1,1431},{82,88,1,1431},{80,85,1,1432},{81,88,1,1432},{82,89,1,1432},{81,81,1,1433},{83,83,1,1433},{84,84,1,1433},{81,82,1,1434},{83,84,1,1434},{84,85,1,1434},{81,83,1,1435},{83,86,1,1435},{84,87,1,1435},{81,84,1,1436},{83,87,1,1436},{84,88,1,1436},{81,85,1,1437},{83,88,1,1437},{84,89,1,1437},{82,82,1,1438},{84,84,1,1438},{85,85,1,1438},{82,83,1,1439},{84,86,1,1439},{85,87,1,1439},{82,84,1,1440},{84,87,1,1440},{85,88,1,1440},{82,85,1,1441},{84,88,1,1441},{85,89,1,1441},{83,83,1,1442},{86,86,1,1442},{87,87,1,1442},{83,84,1,1443},{86,87,1,1443},{87,88,1,1443},{83,85,1,1444},{86,88,1,1444},{87,89,1,1444},{84,84,1,1445},{87,87,1,1445},{88,88,1,1445},{84,85,1,1446},{87,88,1,1446},{88,89,1,1446},{85,85,1,1447},{88,88,1,1447},{89,89,1,1447},{1427,1427,1,1448},{1428,1428,4,1448},{1429,1429,4,1448},{1430,1430,2,1448},{1431,1431,4,1448},{1432,1432,2,1448},{1433,1433,4,1448},{1434,1434,8,1448},{1435,1435,4,1448},{1436,1436,8,1448},{1437,1437,4,1448},{1438,1438,4,1448},{1439,1439,4,1448},{1440,1440,8,1448},{1441,1441,4,1448},{1442,1442,1,1448},{1443,1443,4,1448},{1444,1444,2,1448},{1445,1445,4,1448},{1446,1446,4,1448},{1447,1447,1,1448},{20,1427,1,1449},{21,1428,4,1449},{22,1429,4,1449},{23,1430,2,1449},{24,1431,4,1449},{25,1432,2,1449},{23,1433,4,1449},{24,1434,8,1449},{26,1435,4,1449},{27,1436,8,1449},{28,1437,4,1449},{25,1438,4,1449},{27,1439,4,1449},{28,1440,8,1449},{29,1441,4,1449},{30,1442,1,1449},{31,1443,4,1449},{32,1444,2,1449},{32,1445,4,1449},{33,1446,4,1449},{34,1447,1,1449},{55,1427,1,1450},{56,1428,4,1450},{57,1429,4,1450},{58,1430,2,1450},{59,1431,4,1450},{60,1432,2,1450},{58,1433,4,1450},{59,1434,8,1450},{61,1435,4,1450},{62,1436,8,1450},{63,1437,4,1450},{60,1438,4,1450},{62,1439,4,1450},{63,1440,8,1450},{64,1441,4,1450},{65,1442,1,1450},{66,1443,4,1450},{67,1444,2,1450},{67,1445,4,1450},{68,1446,4,1450},{69,1447,1,1450},{90,1427,1,1451},{91,1428,4,1451},{92,1429,4,1451},{93,1430,2,1451},{94,1431,4,1451},{95,1432,2,1451},{93,1433,4,1451},{94,1434,8,1451},{96,1435,4,1451},{97,1436,8,1451},{98,1437,4,1451},{95,1438,4,1451},{97,1439,4,1451},{98,1440,8,1451},{99,1441,4,1451},{100,1442,1,1451},{101,1443,4,1451},{102,1444,2,1451},{102,1445,4,1451},{103,1446,4,1451},{104,1447,1,1451},{125,1427,1,1452},{126,1428,4,1452},{127,1429,4,1452},{128,1430,2,1452},{129,1431,4,1452},{130,1432,2,1452},{128,1433,4,1452},{129,1434,8,1452},{131,1435,4,1452},{132,1436,8,1452},{133,1437,4,1452},{130,1438,4,1452},{132,1439,4,1452},{133,1440,8,1452},{134,1441,4,1452},{135,1442,1,1452},{136,1443,4,1452},{137,1444,2,1452},{137,1445,4,1452},{138,1446,4,1452},{139,1447,1,1452},{115,115,1,1453},{116,116,1,1453},{117,117,1,1453},{115,116,1,1454},{116,118,1,1454},{117,119,1,1454},{115,117,1,1455},{116,119,1,1455},{117,120,1,1455},{115,118,1,1456},{116,121,1,1456},{117,122,1,1456},{115,119,1,1457},{116,122,1,1457},{117,123,1,1457},{115,120,1,1458},{116,123,1,1458},{117,124,1,1458},{116,116,1,1459},{118,118,1,1459},{119,119,1,1459},{116,117,1,1460},{118,119,1,1460},{119,120,1,1460},{116,118,1,1461},{118,121,1,1461},{119,122,1,1461},{116,119,1,1462},{118,122,1,1462},{119,123,1,1462},{116,120,1,1463},{118,123,1,1463},{119,124,1,1463},{117,117,1,1464},{119,119,1,1464},{120,120,1,1464},{117,118,1,1465},{119,121,1,1465},{120,122,1,1465},{117,119,1,1466},{119,122,1,1466},{120,123,1,1466},{117,120,1,1467},{119,123,1,1467},{120,124,1,1467},{118,118,1,1468},{121,121,1,1468},{122,122,1,1468},{118,119,1,1469},{121,122,1,1469},{122,123,1,1469},{118,120,1,1470},{121,123,1,1470},{122,124,1,1470},{119,119,1,1471},{122,122,1,1471},{123,123,1,1471},{119,120,1,1472},{122,123,1,1472},{123,124,1,1472},{120,120,1,1473},{123,123,1,1473},{124,124,1,1473},{1453,1453,1,1474},{1454,1454,4,1474},{1455,1455,4,1474},{1456,1456,2,1474},{1457,1457,4,1474},{1458,1458,2,1474},{1459,1459,4,1474},{1460,1460,8,1474},{1461,1461,4,1474},{1462,1462,8,1474},{1463,1463,4,1474},{1464,1464,4,1474},{1465,1465,4,1474},{1466,1466,8,1474},{1467,1467,4,1474},{1468,1468,1,1474},{1469,1469,4,1474},{1470,1470,2,1474},{1471,1471,4,1474},{1472,1472,4,1474},{1473,1473,1,1474},{20,1453,1,1475},{21,1454,4,1475},{22,1455,4,1475},{23,1456,2,1475},{24,1457,4,1475},{25,1458,2,1475},{23,1459,4,1475},{24,1460,8,1475},{26,1461,4,1475},{27,1462,8,1475},{28,1463,4,1475},{25,1464,4,1475},{27,1465,4,1475},{28,1466,8,1475},{29,1467,4,1475},{30,1468,1,1475},{31,1469,4,1475},{32,1470,2,1475},{32,1471,4,1475},{33,1472,4,1475},{34,1473,1,1475},{55,1453,1,1476},{56,1454,4,1476},{57,1455,4,1476},{58,1456,2,1476},{59,1457,4,1476},{60,1458,2,1476},{58,1459,4,1476},{59,1460,8,1476},{61,1461,4,1476},{62,1462,8,1476},{63,1463,4,1476},{60,1464,4,1476},{62,1465,4,1476},{63,1466,8,1476},{64,1467,4,1476},{65,1468,1,1476},{66,1469,4,1476},{67,1470,2,1476},{67,1471,4,1476},{68,1472,4,1476},{69,1473,1,1476},{90,1453,1,1477},{91,1454,4,1477},{92,1455,4,1477},{93,1456,2,1477},{94,1457,4,1477},{95,1458,2,1477},{93,1459,4,1477},{94,1460,8,1477},{96,1461,4,1477},{97,1462,8,1477},{98,1463,4,1477},{95,1464,4,1477},{97,1465,4,1477},{98,1466,8,1477},{99,1467,4,1477},{100,1468,1,1477},{101,1469,4,1477},{102,1470,2,1477},{102,1471,4,1477},{103,1472,4,1477},{104,1473,1,1477},{125,1453,1,1478},{126,1454,4,1478},{127,1455,4,1478},{128,1456,2,1478},{129,1457,4,1478},{130,1458,2,1478},{128,1459,4,1478},{129,1460,8,1478},{131,1461,4,1478},{132,1462,8,1478},{133,1463,4,1478},{130,1464,4,1478},{132,1465,4,1478},{133,1466,8,1478},{134,1467,4,1478},{135,1468,1,1478},{136,1469,4,1478},{137,1470,2,1478},{137,1471,4,1478},{138,1472,4,1478},{139,1473,1,1478},{20,20,1,1479},{21,21,2,1479},{22,22,2,1479},{23,23,1,1479},{24,24,2,1479},{25,25,1,1479},{20,21,1,1480},{21,23,2,1480},{22,24,2,1480},{23,26,1,1480},{24,27,2,1480},{25,28,1,1480},{20,22,1,1481},{21,24,2,1481},{22,25,2,1481},{23,27,1,1481},{24,28,2,1481},{25,29,1,1481},{20,23,1,1482},{21,26,2,1482},{22,27,2,1482},{23,30,1,1482},{24,31,2,1482},{25,32,1,1482},{20,24,1,1483},{21,27,2,1483},{22,28,2,1483},{23,31,1,1483},{24,32,2,1483},{25,33,1,1483},{20,25,1,1484},{21,28,2,1484},{22,29,2,1484},{23,32,1,1484},{24,33,2,1484},{25,34,1,1484},{21,21,1,1485},{23,23,2,1485},{24,24,2,1485},{26,26,1,1485},{27,27,2,1485},{28,28,1,1485},{21,22,1,1486},{23,24,2,1486},{24,25,2,1486},{26,27,1,1486},{27,28,2,1486},{28,29,1,1486},{21,23,1,1487},{23,26,2,1487},{24,27,2,1487},{26,30,1,1487},{27,31,2,1487},{28,32,1,1487},{21,24,1,1488},{23,27,2,1488},{24,28,2,1488},{26,31,1,1488},{27,32,2,1488},{28,33,1,1488},{21,25,1,1489},{23,28,2,1489},{24,29,2,1489},{26,32,1,1489},{27,33,2,1489},{28,34,1,1489},{22,22,1,1490},{24,24,2,1490},{25,25,2,1490},{27,27,1,1490},{28,28,2,1490},{29,29,1,1490},{22,23,1,1491},{24,26,2,1491},{25,27,2,1491},{27,30,1,1491},{28,31,2,1491},{29,32,1,1491},{22,24,1,1492},{24,27,2,1492},{25,28,2,1492},{27,31,1,1492},{28,32,2,1492},{29,33,1,1492},{22,25,1,1493},{24,28,2,1493},{25,29,2,1493},{27,32,1,1493},{28,33,2,1493},{29,34,1,1493},{23,23,1,1494},{26,26,2,1494},{27,27,2,1494},{30,30,1,1494},{31,31,2,1494},{32,32,1,1494},{23,24,1,1495},{26,27,2,1495},{27,28,2,1495},{30,31,1,1495},{31,32,2,1495},{32,33,1,1495},{23,25,1,1496},{26,28,2,1496},{27,29,2,1496},{30,32,1,1496},{31,33,2,1496},{32,34,1,1496},{24,24,1,1497},{27,27,2,1497},{28,28,2,1497},{31,31,1,1497},{32,32,2,1497},{33,33,1,1497},{24,25,1,1498},{27,28,2,1498},{28,29,2,1498},{31,32,1,1498},{32,33,2,1498},{33,34,1,1498},{25,25,1,1499},{28,28,2,1499},{29,29,2,1499},{32,32,1,1499},{33,33,2,1499},{34,34,1,1499},{1479,1479,1,1500},{1480,1480,4,1500},{1481,1481,4,1500},{1482,1482,2,1500},{1483,1483,4,1500},{1484,1484,2,1500},{1485,1485,4,1500},{1486,1486,8,1500},{1487,1487,4,1500},{1488,1488,8,1500},{1489,1489,4,1500},{1490,1490,4,1500},{1491,1491,4,1500},{1492,1492,8,1500},{1493,1493,4,1500},{1494,1494,1,1500},{1495,1495,4,1500},{1496,1496,2,1500},{1497,1497,4,1500},{1498,1498,4,1500},{1499,1499,1,1500},{20,1479,1,1501},{21,1480,4,1501},{22,1481,4,1501},{23,1482,2,1501},{24,1483,4,1501},{25,1484,2,1501},{23,1485,4,1501},{24,1486,8,1501},{26,1487,4,1501},{27,1488,8,1501},{28,1489,4,1501},{25,1490,4,1501},{27,1491,4,1501},{28,1492,8,1501},{29,1493,4,1501},{30,1494,1,1501},{31,1495,4,1501},{32,1496,2,1501},{32,1497,4,1501},{33,1498,4,1501},{34,1499,1,1501},{55,1479,1,1502},{56,1480,4,1502},{57,1481,4,1502},{58,1482,2,1502},{59,1483,4,1502},{60,1484,2,1502},{58,1485,4,1502},{59,1486,8,1502},{61,1487,4,1502},{62,1488,8,1502},{63,1489,4,1502},{60,1490,4,1502},{62,1491,4,1502},{63,1492,8,1502},{64,1493,4,1502},{65,1494,1,1502},{66,1495,4,1502},{67,1496,2,1502},{67,1497,4,1502},{68,1498,4,1502},{69,1499,1,1502},{90,1479,1,1503},{91,1480,4,1503},{92,1481,4,1503},{93,1482,2,1503},{94,1483,4,1503},{95,1484,2,1503},{93,1485,4,1503},{94,1486,8,1503},{96,1487,4,1503},{97,1488,8,1503},{98,1489,4,1503},{95,1490,4,1503},{97,1491,4,1503},{98,1492,8,1503},{99,1493,4,1503},{100,1494,1,1503},{101,1495,4,1503},{102,1496,2,1503},{102,1497,4,1503},{103,1498,4,1503},{104,1499,1,1503},{125,1479,1,1504},{126,1480,4,1504},{127,1481,4,1504},{128,1482,2,1504},{129,1483,4,1504},{130,1484,2,1504},{128,1485,4,1504},{129,1486,8,1504},{131,1487,4,1504},{132,1488,8,1504},{133,1489,4,1504},{130,1490,4,1504},{132,1491,4,1504},{133,1492,8,1504},{134,1493,4,1504},{135,1494,1,1504},{136,1495,4,1504},{137,1496,2,1504},{137,1497,4,1504},{138,1498,4,1504},{139,1499,1,1504},{55,55,1,1505},{56,56,2,1505},{57,57,2,1505},{58,58,1,1505},{59,59,2,1505},{60,60,1,1505},{55,56,1,1506},{56,58,2,1506},{57,59,2,1506},{58,61,1,1506},{59,62,2,1506},{60,63,1,1506},{55,57,1,1507},{56,59,2,1507},{57,60,2,1507},{58,62,1,1507},{59,63,2,1507},{60,64,1,1507},{55,58,1,1508},{56,61,2,1508},{57,62,2,1508},{58,65,1,1508},{59,66,2,1508},{60,67,1,1508},{55,59,1,1509},{56,62,2,1509},{57,63,2,1509},{58,66,1,1509},{59,67,2,1509},{60,68,1,1509},{55,60,1,1510},{56,63,2,1510},{57,64,2,1510},{58,67,1,1510},{59,68,2,1510},{60,69,1,1510},{56,56,1,1511},{58,58,2,1511},{59,59,2,1511},{61,61,1,1511},{62,62,2,1511},{63,63,1,1511},{56,57,1,1512},{58,59,2,1512},{59,60,2,1512},{61,62,1,1512},{62,63,2,1512},{63,64,1,1512},{56,58,1,1513},{58,61,2,1513},{59,62,2,1513},{61,65,1,1513},{62,66,2,1513},{63,67,1,1513},{56,59,1,1514},{58,62,2,1514},{59,63,2,1514},{61,66,1,1514},{62,67,2,1514},{63,68,1,1514},{56,60,1,1515},{58,63,2,1515},{59,64,2,1515},{61,67,1,1515},{62,68,2,1515},{63,69,1,1515},{57,57,1,1516},{59,59,2,1516},{60,60,2,1516},{62,62,1,1516},{63,63,2,1516},{64,64,1,1516},{57,58,1,1517},{59,61,2,1517},{60,62,2,1517},{62,65,1,1517},{63,66,2,1517},{64,67,1,1517},{57,59,1,1518},{59,62,2,1518},{60,63,2,1518},{62,66,1,1518},{63,67,2,1518},{64,68,1,1518},{57,60,1,1519},{59,63,2,1519},{60,64,2,1519},{62,67,1,1519},{63,68,2,1519},{64,69,1,1519},{58,58,1,1520},{61,61,2,1520},{62,62,2,1520},{65,65,1,1520},{66,66,2,1520},{67,67,1,1520},{58,59,1,1521},{61,62,2,1521},{62,63,2,1521},{65,66,1,1521},{66,67,2,1521},{67,68,1,1521},{58,60,1,1522},{61,63,2,1522},{62,64,2,1522},{65,67,1,1522},{66,68,2,1522},{67,69,1,1522},{59,59,1,1523},{62,62,2,1523},{63,63,2,1523},{66,66,1,1523},{67,67,2,1523},{68,68,1,1523},{59,60,1,1524},{62,63,2,1524},{63,64,2,1524},{66,67,1,1524},{67,68,2,1524},{68,69,1,1524},{60,60,1,1525},{63,63,2,1525},{64,64,2,1525},{67,67,1,1525},{68,68,2,1525},{69,69,1,1525},{1505,1505,1,1526},{1506,1506,4,1526},{1507,1507,4,1526},{1508,1508,2,1526},{1509,1509,4,1526},{1510,1510,2,1526},{1511,1511,4,1526},{1512,1512,8,1526},{1513,1513,4,1526},{1514,1514,8,1526},{1515,1515,4,1526},{1516,1516,4,1526},{1517,1517,4,1526},{1518,1518,8,1526},{1519,1519,4,1526},{1520,1520,1,1526},{1521,1521,4,1526},{1522,1522,2,1526},{1523,1523,4,1526},{1524,1524,4,1526},{1525,1525,1,1526},{20,1505,1,1527},{21,1506,4,1527},{22,1507,4,1527},{23,1508,2,1527},{24,1509,4,1527},{25,1510,2,1527},{23,1511,4,1527},{24,1512,8,1527},{26,1513,4,1527},{27,1514,8,1527},{28,1515,4,1527},{25,1516,4,1527},{27,1517,4,1527},{28,1518,8,1527},{29,1519,4,1527},{30,1520,1,1527},{31,1521,4,1527},{32,1522,2,1527},{32,1523,4,1527},{33,1524,4,1527},{34,1525,1,1527},{55,1505,1,1528},{56,1506,4,1528},{57,1507,4,1528},{58,1508,2,1528},{59,1509,4,1528},{60,1510,2,1528},{58,1511,4,1528},{59,1512,8,1528},{61,1513,4,1528},{62,1514,8,1528},{63,1515,4,1528},{60,1516,4,1528},{62,1517,4,1528},{63,1518,8,1528},{64,1519,4,1528},{65,1520,1,1528},{66,1521,4,1528},{67,1522,2,1528},{67,1523,4,1528},{68,1524,4,1528},{69,1525,1,1528},{90,1505,1,1529},{91,1506,4,1529},{92,1507,4,1529},{93,1508,2,1529},{94,1509,4,1529},{95,1510,2,1529},{93,1511,4,1529},{94,1512,8,1529},{96,1513,4,1529},{97,1514,8,1529},{98,1515,4,1529},{95,1516,4,1529},{97,1517,4,1529},{98,1518,8,1529},{99,1519,4,1529},{100,1520,1,1529},{101,1521,4,1529},{102,1522,2,1529},{102,1523,4,1529},{103,1524,4,1529},{104,1525,1,1529},{125,1505,1,1530},{126,1506,4,1530},{127,1507,4,1530},{128,1508,2,1530},{129,1509,4,1530},{130,1510,2,1530},{128,1511,4,1530},{129,1512,8,1530},{131,1513,4,1530},{132,1514,8,1530},{133,1515,4,1530},{130,1516,4,1530},{132,1517,4,1530},{133,1518,8,1530},{134,1519,4,1530},{135,1520,1,1530},{136,1521,4,1530},{137,1522,2,1530},{137,1523,4,1530},{138,1524,4,1530},{139,1525,1,1530},{90,90,1,1531},{91,91,2,1531},{92,92,2,1531},{93,93,1,1531},{94,94,2,1531},{95,95,1,1531},{90,91,1,1532},{91,93,2,1532},{92,94,2,1532},{93,96,1,1532},{94,97,2,1532},{95,98,1,1532},{90,92,1,1533},{91,94,2,1533},{92,95,2,1533},{93,97,1,1533},{94,98,2,1533},{95,99,1,1533},{90,93,1,1534},{91,96,2,1534},{92,97,2,1534},{93,100,1,1534},{94,101,2,1534},{95,102,1,1534},{90,94,1,1535},{91,97,2,1535},{92,98,2,1535},{93,101,1,1535},{94,102,2,1535},{95,103,1,1535},{90,95,1,1536},{91,98,2,1536},{92,99,2,1536},{93,102,1,1536},{94,103,2,1536},{95,104,1,1536},{91,91,1,1537},{93,93,2,1537},{94,94,2,1537},{96,96,1,1537},{97,97,2,1537},{98,98,1,1537},{91,92,1,1538},{93,94,2,1538},{94,95,2,1538},{96,97,1,1538},{97,98,2,1538},{98,99,1,1538},{91,93,1,1539},{93,96,2,1539},{94,97,2,1539},{96,100,1,1539},{97,101,2,1539},{98,102,1,1539},{91,94,1,1540},{93,97,2,1540},{94,98,2,1540},{96,101,1,1540},{97,102,2,1540},{98,103,1,1540},{91,95,1,1541},{93,98,2,1541},{94,99,2,1541},{96,102,1,1541},{97,103,2,1541},{98,104,1,1541},{92,92,1,1542},{94,94,2,1542},{95,95,2,1542},{97,97,1,1542},{98,98,2,1542},{99,99,1,1542},{92,93,1,1543},{94,96,2,1543},{95,97,2,1543},{97,100,1,1543},{98,101,2,1543},{99,102,1,1543},{92,94,1,1544},{94,97,2,1544},{95,98,2,1544},{97,101,1,1544},{98,102,2,1544},{99,103,1,1544},{92,95,1,1545},{94,98,2,1545},{95,99,2,1545},{97,102,1,1545},{98,103,2,1545},{99,104,1,1545},{93,93,1,1546},{96,96,2,1546},{97,97,2,1546},{100,100,1,1546},{101,101,2,1546},{102,102,1,1546},{93,94,1,1547},{96,97,2,1547},{97,98,2,1547},{100,101,1,1547},{101,102,2,1547},{102,103,1,1547},{93,95,1,1548},{96,98,2,1548},{97,99,2,1548},{100,102,1,1548},{101,103,2,1548},{102,104,1,1548},{94,94,1,1549},{97,97,2,1549},{98,98,2,1549},{101,101,1,1549},{102,102,2,1549},{103,103,1,1549},{94,95,1,1550},{97,98,2,1550},{98,99,2,1550},{101,102,1,1550},{102,103,2,1550},{103,104,1,1550},{95,95,1,1551},{98,98,2,1551},{99,99,2,1551},{102,102,1,1551},{103,103,2,1551},{104,104,1,1551},{1531,1531,1,1552},{1532,1532,4,1552},{1533,1533,4,1552},{1534,1534,2,1552},{1535,1535,4,1552},{1536,1536,2,1552},{1537,1537,4,1552},{1538,1538,8,1552},{1539,1539,4,1552},{1540,1540,8,1552},{1541,1541,4,1552},{1542,1542,4,1552},{1543,1543,4,1552},{1544,1544,8,1552},{1545,1545,4,1552},{1546,1546,1,1552},{1547,1547,4,1552},{1548,1548,2,1552},{1549,1549,4,1552},{1550,1550,4,1552},{1551,1551,1,1552},{20,1531,1,1553},{21,1532,4,1553},{22,1533,4,1553},{23,1534,2,1553},{24,1535,4,1553},{25,1536,2,1553},{23,1537,4,1553},{24,1538,8,1553},{26,1539,4,1553},{27,1540,8,1553},{28,1541,4,1553},{25,1542,4,1553},{27,1543,4,1553},{28,1544,8,1553},{29,1545,4,1553},{30,1546,1,1553},{31,1547,4,1553},{32,1548,2,1553},{32,1549,4,1553},{33,1550,4,1553},{34,1551,1,1553},{55,1531,1,1554},{56,1532,4,1554},{57,1533,4,1554},{58,1534,2,1554},{59,1535,4,1554},{60,1536,2,1554},{58,1537,4,1554},{59,1538,8,1554},{61,1539,4,1554},{62,1540,8,1554},{63,1541,4,1554},{60,1542,4,1554},{62,1543,4,1554},{63,1544,8,1554},{64,1545,4,1554},{65,1546,1,1554},{66,1547,4,1554},{67,1548,2,1554},{67,1549,4,1554},{68,1550,4,1554},{69,1551,1,1554},{90,1531,1,1555},{91,1532,4,1555},{92,1533,4,1555},{93,1534,2,1555},{94,1535,4,1555},{95,1536,2,1555},{93,1537,4,1555},{94,1538,8,1555},{96,1539,4,1555},{97,1540,8,1555},{98,1541,4,1555},{95,1542,4,1555},{97,1543,4,1555},{98,1544,8,1555},{99,1545,4,1555},{100,1546,1,1555},{101,1547,4,1555},{102,1548,2,1555},{102,1549,4,1555},{103,1550,4,1555},{104,1551,1,1555},{125,1531,1,1556},{126,1532,4,1556},{127,1533,4,1556},{128,1534,2,1556},{129,1535,4,1556},{130,1536,2,1556},{128,1537,4,1556},{129,1538,8,1556},{131,1539,4,1556},{132,1540,8,1556},{133,1541,4,1556},{130,1542,4,1556},{132,1543,4,1556},{133,1544,8,1556},{134,1545,4,1556},{135,1546,1,1556},{136,1547,4,1556},{137,1548,2,1556},{137,1549,4,1556},{138,1550,4,1556},{139,1551,1,1556},{125,125,1,1557},{126,126,2,1557},{127,127,2,1557},{128,128,1,1557},{129,129,2,1557},{130,130,1,1557},{125,126,1,1558},{126,128,2,1558},{127,129,2,1558},{128,131,1,1558},{129,132,2,1558},{130,133,1,1558},{125,127,1,1559},{126,129,2,1559},{127,130,2,1559},{128,132,1,1559},{129,133,2,1559},{130,134,1,1559},{125,128,1,1560},{126,131,2,1560},{127,132,2,1560},{128,135,1,1560},{129,136,2,1560},{130,137,1,1560},{125,129,1,1561},{126,132,2,1561},{127,133,2,1561},{128,136,1,1561},{129,137,2,1561},{130,138,1,1561},{125,130,1,1562},{126,133,2,1562},{127,134,2,1562},{128,137,1,1562},{129,138,2,1562},{130,139,1,1562},{126,126,1,1563},{128,128,2,1563},{129,129,2,1563},{131,131,1,1563},{132,132,2,1563},{133,133,1,1563},{126,127,1,1564},{128,129,2,1564},{129,130,2,1564},{131,132,1,1564},{132,133,2,1564},{133,134,1,1564},{126,128,1,1565},{128,131,2,1565},{129,132,2,1565},{131,135,1,1565},{132,136,2,1565},{133,137,1,1565},{126,129,1,1566},{128,132,2,1566},{129,133,2,1566},{131,136,1,1566},{132,137,2,1566},{133,138,1,1566},{126,130,1,1567},{128,133,2,1567},{129,134,2,1567},{131,137,1,1567},{132,138,2,1567},{133,139,1,1567},{127,127,1,1568},{129,129,2,1568},{130,130,2,1568},{132,132,1,1568},{133,133,2,1568},{134,134,1,1568},{127,128,1,1569},{129,131,2,1569},{130,132,2,1569},{132,135,1,1569},{133,136,2,1569},{134,137,1,1569},{127,129,1,1570},{129,132,2,1570},{130,133,2,1570},{132,136,1,1570},{133,137,2,1570},{134,138,1,1570},{127,130,1,1571},{129,133,2,1571},{130,134,2,1571},{132,137,1,1571},{133,138,2,1571},{134,139,1,1571},{128,128,1,1572},{131,131,2,1572},{132,132,2,1572},{135,135,1,1572},{136,136,2,1572},{137,137,1,1572},{128,129,1,1573},{131,132,2,1573},{132,133,2,1573},{135,136,1,1573},{136,137,2,1573},{137,138,1,1573},{128,130,1,1574},{131,133,2,1574},{132,134,2,1574},{135,137,1,1574},{136,138,2,1574},{137,139,1,1574},{129,129,1,1575},{132,132,2,1575},{133,133,2,1575},{136,136,1,1575},{137,137,2,1575},{138,138,1,1575},{129,130,1,1576},{132,133,2,1576},{133,134,2,1576},{136,137,1,1576},{137,138,2,1576},{138,139,1,1576},{130,130,1,1577},{133,133,2,1577},{134,134,2,1577},{137,137,1,1577},{138,138,2,1577},{139,139,1,1577},{1557,1557,1,1578},{1558,1558,4,1578},{1559,1559,4,1578},{1560,1560,2,1578},{1561,1561,4,1578},{1562,1562,2,1578},{1563,1563,4,1578},{1564,1564,8,1578},{1565,1565,4,1578},{1566,1566,8,1578},{1567,1567,4,1578},{1568,1568,4,1578},{1569,1569,4,1578},{1570,1570,8,1578},{1571,1571,4,1578},{1572,1572,1,1578},{1573,1573,4,1578},{1574,1574,2,1578},{1575,1575,4,1578},{1576,1576,4,1578},{1577,1577,1,1578},{20,1557,1,1579},{21,1558,4,1579},{22,1559,4,1579},{23,1560,2,1579},{24,1561,4,1579},{25,1562,2,1579},{23,1563,4,1579},{24,1564,8,1579},{26,1565,4,1579},{27,1566,8,1579},{28,1567,4,1579},{25,1568,4,1579},{27,1569,4,1579},{28,1570,8,1579},{29,1571,4,1579},{30,1572,1,1579},{31,1573,4,1579},{32,1574,2,1579},{32,1575,4,1579},{33,1576,4,1579},{34,1577,1,1579},{55,1557,1,1580},{56,1558,4,1580},{57,1559,4,1580},{58,1560,2,1580},{59,1561,4,1580},{60,1562,2,1580},{58,1563,4,1580},{59,1564,8,1580},{61,1565,4,1580},{62,1566,8,1580},{63,1567,4,1580},{60,1568,4,1580},{62,1569,4,1580},{63,1570,8,1580},{64,1571,4,1580},{65,1572,1,1580},{66,1573,4,1580},{67,1574,2,1580},{67,1575,4,1580},{68,1576,4,1580},{69,1577,1,1580},{90,1557,1,1581},{91,1558,4,1581},{92,1559,4,1581},{93,1560,2,1581},{94,1561,4,1581},{95,1562,2,1581},{93,1563,4,1581},{94,1564,8,1581},{96,1565,4,1581},{97,1566,8,1581},{98,1567,4,1581},{95,1568,4,1581},{97,1569,4,1581},{98,1570,8,1581},{99,1571,4,1581},{100,1572,1,1581},{101,1573,4,1581},{102,1574,2,1581},{102,1575,4,1581},{103,1576,4,1581},{104,1577,1,1581},{125,1557,1,1582},{126,1558,4,1582},{127,1559,4,1582},{128,1560,2,1582},{129,1561,4,1582},{130,1562,2,1582},{128,1563,4,1582},{129,1564,8,1582},{131,1565,4,1582},{132,1566,8,1582},{133,1567,4,1582},{130,1568,4,1582},{132,1569,4,1582},{133,1570,8,1582},{134,1571,4,1582},{135,1572,1,1582},{136,1573,4,1582},{137,1574,2,1582},{137,1575,4,1582},{138,1576,4,1582},{139,1577,1,1582},{20,20,1,1583},{21,21,3,1583},{22,22,3,1583},{23,23,3,1583},{24,24,6,1583},{25,25,3,1583},{26,26,1,1583},{27,27,3,1583},{28,28,3,1583},{29,29,1,1583},{20,21,1,1584},{21,23,3,1584},{22,24,3,1584},{23,26,3,1584},{24,27,6,1584},{25,28,3,1584},{26,30,1,1584},{27,31,3,1584},{28,32,3,1584},{29,33,1,1584},{20,22,1,1585},{21,24,3,1585},{22,25,3,1585},{23,27,3,1585},{24,28,6,1585},{25,29,3,1585},{26,31,1,1585},{27,32,3,1585},{28,33,3,1585},{29,34,1,1585},{21,21,1,1586},{23,23,3,1586},{24,24,3,1586},{26,26,3,1586},{27,27,6,1586},{28,28,3,1586},{30,30,1,1586},{31,31,3,1586},{32,32,3,1586},{33,33,1,1586},{21,22,1,1587},{23,24,3,1587},{24,25,3,1587},{26,27,3,1587},{27,28,6,1587},{28,29,3,1587},{30,31,1,1587},{31,32,3,1587},{32,33,3,1587},{33,34,1,1587},{22,22,1,1588},{24,24,3,1588},{25,25,3,1588},{27,27,3,1588},{28,28,6,1588},{29,29,3,1588},{31,31,1,1588},{32,32,3,1588},{33,33,3,1588},{34,34,1,1588},{1583,1583,1,1589},{1584,1584,2,1589},{1585,1585,2,1589},{1586,1586,1,1589},{1587,1587,2,1589},{1588,1588,1,1589},{4,1583,1,1590},{5,1584,2,1590},{6,1585,2,1590},{7,1586,1,1590},{8,1587,2,1590},{9,1588,1,1590},{39,1583,1,1591},{40,1584,2,1591},{41,1585,2,1591},{42,1586,1,1591},{43,1587,2,1591},{44,1588,1,1591},{74,1583,1,1592},{75,1584,2,1592},{76,1585,2,1592},{77,1586,1,1592},{78,1587,2,1592},{79,1588,1,1592},{109,1583,1,1593},{110,1584,2,1593},{111,1585,2,1593},{112,1586,1,1593},{113,1587,2,1593},{114,1588,1,1593},{1583,983,1,1594},{1584,984,2,1594},{1585,985,2,1594},{1586,986,1,1594},{1587,987,2,1594},{1588,988,1,1594},{1583,993,1,1595},{1584,994,2,1595},{1585,995,2,1595},{1586,996,1,1595},{1587,997,2,1595},{1588,998,1,1595},{1583,1003,1,1596},{1584,1004,2,1596},{1585,1005,2,1596},{1586,1006,1,1596},{1587,1007,2,1596},{1588,1008,1,1596},{1583,1013,1,1597},{1584,1014,2,1597},{1585,1015,2,1597},{1586,1016,1,1597},{1587,1017,2,1597},{1588,1018,1,1597},{1583,933,1,1598},{1584,934,2,1598},{1585,935,2,1598},{1586,936,1,1598},{1587,937,2,1598},{1588,938,1,1598},{1583,943,1,1599},{1584,944,2,1599},{1585,945,2,1599},{1586,946,1,1599},{1587,947,2,1599},{1588,948,1,1599},{1583,953,1,1600},{1584,954,2,1600},{1585,955,2,1600},{1586,956,1,1600},{1587,957,2,1600},{1588,958,1,1600},{1583,963,1,1601},{1584,964,2,1601},{1585,965,2,1601},{1586,966,1,1601},{1587,967,2,1601},{1588,968,1,1601},{1583,588,1,1602},{1584,589,2,1602},{1585,590,2,1602},{1586,591,1,1602},{1587,592,2,1602},{1588,593,1,1602},{1583,598,1,1603},{1584,599,2,1603},{1585,600,2,1603},{1586,601,1,1603},{1587,602,2,1603},{1588,603,1,1603},{1583,608,1,1604},{1584,609,2,1604},{1585,610,2,1604},{1586,611,1,1604},{1587,612,2,1604},{1588,613,1,1604},{1583,618,1,1605},{1584,619,2,1605},{1585,620,2,1605},{1586,621,1,1605},{1587,622,2,1605},{1588,623,1,1605},{55,55,1,1606},{56,56,3,1606},{57,57,3,1606},{58,58,3,1606},{59,59,6,1606},{60,60,3,1606},{61,61,1,1606},{62,62,3,1606},{63,63,3,1606},{64,64,1,1606},{55,56,1,1607},{56,58,3,1607},{57,59,3,1607},{58,61,3,1607},{59,62,6,1607},{60,63,3,1607},{61,65,1,1607},{62,66,3,1607},{63,67,3,1607},{64,68,1,1607},{55,57,1,1608},{56,59,3,1608},{57,60,3,1608},{58,62,3,1608},{59,63,6,1608},{60,64,3,1608},{61,66,1,1608},{62,67,3,1608},{63,68,3,1608},{64,69,1,1608},{56,56,1,1609},{58,58,3,1609},{59,59,3,1609},{61,61,3,1609},{62,62,6,1609},{63,63,3,1609},{65,65,1,1609},{66,66,3,1609},{67,67,3,1609},{68,68,1,1609},{56,57,1,1610},{58,59,3,1610},{59,60,3,1610},{61,62,3,1610},{62,63,6,1610},{63,64,3,1610},{65,66,1,1610},{66,67,3,1610},{67,68,3,1610},{68,69,1,1610},{57,57,1,1611},{59,59,3,1611},{60,60,3,1611},{62,62,3,1611},{63,63,6,1611},{64,64,3,1611},{66,66,1,1611},{67,67,3,1611},{68,68,3,1611},{69,69,1,1611},{1606,1606,1,1612},{1607,1607,2,1612},{1608,1608,2,1612},{1609,1609,1,1612},{1610,1610,2,1612},{1611,1611,1,1612},{4,1606,1,1613},{5,1607,2,1613},{6,1608,2,1613},{7,1609,1,1613},{8,1610,2,1613},{9,1611,1,1613},{39,1606,1,1614},{40,1607,2,1614},{41,1608,2,1614},{42,1609,1,1614},{43,1610,2,1614},{44,1611,1,1614},{74,1606,1,1615},{75,1607,2,1615},{76,1608,2,1615},{77,1609,1,1615},{78,1610,2,1615},{79,1611,1,1615},{109,1606,1,1616},{110,1607,2,1616},{111,1608,2,1616},{112,1609,1,1616},{113,1610,2,1616},{114,1611,1,1616},{1606,983,1,1617},{1607,984,2,1617},{1608,985,2,1617},{1609,986,1,1617},{1610,987,2,1617},{1611,988,1,1617},{1606,993,1,1618},{1607,994,2,1618},{1608,995,2,1618},{1609,996,1,1618},{1610,997,2,1618},{1611,998,1,1618},{1606,1003,1,1619},{1607,1004,2,1619},{1608,1005,2,1619},{1609,1006,1,1619},{1610,1007,2,1619},{1611,1008,1,1619},{1606,1013,1,1620},{1607,1014,2,1620},{1608,1015,2,1620},{1609,1016,1,1620},{1610,1017,2,1620},{1611,1018,1,1620},{1606,933,1,1621},{1607,934,2,1621},{1608,935,2,1621},{1609,936,1,1621},{1610,937,2,1621},{1611,938,1,1621},{1606,943,1,1622},{1607,944,2,1622},{1608,945,2,1622},{1609,946,1,1622},{1610,947,2,1622},{1611,948,1,1622},{1606,953,1,1623},{1607,954,2,1623},{1608,955,2,1623},{1609,956,1,1623},{1610,957,2,1623},{1611,958,1,1623},{1606,963,1,1624},{1607,964,2,1624},{1608,965,2,1624},{1609,966,1,1624},{1610,967,2,1624},{1611,968,1,1624},{1606,588,1,1625},{1607,589,2,1625},{1608,590,2,1625},{1609,591,1,1625},{1610,592,2,1625},{1611,593,1,1625},{1606,598,1,1626},{1607,599,2,1626},{1608,600,2,1626},{1609,601,1,1626},{1610,602,2,1626},{1611,603,1,1626},{1606,608,1,1627},{1607,609,2,1627},{1608,610,2,1627},{1609,611,1,1627},{1610,612,2,1627},{1611,613,1,1627},{1606,618,1,1628},{1607,619,2,1628},{1608,620,2,1628},{1609,621,1,1628},{1610,622,2,1628},{1611,623,1,1628},{90,90,1,1629},{91,91,3,1629},{92,92,3,1629},{93,93,3,1629},{94,94,6,1629},{95,95,3,1629},{96,96,1,1629},{97,97,3,1629},{98,98,3,1629},{99,99,1,1629},{90,91,1,1630},{91,93,3,1630},{92,94,3,1630},{93,96,3,1630},{94,97,6,1630},{95,98,3,1630},{96,100,1,1630},{97,101,3,1630},{98,102,3,1630},{99,103,1,1630},{90,92,1,1631},{91,94,3,1631},{92,95,3,1631},{93,97,3,1631},{94,98,6,1631},{95,99,3,1631},{96,101,1,1631},{97,102,3,1631},{98,103,3,1631},{99,104,1,1631},{91,91,1,1632},{93,93,3,1632},{94,94,3,1632},{96,96,3,1632},{97,97,6,1632},{98,98,3,1632},{100,100,1,1632},{101,101,3,1632},{102,102,3,1632},{103,103,1,1632},{91,92,1,1633},{93,94,3,1633},{94,95,3,1633},{96,97,3,1633},{97,98,6,1633},{98,99,3,1633},{100,101,1,1633},{101,102,3,1633},{102,103,3,1633},{103,104,1,1633},{92,92,1,1634},{94,94,3,1634},{95,95,3,1634},{97,97,3,1634},{98,98,6,1634},{99,99,3,1634},{101,101,1,1634},{102,102,3,1634},{103,103,3,1634},{104,104,1,1634},{1629,1629,1,1635},{1630,1630,2,1635},{1631,1631,2,1635},{1632,1632,1,1635},{1633,1633,2,1635},{1634,1634,1,1635},{4,1629,1,1636},{5,1630,2,1636},{6,1631,2,1636},{7,1632,1,1636},{8,1633,2,1636},{9,1634,1,1636},{39,1629,1,1637},{40,1630,2,1637},{41,1631,2,1637},{42,1632,1,1637},{43,1633,2,1637},{44,1634,1,1637},{74,1629,1,1638},{75,1630,2,1638},{76,1631,2,1638},{77,1632,1,1638},{78,1633,2,1638},{79,1634,1,1638},{109,1629,1,1639},{110,1630,2,1639},{111,1631,2,1639},{112,1632,1,1639},{113,1633,2,1639},{114,1634,1,1639},{1629,983,1,1640},{1630,984,2,1640},{1631,985,2,1640},{1632,986,1,1640},{1633,987,2,1640},{1634,988,1,1640},{1629,993,1,1641},{1630,994,2,1641},{1631,995,2,1641},{1632,996,1,1641},{1633,997,2,1641},{1634,998,1,1641},{1629,1003,1,1642},{1630,1004,2,1642},{1631,1005,2,1642},{1632,1006,1,1642},{1633,1007,2,1642},{1634,1008,1,1642},{1629,1013,1,1643},{1630,1014,2,1643},{1631,1015,2,1643},{1632,1016,1,1643},{1633,1017,2,1643},{1634,1018,1,1643},{1629,933,1,1644},{1630,934,2,1644},{1631,935,2,1644},{1632,936,1,1644},{1633,937,2,1644},{1634,938,1,1644},{1629,943,1,1645},{1630,944,2,1645},{1631,945,2,1645},{1632,946,1,1645},{1633,947,2,1645},{1634,948,1,1645},{1629,953,1,1646},{1630,954,2,1646},{1631,955,2,1646},{1632,956,1,1646},{1633,957,2,1646},{1634,958,1,1646},{1629,963,1,1647},{1630,964,2,1647},{1631,965,2,1647},{1632,966,1,1647},{1633,967,2,1647},{1634,968,1,1647},{1629,588,1,1648},{1630,589,2,1648},{1631,590,2,1648},{1632,591,1,1648},{1633,592,2,1648},{1634,593,1,1648},{1629,598,1,1649},{1630,599,2,1649},{1631,600,2,1649},{1632,601,1,1649},{1633,602,2,1649},{1634,603,1,1649},{1629,608,1,1650},{1630,609,2,1650},{1631,610,2,1650},{1632,611,1,1650},{1633,612,2,1650},{1634,613,1,1650},{1629,618,1,1651},{1630,619,2,1651},{1631,620,2,1651},{1632,621,1,1651},{1633,622,2,1651},{1634,623,1,1651},{125,125,1,1652},{126,126,3,1652},{127,127,3,1652},{128,128,3,1652},{129,129,6,1652},{130,130,3,1652},{131,131,1,1652},{132,132,3,1652},{133,133,3,1652},{134,134,1,1652},{125,126,1,1653},{126,128,3,1653},{127,129,3,1653},{128,131,3,1653},{129,132,6,1653},{130,133,3,1653},{131,135,1,1653},{132,136,3,1653},{133,137,3,1653},{134,138,1,1653},{125,127,1,1654},{126,129,3,1654},{127,130,3,1654},{128,132,3,1654},{129,133,6,1654},{130,134,3,1654},{131,136,1,1654},{132,137,3,1654},{133,138,3,1654},{134,139,1,1654},{126,126,1,1655},{128,128,3,1655},{129,129,3,1655},{131,131,3,1655},{132,132,6,1655},{133,133,3,1655},{135,135,1,1655},{136,136,3,1655},{137,137,3,1655},{138,138,1,1655},{126,127,1,1656},{128,129,3,1656},{129,130,3,1656},{131,132,3,1656},{132,133,6,1656},{133,134,3,1656},{135,136,1,1656},{136,137,3,1656},{137,138,3,1656},{138,139,1,1656},{127,127,1,1657},{129,129,3,1657},{130,130,3,1657},{132,132,3,1657},{133,133,6,1657},{134,134,3,1657},{136,136,1,1657},{137,137,3,1657},{138,138,3,1657},{139,139,1,1657},{1652,1652,1,1658},{1653,1653,2,1658},{1654,1654,2,1658},{1655,1655,1,1658},{1656,1656,2,1658},{1657,1657,1,1658},{4,1652,1,1659},{5,1653,2,1659},{6,1654,2,1659},{7,1655,1,1659},{8,1656,2,1659},{9,1657,1,1659},{39,1652,1,1660},{40,1653,2,1660},{41,1654,2,1660},{42,1655,1,1660},{43,1656,2,1660},{44,1657,1,1660},{74,1652,1,1661},{75,1653,2,1661},{76,1654,2,1661},{77,1655,1,1661},{78,1656,2,1661},{79,1657,1,1661},{109,1652,1,1662},{110,1653,2,1662},{111,1654,2,1662},{112,1655,1,1662},{113,1656,2,1662},{114,1657,1,1662},{1652,983,1,1663},{1653,984,2,1663},{1654,985,2,1663},{1655,986,1,1663},{1656,987,2,1663},{1657,988,1,1663},{1652,993,1,1664},{1653,994,2,1664},{1654,995,2,1664},{1655,996,1,1664},{1656,997,2,1664},{1657,998,1,1664},{1652,1003,1,1665},{1653,1004,2,1665},{1654,1005,2,1665},{1655,1006,1,1665},{1656,1007,2,1665},{1657,1008,1,1665},{1652,1013,1,1666},{1653,1014,2,1666},{1654,1015,2,1666},{1655,1016,1,1666},{1656,1017,2,1666},{1657,1018,1,1666},{1652,933,1,1667},{1653,934,2,1667},{1654,935,2,1667},{1655,936,1,1667},{1656,937,2,1667},{1657,938,1,1667},{1652,943,1,1668},{1653,944,2,1668},{1654,945,2,