MTP
version = 1.1.0
potential_name = sus2mlip_l4k6
scaling = 0.03
L = 4
scaling_map = LK
species_count = 1
potential_tag =
radial_basis_type = RBChebyshev_sss
        min_dist = 1.5
        max_dist = 6.0
        radial_basis_size = 10
        radial_funcs_count = 30
alpha_moments_count =6119
alpha_index_basic_count = 210
alpha_index_basic = {{0, 0, 0, 0},{1, 1, 0, 0},{1, 0, 1, 0},{1, 0, 0, 1},{2, 2, 0, 0},{2, 1, 1, 0},{2, 1, 0, 1},{2, 0, 2, 0},{2, 0, 1, 1},{2, 0, 0, 2},{3, 3, 0, 0},{3, 2, 1, 0},{3, 2, 0, 1},{3, 1, 2, 0},{3, 1, 1, 1},{3, 1, 0, 2},{3, 0, 3, 0},{3, 0, 2, 1},{3, 0, 1, 2},{3, 0, 0, 3},{4, 4, 0, 0},{4, 3, 1, 0},{4, 3, 0, 1},{4, 2, 2, 0},{4, 2, 1, 1},{4, 2, 0, 2},{4, 1, 3, 0},{4, 1, 2, 1},{4, 1, 1, 2},{4, 1, 0, 3},{4, 0, 4, 0},{4, 0, 3, 1},{4, 0, 2, 2},{4, 0, 1, 3},{4, 0, 0, 4},{5, 0, 0, 0},{6, 1, 0, 0},{6, 0, 1, 0},{6, 0, 0, 1},{7, 2, 0, 0},{7, 1, 1, 0},{7, 1, 0, 1},{7, 0, 2, 0},{7, 0, 1, 1},{7, 0, 0, 2},{8, 3, 0, 0},{8, 2, 1, 0},{8, 2, 0, 1},{8, 1, 2, 0},{8, 1, 1, 1},{8, 1, 0, 2},{8, 0, 3, 0},{8, 0, 2, 1},{8, 0, 1, 2},{8, 0, 0, 3},{9, 4, 0, 0},{9, 3, 1, 0},{9, 3, 0, 1},{9, 2, 2, 0},{9, 2, 1, 1},{9, 2, 0, 2},{9, 1, 3, 0},{9, 1, 2, 1},{9, 1, 1, 2},{9, 1, 0, 3},{9, 0, 4, 0},{9, 0, 3, 1},{9, 0, 2, 2},{9, 0, 1, 3},{9, 0, 0, 4},{10, 0, 0, 0},{11, 1, 0, 0},{11, 0, 1, 0},{11, 0, 0, 1},{12, 2, 0, 0},{12, 1, 1, 0},{12, 1, 0, 1},{12, 0, 2, 0},{12, 0, 1, 1},{12, 0, 0, 2},{13, 3, 0, 0},{13, 2, 1, 0},{13, 2, 0, 1},{13, 1, 2, 0},{13, 1, 1, 1},{13, 1, 0, 2},{13, 0, 3, 0},{13, 0, 2, 1},{13, 0, 1, 2},{13, 0, 0, 3},{14, 4, 0, 0},{14, 3, 1, 0},{14, 3, 0, 1},{14, 2, 2, 0},{14, 2, 1, 1},{14, 2, 0, 2},{14, 1, 3, 0},{14, 1, 2, 1},{14, 1, 1, 2},{14, 1, 0, 3},{14, 0, 4, 0},{14, 0, 3, 1},{14, 0, 2, 2},{14, 0, 1, 3},{14, 0, 0, 4},{15, 0, 0, 0},{16, 1, 0, 0},{16, 0, 1, 0},{16, 0, 0, 1},{17, 2, 0, 0},{17, 1, 1, 0},{17, 1, 0, 1},{17, 0, 2, 0},{17, 0, 1, 1},{17, 0, 0, 2},{18, 3, 0, 0},{18, 2, 1, 0},{18, 2, 0, 1},{18, 1, 2, 0},{18, 1, 1, 1},{18, 1, 0, 2},{18, 0, 3, 0},{18, 0, 2, 1},{18, 0, 1, 2},{18, 0, 0, 3},{19, 4, 0, 0},{19, 3, 1, 0},{19, 3, 0, 1},{19, 2, 2, 0},{19, 2, 1, 1},{19, 2, 0, 2},{19, 1, 3, 0},{19, 1, 2, 1},{19, 1, 1, 2},{19, 1, 0, 3},{19, 0, 4, 0},{19, 0, 3, 1},{19, 0, 2, 2},{19, 0, 1, 3},{19, 0, 0, 4},{20, 0, 0, 0},{21, 1, 0, 0},{21, 0, 1, 0},{21, 0, 0, 1},{22, 2, 0, 0},{22, 1, 1, 0},{22, 1, 0, 1},{22, 0, 2, 0},{22, 0, 1, 1},{22, 0, 0, 2},{23, 3, 0, 0},{23, 2, 1, 0},{23, 2, 0, 1},{23, 1, 2, 0},{23, 1, 1, 1},{23, 1, 0, 2},{23, 0, 3, 0},{23, 0, 2, 1},{23, 0, 1, 2},{23, 0, 0, 3},{24, 4, 0, 0},{24, 3, 1, 0},{24, 3, 0, 1},{24, 2, 2, 0},{24, 2, 1, 1},{24, 2, 0, 2},{24, 1, 3, 0},{24, 1, 2, 1},{24, 1, 1, 2},{24, 1, 0, 3},{24, 0, 4, 0},{24, 0, 3, 1},{24, 0, 2, 2},{24, 0, 1, 3},{24, 0, 0, 4},{25, 0, 0, 0},{26, 1, 0, 0},{26, 0, 1, 0},{26, 0, 0, 1},{27, 2, 0, 0},{27, 1, 1, 0},{27, 1, 0, 1},{27, 0, 2, 0},{27, 0, 1, 1},{27, 0, 0, 2},{28, 3, 0, 0},{28, 2, 1, 0},{28, 2, 0, 1},{28, 1, 2, 0},{28, 1, 1, 1},{28, 1, 0, 2},{28, 0, 3, 0},{28, 0, 2, 1},{28, 0, 1, 2},{28, 0, 0, 3},{29, 4, 0, 0},{29, 3, 1, 0},{29, 3, 0, 1},{29, 2, 2, 0},{29, 2, 1, 1},{29, 2, 0, 2},{29, 1, 3, 0},{29, 1, 2, 1},{29, 1, 1, 2},{29, 1, 0, 3},{29, 0, 4, 0},{29, 0, 3, 1},{29, 0, 2, 2},{29, 0, 1, 3},{29, 0, 0, 4}}
alpha_index_times_count = 14849
alpha_index_times = {{0,0,1,210},{0,210,1,211},{35,210,1,212},{70,210,1,213},{105,210,1,214},{140,210,1,215},{175,210,1,216},{0,35,1,217},{35,217,1,218},{70,217,1,219},{105,217,1,220},{140,217,1,221},{175,217,1,222},{0,70,1,223},{70,223,1,224},{105,223,1,225},{140,223,1,226},{175,223,1,227},{0,105,1,228},{105,228,1,229},{140,228,1,230},{175,228,1,231},{0,140,1,232},{140,232,1,233},{175,232,1,234},{0,175,1,235},{175,235,1,236},{35,35,1,237},{35,237,1,238},{70,237,1,239},{105,237,1,240},{140,237,1,241},{175,237,1,242},{35,70,1,243},{70,243,1,244},{105,243,1,245},{140,243,1,246},{175,243,1,247},{35,105,1,248},{105,248,1,249},{140,248,1,250},{175,248,1,251},{35,140,1,252},{140,252,1,253},{175,252,1,254},{35,175,1,255},{175,255,1,256},{70,70,1,257},{70,257,1,258},{105,257,1,259},{140,257,1,260},{175,257,1,261},{70,105,1,262},{105,262,1,263},{140,262,1,264},{175,262,1,265},{70,140,1,266},{140,266,1,267},{175,266,1,268},{70,175,1,269},{175,269,1,270},{105,105,1,271},{105,271,1,272},{140,271,1,273},{175,271,1,274},{105,140,1,275},{140,275,1,276},{175,275,1,277},{105,175,1,278},{175,278,1,279},{140,140,1,280},{140,280,1,281},{175,280,1,282},{140,175,1,283},{175,283,1,284},{175,175,1,285},{175,285,1,286},{1,1,1,287},{2,2,1,287},{3,3,1,287},{1,36,1,288},{2,37,1,288},{3,38,1,288},{1,71,1,289},{2,72,1,289},{3,73,1,289},{1,106,1,290},{2,107,1,290},{3,108,1,290},{1,141,1,291},{2,142,1,291},{3,143,1,291},{1,176,1,292},{2,177,1,292},{3,178,1,292},{36,36,1,293},{37,37,1,293},{38,38,1,293},{36,71,1,294},{37,72,1,294},{38,73,1,294},{36,106,1,295},{37,107,1,295},{38,108,1,295},{36,141,1,296},{37,142,1,296},{38,143,1,296},{36,176,1,297},{37,177,1,297},{38,178,1,297},{71,71,1,298},{72,72,1,298},{73,73,1,298},{71,106,1,299},{72,107,1,299},{73,108,1,299},{71,141,1,300},{72,142,1,300},{73,143,1,300},{71,176,1,301},{72,177,1,301},{73,178,1,301},{106,106,1,302},{107,107,1,302},{108,108,1,302},{106,141,1,303},{107,142,1,303},{108,143,1,303},{106,176,1,304},{107,177,1,304},{108,178,1,304},{141,141,1,305},{142,142,1,305},{143,143,1,305},{141,176,1,306},{142,177,1,306},{143,178,1,306},{176,176,1,307},{177,177,1,307},{178,178,1,307},{4,4,1,308},{5,5,2,308},{6,6,2,308},{7,7,1,308},{8,8,2,308},{9,9,1,308},{4,39,1,309},{5,40,2,309},{6,41,2,309},{7,42,1,309},{8,43,2,309},{9,44,1,309},{4,74,1,310},{5,75,2,310},{6,76,2,310},{7,77,1,310},{8,78,2,310},{9,79,1,310},{4,109,1,311},{5,110,2,311},{6,111,2,311},{7,112,1,311},{8,113,2,311},{9,114,1,311},{4,144,1,312},{5,145,2,312},{6,146,2,312},{7,147,1,312},{8,148,2,312},{9,149,1,312},{4,179,1,313},{5,180,2,313},{6,181,2,313},{7,182,1,313},{8,183,2,313},{9,184,1,313},{39,39,1,314},{40,40,2,314},{41,41,2,314},{42,42,1,314},{43,43,2,314},{44,44,1,314},{39,74,1,315},{40,75,2,315},{41,76,2,315},{42,77,1,315},{43,78,2,315},{44,79,1,315},{39,109,1,316},{40,110,2,316},{41,111,2,316},{42,112,1,316},{43,113,2,316},{44,114,1,316},{39,144,1,317},{40,145,2,317},{41,146,2,317},{42,147,1,317},{43,148,2,317},{44,149,1,317},{39,179,1,318},{40,180,2,318},{41,181,2,318},{42,182,1,318},{43,183,2,318},{44,184,1,318},{74,74,1,319},{75,75,2,319},{76,76,2,319},{77,77,1,319},{78,78,2,319},{79,79,1,319},{74,109,1,320},{75,110,2,320},{76,111,2,320},{77,112,1,320},{78,113,2,320},{79,114,1,320},{74,144,1,321},{75,145,2,321},{76,146,2,321},{77,147,1,321},{78,148,2,321},{79,149,1,321},{74,179,1,322},{75,180,2,322},{76,181,2,322},{77,182,1,322},{78,183,2,322},{79,184,1,322},{109,109,1,323},{110,110,2,323},{111,111,2,323},{112,112,1,323},{113,113,2,323},{114,114,1,323},{109,144,1,324},{110,145,2,324},{111,146,2,324},{112,147,1,324},{113,148,2,324},{114,149,1,324},{109,179,1,325},{110,180,2,325},{111,181,2,325},{112,182,1,325},{113,183,2,325},{114,184,1,325},{144,144,1,326},{145,145,2,326},{146,146,2,326},{147,147,1,326},{148,148,2,326},{149,149,1,326},{144,179,1,327},{145,180,2,327},{146,181,2,327},{147,182,1,327},{148,183,2,327},{149,184,1,327},{179,179,1,328},{180,180,2,328},{181,181,2,328},{182,182,1,328},{183,183,2,328},{184,184,1,328},{0,287,1,329},{0,288,1,330},{0,289,1,331},{0,290,1,332},{0,291,1,333},{0,292,1,334},{0,293,1,335},{0,294,1,336},{0,295,1,337},{0,296,1,338},{0,297,1,339},{0,298,1,340},{0,299,1,341},{0,300,1,342},{0,301,1,343},{0,302,1,344},{0,303,1,345},{0,304,1,346},{0,305,1,347},{0,306,1,348},{0,307,1,349},{35,287,1,350},{35,288,1,351},{35,289,1,352},{35,290,1,353},{35,291,1,354},{35,292,1,355},{35,293,1,356},{35,294,1,357},{35,295,1,358},{35,296,1,359},{35,297,1,360},{35,298,1,361},{35,299,1,362},{35,300,1,363},{35,301,1,364},{35,302,1,365},{35,303,1,366},{35,304,1,367},{35,305,1,368},{35,306,1,369},{35,307,1,370},{70,287,1,371},{70,288,1,372},{70,289,1,373},{70,290,1,374},{70,291,1,375},{70,292,1,376},{70,293,1,377},{70,294,1,378},{70,295,1,379},{70,296,1,380},{70,297,1,381},{70,298,1,382},{70,299,1,383},{70,300,1,384},{70,301,1,385},{70,302,1,386},{70,303,1,387},{70,304,1,388},{70,305,1,389},{70,306,1,390},{70,307,1,391},{105,287,1,392},{105,288,1,393},{105,289,1,394},{105,290,1,395},{105,291,1,396},{105,292,1,397},{105,293,1,398},{105,294,1,399},{105,295,1,400},{105,296,1,401},{105,297,1,402},{105,298,1,403},{105,299,1,404},{105,300,1,405},{105,301,1,406},{105,302,1,407},{105,303,1,408},{105,304,1,409},{105,305,1,410},{105,306,1,411},{105,307,1,412},{140,287,1,413},{140,288,1,414},{140,289,1,415},{140,290,1,416},{140,291,1,417},{140,292,1,418},{140,293,1,419},{140,294,1,420},{140,295,1,421},{140,296,1,422},{140,297,1,423},{140,298,1,424},{140,299,1,425},{140,300,1,426},{140,301,1,427},{140,302,1,428},{140,303,1,429},{140,304,1,430},{140,305,1,431},{140,306,1,432},{140,307,1,433},{175,287,1,434},{175,288,1,435},{175,289,1,436},{175,290,1,437},{175,291,1,438},{175,292,1,439},{175,293,1,440},{175,294,1,441},{175,295,1,442},{175,296,1,443},{175,297,1,444},{175,298,1,445},{175,299,1,446},{175,300,1,447},{175,301,1,448},{175,302,1,449},{175,303,1,450},{175,304,1,451},{175,305,1,452},{175,306,1,453},{175,307,1,454},{0,308,1,455},{0,309,1,456},{0,310,1,457},{0,311,1,458},{0,312,1,459},{0,313,1,460},{0,314,1,461},{0,315,1,462},{0,316,1,463},{0,317,1,464},{0,318,1,465},{0,319,1,466},{0,320,1,467},{0,321,1,468},{0,322,1,469},{0,323,1,470},{0,324,1,471},{0,325,1,472},{0,326,1,473},{0,327,1,474},{0,328,1,475},{35,308,1,476},{35,309,1,477},{35,310,1,478},{35,311,1,479},{35,312,1,480},{35,313,1,481},{35,314,1,482},{35,315,1,483},{35,316,1,484},{35,317,1,485},{35,318,1,486},{35,319,1,487},{35,320,1,488},{35,321,1,489},{35,322,1,490},{35,323,1,491},{35,324,1,492},{35,325,1,493},{35,326,1,494},{35,327,1,495},{35,328,1,496},{70,308,1,497},{70,309,1,498},{70,310,1,499},{70,311,1,500},{70,312,1,501},{70,313,1,502},{70,314,1,503},{70,315,1,504},{70,316,1,505},{70,317,1,506},{70,318,1,507},{70,319,1,508},{70,320,1,509},{70,321,1,510},{70,322,1,511},{70,323,1,512},{70,324,1,513},{70,325,1,514},{70,326,1,515},{70,327,1,516},{70,328,1,517},{105,308,1,518},{105,309,1,519},{105,310,1,520},{105,311,1,521},{105,312,1,522},{105,313,1,523},{105,314,1,524},{105,315,1,525},{105,316,1,526},{105,317,1,527},{105,318,1,528},{105,319,1,529},{105,320,1,530},{105,321,1,531},{105,322,1,532},{105,323,1,533},{105,324,1,534},{105,325,1,535},{105,326,1,536},{105,327,1,537},{105,328,1,538},{140,308,1,539},{140,309,1,540},{140,310,1,541},{140,311,1,542},{140,312,1,543},{140,313,1,544},{140,314,1,545},{140,315,1,546},{140,316,1,547},{140,317,1,548},{140,318,1,549},{140,319,1,550},{140,320,1,551},{140,321,1,552},{140,322,1,553},{140,323,1,554},{140,324,1,555},{140,325,1,556},{140,326,1,557},{140,327,1,558},{140,328,1,559},{175,308,1,560},{175,309,1,561},{175,310,1,562},{175,311,1,563},{175,312,1,564},{175,313,1,565},{175,314,1,566},{175,315,1,567},{175,316,1,568},{175,317,1,569},{175,318,1,570},{175,319,1,571},{175,320,1,572},{175,321,1,573},{175,322,1,574},{175,323,1,575},{175,324,1,576},{175,325,1,577},{175,326,1,578},{175,327,1,579},{175,328,1,580},{287,287,1,581},{287,288,1,582},{287,289,1,583},{287,290,1,584},{287,291,1,585},{287,292,1,586},{287,293,1,587},{287,294,1,588},{287,295,1,589},{287,296,1,590},{287,297,1,591},{287,298,1,592},{287,299,1,593},{287,300,1,594},{287,301,1,595},{287,302,1,596},{287,303,1,597},{287,304,1,598},{287,305,1,599},{287,306,1,600},{287,307,1,601},{288,288,1,602},{288,289,1,603},{288,290,1,604},{288,291,1,605},{288,292,1,606},{288,293,1,607},{288,294,1,608},{288,295,1,609},{288,296,1,610},{288,297,1,611},{288,298,1,612},{288,299,1,613},{288,300,1,614},{288,301,1,615},{288,302,1,616},{288,303,1,617},{288,304,1,618},{288,305,1,619},{288,306,1,620},{288,307,1,621},{289,289,1,622},{289,290,1,623},{289,291,1,624},{289,292,1,625},{289,293,1,626},{289,294,1,627},{289,295,1,628},{289,296,1,629},{289,297,1,630},{289,298,1,631},{289,299,1,632},{289,300,1,633},{289,301,1,634},{289,302,1,635},{289,303,1,636},{289,304,1,637},{289,305,1,638},{289,306,1,639},{289,307,1,640},{290,290,1,641},{290,291,1,642},{290,292,1,643},{290,293,1,644},{290,294,1,645},{290,295,1,646},{290,296,1,647},{290,297,1,648},{290,298,1,649},{290,299,1,650},{290,300,1,651},{290,301,1,652},{290,302,1,653},{290,303,1,654},{290,304,1,655},{290,305,1,656},{290,306,1,657},{290,307,1,658},{291,291,1,659},{291,292,1,660},{291,293,1,661},{291,294,1,662},{291,295,1,663},{291,296,1,664},{291,297,1,665},{291,298,1,666},{291,299,1,667},{291,300,1,668},{291,301,1,669},{291,302,1,670},{291,303,1,671},{291,304,1,672},{291,305,1,673},{291,306,1,674},{291,307,1,675},{292,292,1,676},{292,293,1,677},{292,294,1,678},{292,295,1,679},{292,296,1,680},{292,297,1,681},{292,298,1,682},{292,299,1,683},{292,300,1,684},{292,301,1,685},{292,302,1,686},{292,303,1,687},{292,304,1,688},{292,305,1,689},{292,306,1,690},{292,307,1,691},{293,293,1,692},{293,294,1,693},{293,295,1,694},{293,296,1,695},{293,297,1,696},{293,298,1,697},{293,299,1,698},{293,300,1,699},{293,301,1,700},{293,302,1,701},{293,303,1,702},{293,304,1,703},{293,305,1,704},{293,306,1,705},{293,307,1,706},{294,294,1,707},{294,295,1,708},{294,296,1,709},{294,297,1,710},{294,298,1,711},{294,299,1,712},{294,300,1,713},{294,301,1,714},{294,302,1,715},{294,303,1,716},{294,304,1,717},{294,305,1,718},{294,306,1,719},{294,307,1,720},{295,295,1,721},{295,296,1,722},{295,297,1,723},{295,298,1,724},{295,299,1,725},{295,300,1,726},{295,301,1,727},{295,302,1,728},{295,303,1,729},{295,304,1,730},{295,305,1,731},{295,306,1,732},{295,307,1,733},{296,296,1,734},{296,297,1,735},{296,298,1,736},{296,299,1,737},{296,300,1,738},{296,301,1,739},{296,302,1,740},{296,303,1,741},{296,304,1,742},{296,305,1,743},{296,306,1,744},{296,307,1,745},{297,297,1,746},{297,298,1,747},{297,299,1,748},{297,300,1,749},{297,301,1,750},{297,302,1,751},{297,303,1,752},{297,304,1,753},{297,305,1,754},{297,306,1,755},{297,307,1,756},{298,298,1,757},{298,299,1,758},{298,300,1,759},{298,301,1,760},{298,302,1,761},{298,303,1,762},{298,304,1,763},{298,305,1,764},{298,306,1,765},{298,307,1,766},{299,299,1,767},{299,300,1,768},{299,301,1,769},{299,302,1,770},{299,303,1,771},{299,304,1,772},{299,305,1,773},{299,306,1,774},{299,307,1,775},{300,300,1,776},{300,301,1,777},{300,302,1,778},{300,303,1,779},{300,304,1,780},{300,305,1,781},{300,306,1,782},{300,307,1,783},{301,301,1,784},{301,302,1,785},{301,303,1,786},{301,304,1,787},{301,305,1,788},{301,306,1,789},{301,307,1,790},{302,302,1,791},{302,303,1,792},{302,304,1,793},{302,305,1,794},{302,306,1,795},{302,307,1,796},{303,303,1,797},{303,304,1,798},{303,305,1,799},{303,306,1,800},{303,307,1,801},{304,304,1,802},{304,305,1,803},{304,306,1,804},{304,307,1,805},{305,305,1,806},{305,306,1,807},{305,307,1,808},{306,306,1,809},{306,307,1,810},{307,307,1,811},{287,308,1,812},{287,309,1,813},{287,310,1,814},{287,311,1,815},{287,312,1,816},{287,313,1,817},{287,314,1,818},{287,315,1,819},{287,316,1,820},{287,317,1,821},{287,318,1,822},{287,319,1,823},{287,320,1,824},{287,321,1,825},{287,322,1,826},{287,323,1,827},{287,324,1,828},{287,325,1,829},{287,326,1,830},{287,327,1,831},{287,328,1,832},{288,308,1,833},{288,309,1,834},{288,310,1,835},{288,311,1,836},{288,312,1,837},{288,313,1,838},{288,314,1,839},{288,315,1,840},{288,316,1,841},{288,317,1,842},{288,318,1,843},{288,319,1,844},{288,320,1,845},{288,321,1,846},{288,322,1,847},{288,323,1,848},{288,324,1,849},{288,325,1,850},{288,326,1,851},{288,327,1,852},{288,328,1,853},{289,308,1,854},{289,309,1,855},{289,310,1,856},{289,311,1,857},{289,312,1,858},{289,313,1,859},{289,314,1,860},{289,315,1,861},{289,316,1,862},{289,317,1,863},{289,318,1,864},{289,319,1,865},{289,320,1,866},{289,321,1,867},{289,322,1,868},{289,323,1,869},{289,324,1,870},{289,325,1,871},{289,326,1,872},{289,327,1,873},{289,328,1,874},{290,308,1,875},{290,309,1,876},{290,310,1,877},{290,311,1,878},{290,312,1,879},{290,313,1,880},{290,314,1,881},{290,315,1,882},{290,316,1,883},{290,317,1,884},{290,318,1,885},{290,319,1,886},{290,320,1,887},{290,321,1,888},{290,322,1,889},{290,323,1,890},{290,324,1,891},{290,325,1,892},{290,326,1,893},{290,327,1,894},{290,328,1,895},{291,308,1,896},{291,309,1,897},{291,310,1,898},{291,311,1,899},{291,312,1,900},{291,313,1,901},{291,314,1,902},{291,315,1,903},{291,316,1,904},{291,317,1,905},{291,318,1,906},{291,319,1,907},{291,320,1,908},{291,321,1,909},{291,322,1,910},{291,323,1,911},{291,324,1,912},{291,325,1,913},{291,326,1,914},{291,327,1,915},{291,328,1,916},{292,308,1,917},{292,309,1,918},{292,310,1,919},{292,311,1,920},{292,312,1,921},{292,313,1,922},{292,314,1,923},{292,315,1,924},{292,316,1,925},{292,317,1,926},{292,318,1,927},{292,319,1,928},{292,320,1,929},{292,321,1,930},{292,322,1,931},{292,323,1,932},{292,324,1,933},{292,325,1,934},{292,326,1,935},{292,327,1,936},{292,328,1,937},{293,308,1,938},{293,309,1,939},{293,310,1,940},{293,311,1,941},{293,312,1,942},{293,313,1,943},{293,314,1,944},{293,315,1,945},{293,316,1,946},{293,317,1,947},{293,318,1,948},{293,319,1,949},{293,320,1,950},{293,321,1,951},{293,322,1,952},{293,323,1,953},{293,324,1,954},{293,325,1,955},{293,326,1,956},{293,327,1,957},{293,328,1,958},{294,308,1,959},{294,309,1,960},{294,310,1,961},{294,311,1,962},{294,312,1,963},{294,313,1,964},{294,314,1,965},{294,315,1,966},{294,316,1,967},{294,317,1,968},{294,318,1,969},{294,319,1,970},{294,320,1,971},{294,321,1,972},{294,322,1,973},{294,323,1,974},{294,324,1,975},{294,325,1,976},{294,326,1,977},{294,327,1,978},{294,328,1,979},{295,308,1,980},{295,309,1,981},{295,310,1,982},{295,311,1,983},{295,312,1,984},{295,313,1,985},{295,314,1,986},{295,315,1,987},{295,316,1,988},{295,317,1,989},{295,318,1,990},{295,319,1,991},{295,320,1,992},{295,321,1,993},{295,322,1,994},{295,323,1,995},{295,324,1,996},{295,325,1,997},{295,326,1,998},{295,327,1,999},{295,328,1,1000},{296,308,1,1001},{296,309,1,1002},{296,310,1,1003},{296,311,1,1004},{296,312,1,1005},{296,313,1,1006},{296,314,1,1007},{296,315,1,1008},{296,316,1,1009},{296,317,1,1010},{296,318,1,1011},{296,319,1,1012},{296,320,1,1013},{296,321,1,1014},{296,322,1,1015},{296,323,1,1016},{296,324,1,1017},{296,325,1,1018},{296,326,1,1019},{296,327,1,1020},{296,328,1,1021},{297,308,1,1022},{297,309,1,1023},{297,310,1,1024},{297,311,1,1025},{297,312,1,1026},{297,313,1,1027},{297,314,1,1028},{297,315,1,1029},{297,316,1,1030},{297,317,1,1031},{297,318,1,1032},{297,319,1,1033},{297,320,1,1034},{297,321,1,1035},{297,322,1,1036},{297,323,1,1037},{297,324,1,1038},{297,325,1,1039},{297,326,1,1040},{297,327,1,1041},{297,328,1,1042},{298,308,1,1043},{298,309,1,1044},{298,310,1,1045},{298,311,1,1046},{298,312,1,1047},{298,313,1,1048},{298,314,1,1049},{298,315,1,1050},{298,316,1,1051},{298,317,1,1052},{298,318,1,1053},{298,319,1,1054},{298,320,1,1055},{298,321,1,1056},{298,322,1,1057},{298,323,1,1058},{298,324,1,1059},{298,325,1,1060},{298,326,1,1061},{298,327,1,1062},{298,328,1,1063},{299,308,1,1064},{299,309,1,1065},{299,310,1,1066},{299,311,1,1067},{299,312,1,1068},{299,313,1,1069},{299,314,1,1070},{299,315,1,1071},{299,316,1,1072},{299,317,1,1073},{299,318,1,1074},{299,319,1,1075},{299,320,1,1076},{299,321,1,1077},{299,322,1,1078},{299,323,1,1079},{299,324,1,1080},{299,325,1,1081},{299,326,1,1082},{299,327,1,1083},{299,328,1,1084},{300,308,1,1085},{300,309,1,1086},{300,310,1,1087},{300,311,1,1088},{300,312,1,1089},{300,313,1,1090},{300,314,1,1091},{300,315,1,1092},{300,316,1,1093},{300,317,1,1094},{300,318,1,1095},{300,319,1,1096},{300,320,1,1097},{300,321,1,1098},{300,322,1,1099},{300,323,1,1100},{300,324,1,1101},{300,325,1,1102},{300,326,1,1103},{300,327,1,1104},{300,328,1,1105},{301,308,1,1106},{301,309,1,1107},{301,310,1,1108},{301,311,1,1109},{301,312,1,1110},{301,313,1,1111},{301,314,1,1112},{301,315,1,1113},{301,316,1,1114},{301,317,1,1115},{301,318,1,1116},{301,319,1,1117},{301,320,1,1118},{301,321,1,1119},{301,322,1,1120},{301,323,1,1121},{301,324,1,1122},{301,325,1,1123},{301,326,1,1124},{301,327,1,1125},{301,328,1,1126},{302,308,1,1127},{302,309,1,1128},{302,310,1,1129},{302,311,1,1130},{302,312,1,1131},{302,313,1,1132},{302,314,1,1133},{302,315,1,1134},{302,316,1,1135},{302,317,1,1136},{302,318,1,1137},{302,319,1,1138},{302,320,1,1139},{302,321,1,1140},{302,322,1,1141},{302,323,1,1142},{302,324,1,1143},{302,325,1,1144},{302,326,1,1145},{302,327,1,1146},{302,328,1,1147},{303,308,1,1148},{303,309,1,1149},{303,310,1,1150},{303,311,1,1151},{303,312,1,1152},{303,313,1,1153},{303,314,1,1154},{303,315,1,1155},{303,316,1,1156},{303,317,1,1157},{303,318,1,1158},{303,319,1,1159},{303,320,1,1160},{303,321,1,1161},{303,322,1,1162},{303,323,1,1163},{303,324,1,1164},{303,325,1,1165},{303,326,1,1166},{303,327,1,1167},{303,328,1,1168},{304,308,1,1169},{304,309,1,1170},{304,310,1,1171},{304,311,1,1172},{304,312,1,1173},{304,313,1,1174},{304,314,1,1175},{304,315,1,1176},{304,316,1,1177},{304,317,1,1178},{304,318,1,1179},{304,319,1,1180},{304,320,1,1181},{304,321,1,1182},{304,322,1,1183},{304,323,1,1184},{304,324,1,1185},{304,325,1,1186},{304,326,1,1187},{304,327,1,1188},{304,328,1,1189},{305,308,1,1190},{305,309,1,1191},{305,310,1,1192},{305,311,1,1193},{305,312,1,1194},{305,313,1,1195},{305,314,1,1196},{305,315,1,1197},{305,316,1,1198},{305,317,1,1199},{305,318,1,1200},{305,319,1,1201},{305,320,1,1202},{305,321,1,1203},{305,322,1,1204},{305,323,1,1205},{305,324,1,1206},{305,325,1,1207},{305,326,1,1208},{305,327,1,1209},{305,328,1,1210},{306,308,1,1211},{306,309,1,1212},{306,310,1,1213},{306,311,1,1214},{306,312,1,1215},{306,313,1,1216},{306,314,1,1217},{306,315,1,1218},{306,316,1,1219},{306,317,1,1220},{306,318,1,1221},{306,319,1,1222},{306,320,1,1223},{306,321,1,1224},{306,322,1,1225},{306,323,1,1226},{306,324,1,1227},{306,325,1,1228},{306,326,1,1229},{306,327,1,1230},{306,328,1,1231},{307,308,1,1232},{307,309,1,1233},{307,310,1,1234},{307,311,1,1235},{307,312,1,1236},{307,313,1,1237},{307,314,1,1238},{307,315,1,1239},{307,316,1,1240},{307,317,1,1241},{307,318,1,1242},{307,319,1,1243},{307,320,1,1244},{307,321,1,1245},{307,322,1,1246},{307,323,1,1247},{307,324,1,1248},{307,325,1,1249},{307,326,1,1250},{307,327,1,1251},{307,328,1,1252},{308,308,1,1253},{308,309,1,1254},{308,310,1,1255},{308,311,1,1256},{308,312,1,1257},{308,313,1,1258},{308,314,1,1259},{308,315,1,1260},{308,316,1,1261},{308,317,1,1262},{308,318,1,1263},{308,319,1,1264},{308,320,1,1265},{308,321,1,1266},{308,322,1,1267},{308,323,1,1268},{308,324,1,1269},{308,325,1,1270},{308,326,1,1271},{308,327,1,1272},{308,328,1,1273},{309,309,1,1274},{309,310,1,1275},{309,311,1,1276},{309,312,1,1277},{309,313,1,1278},{309,314,1,1279},{309,315,1,1280},{309,316,1,1281},{309,317,1,1282},{309,318,1,1283},{309,319,1,1284},{309,320,1,1285},{309,321,1,1286},{309,322,1,1287},{309,323,1,1288},{309,324,1,1289},{309,325,1,1290},{309,326,1,1291},{309,327,1,1292},{309,328,1,1293},{310,310,1,1294},{310,311,1,1295},{310,312,1,1296},{310,313,1,1297},{310,314,1,1298},{310,315,1,1299},{310,316,1,1300},{310,317,1,1301},{310,318,1,1302},{310,319,1,1303},{310,320,1,1304},{310,321,1,1305},{310,322,1,1306},{310,323,1,1307},{310,324,1,1308},{310,325,1,1309},{310,326,1,1310},{310,327,1,1311},{310,328,1,1312},{311,311,1,1313},{311,312,1,1314},{311,313,1,1315},{311,314,1,1316},{311,315,1,1317},{311,316,1,1318},{311,317,1,1319},{311,318,1,1320},{311,319,1,1321},{311,320,1,1322},{311,321,1,1323},{311,322,1,1324},{311,323,1,1325},{311,324,1,1326},{311,325,1,1327},{311,326,1,1328},{311,327,1,1329},{311,328,1,1330},{312,312,1,1331},{312,313,1,1332},{312,314,1,1333},{312,315,1,1334},{312,316,1,1335},{312,317,1,1336},{312,318,1,1337},{312,319,1,1338},{312,320,1,1339},{312,321,1,1340},{312,322,1,1341},{312,323,1,1342},{312,324,1,1343},{312,325,1,1344},{312,326,1,1345},{312,327,1,1346},{312,328,1,1347},{313,313,1,1348},{313,314,1,1349},{313,315,1,1350},{313,316,1,1351},{313,317,1,1352},{313,318,1,1353},{313,319,1,1354},{313,320,1,1355},{313,321,1,1356},{313,322,1,1357},{313,323,1,1358},{313,324,1,1359},{313,325,1,1360},{313,326,1,1361},{313,327,1,1362},{313,328,1,1363},{314,314,1,1364},{314,315,1,1365},{314,316,1,1366},{314,317,1,1367},{314,318,1,1368},{314,319,1,1369},{314,320,1,1370},{314,321,1,1371},{314,322,1,1372},{314,323,1,1373},{314,324,1,1374},{314,325,1,1375},{314,326,1,1376},{314,327,1,1377},{314,328,1,1378},{315,315,1,1379},{315,316,1,1380},{315,317,1,1381},{315,318,1,1382},{315,319,1,1383},{315,320,1,1384},{315,321,1,1385},{315,322,1,1386},{315,323,1,1387},{315,324,1,1388},{315,325,1,1389},{315,326,1,1390},{315,327,1,1391},{315,328,1,1392},{316,316,1,1393},{316,317,1,1394},{316,318,1,1395},{316,319,1,1396},{316,320,1,1397},{316,321,1,1398},{316,322,1,1399},{316,323,1,1400},{316,324,1,1401},{316,325,1,1402},{316,326,1,1403},{316,327,1,1404},{316,328,1,1405},{317,317,1,1406},{317,318,1,1407},{317,319,1,1408},{317,320,1,1409},{317,321,1,1410},{317,322,1,1411},{317,323,1,1412},{317,324,1,1413},{317,325,1,1414},{317,326,1,1415},{317,327,1,1416},{317,328,1,1417},{318,318,1,1418},{318,319,1,1419},{318,320,1,1420},{318,321,1,1421},{318,322,1,1422},{318,323,1,1423},{318,324,1,1424},{318,325,1,1425},{318,326,1,1426},{318,327,1,1427},{318,328,1,1428},{319,319,1,1429},{319,320,1,1430},{319,321,1,1431},{319,322,1,1432},{319,323,1,1433},{319,324,1,1434},{319,325,1,1435},{319,326,1,1436},{319,327,1,1437},{319,328,1,1438},{320,320,1,1439},{320,321,1,1440},{320,322,1,1441},{320,323,1,1442},{320,324,1,1443},{320,325,1,1444},{320,326,1,1445},{320,327,1,1446},{320,328,1,1447},{321,321,1,1448},{321,322,1,1449},{321,323,1,1450},{321,324,1,1451},{321,325,1,1452},{321,326,1,1453},{321,327,1,1454},{321,328,1,1455},{322,322,1,1456},{322,323,1,1457},{322,324,1,1458},{322,325,1,1459},{322,326,1,1460},{322,327,1,1461},{322,328,1,1462},{323,323,1,1463},{323,324,1,1464},{323,325,1,1465},{323,326,1,1466},{323,327,1,1467},{323,328,1,1468},{324,324,1,1469},{324,325,1,1470},{324,326,1,1471},{324,327,1,1472},{324,328,1,1473},{325,325,1,1474},{325,326,1,1475},{325,327,1,1476},{325,328,1,1477},{326,326,1,1478},{326,327,1,1479},{326,328,1,1480},{327,327,1,1481},{327,328,1,1482},{328,328,1,1483},{10,10,1,1484},{11,11,3,1484},{12,12,3,1484},{13,13,3,1484},{14,14,6,1484},{15,15,3,1484},{16,16,1,1484},{17,17,3,1484},{18,18,3,1484},{19,19,1,1484},{10,45,1,1485},{11,46,3,1485},{12,47,3,1485},{13,48,3,1485},{14,49,6,1485},{15,50,3,1485},{16,51,1,1485},{17,52,3,1485},{18,53,3,1485},{19,54,1,1485},{10,80,1,1486},{11,81,3,1486},{12,82,3,1486},{13,83,3,1486},{14,84,6,1486},{15,85,3,1486},{16,86,1,1486},{17,87,3,1486},{18,88,3,1486},{19,89,1,1486},{10,115,1,1487},{11,116,3,1487},{12,117,3,1487},{13,118,3,1487},{14,119,6,1487},{15,120,3,1487},{16,121,1,1487},{17,122,3,1487},{18,123,3,1487},{19,124,1,1487},{10,150,1,1488},{11,151,3,1488},{12,152,3,1488},{13,153,3,1488},{14,154,6,1488},{15,155,3,1488},{16,156,1,1488},{17,157,3,1488},{18,158,3,1488},{19,159,1,1488},{10,185,1,1489},{11,186,3,1489},{12,187,3,1489},{13,188,3,1489},{14,189,6,1489},{15,190,3,1489},{16,191,1,1489},{17,192,3,1489},{18,193,3,1489},{19,194,1,1489},{45,45,1,1490},{46,46,3,1490},{47,47,3,1490},{48,48,3,1490},{49,49,6,1490},{50,50,3,1490},{51,51,1,1490},{52,52,3,1490},{53,53,3,1490},{54,54,1,1490},{45,80,1,1491},{46,81,3,1491},{47,82,3,1491},{48,83,3,1491},{49,84,6,1491},{50,85,3,1491},{51,86,1,1491},{52,87,3,1491},{53,88,3,1491},{54,89,1,1491},{45,115,1,1492},{46,116,3,1492},{47,117,3,1492},{48,118,3,1492},{49,119,6,1492},{50,120,3,1492},{51,121,1,1492},{52,122,3,1492},{53,123,3,1492},{54,124,1,1492},{45,150,1,1493},{46,151,3,1493},{47,152,3,1493},{48,153,3,1493},{49,154,6,1493},{50,155,3,1493},{51,156,1,1493},{52,157,3,1493},{53,158,3,1493},{54,159,1,1493},{45,185,1,1494},{46,186,3,1494},{47,187,3,1494},{48,188,3,1494},{49,189,6,1494},{50,190,3,1494},{51,191,1,1494},{52,192,3,1494},{53,193,3,1494},{54,194,1,1494},{80,80,1,1495},{81,81,3,1495},{82,82,3,1495},{83,83,3,1495},{84,84,6,1495},{85,85,3,1495},{86,86,1,1495},{87,87,3,1495},{88,88,3,1495},{89,89,1,1495},{80,115,1,1496},{81,116,3,1496},{82,117,3,1496},{83,118,3,1496},{84,119,6,1496},{85,120,3,1496},{86,121,1,1496},{87,122,3,1496},{88,123,3,1496},{89,124,1,1496},{80,150,1,1497},{81,151,3,1497},{82,152,3,1497},{83,153,3,1497},{84,154,6,1497},{85,155,3,1497},{86,156,1,1497},{87,157,3,1497},{88,158,3,1497},{89,159,1,1497},{80,185,1,1498},{81,186,3,1498},{82,187,3,1498},{83,188,3,1498},{84,189,6,1498},{85,190,3,1498},{86,191,1,1498},{87,192,3,1498},{88,193,3,1498},{89,194,1,1498},{115,115,1,1499},{116,116,3,1499},{117,117,3,1499},{118,118,3,1499},{119,119,6,1499},{120,120,3,1499},{121,121,1,1499},{122,122,3,1499},{123,123,3,1499},{124,124,1,1499},{115,150,1,1500},{116,151,3,1500},{117,152,3,1500},{118,153,3,1500},{119,154,6,1500},{120,155,3,1500},{121,156,1,1500},{122,157,3,1500},{123,158,3,1500},{124,159,1,1500},{115,185,1,1501},{116,186,3,1501},{117,187,3,1501},{118,188,3,1501},{119,189,6,1501},{120,190,3,1501},{121,191,1,1501},{122,192,3,1501},{123,193,3,1501},{124,194,1,1501},{150,150,1,1502},{151,151,3,1502},{152,152,3,1502},{153,153,3,1502},{154,154,6,1502},{155,155,3,1502},{156,156,1,1502},{157,157,3,1502},{158,158,3,1502},{159,159,1,1502},{150,185,1,1503},{151,186,3,1503},{152,187,3,1503},{153,188,3,1503},{154,189,6,1503},{155,190,3,1503},{156,191,1,1503},{157,192,3,1503},{158,193,3,1503},{159,194,1,1503},{185,185,1,1504},{186,186,3,1504},{187,187,3,1504},{188,188,3,1504},{189,189,6,1504},{190,190,3,1504},{191,191,1,1504},{192,192,3,1504},{193,193,3,1504},{194,194,1,1504},{1,4,1,1505},{1,5,1,1506},{1,6,1,1507},{1,7,1,1508},{1,8,1,1509},{1,9,1,1510},{2,4,1,1511},{2,5,1,1512},{2,6,1,1513},{2,7,1,1514},{2,8,1,1515},{2,9,1,1516},{3,4,1,1517},{3,5,1,1518},{3,6,1,1519},{3,7,1,1520},{3,8,1,1521},{3,9,1,1522},{10,1505,1,1523},{11,1506,2,1523},{12,1507,2,1523},{13,1508,1,1523},{14,1509,2,1523},{15,1510,1,1523},{11,1511,1,1523},{13,1512,2,1523},{14,1513,2,1523},{16,1514,1,1523},{17,1515,2,1523},{18,1516,1,1523},{12,1517,1,1523},{14,1518,2,1523},{15,1519,2,1523},{17,1520,1,1523},{18,1521,2,1523},{19,1522,1,1523},{45,1505,1,1524},{46,1506,2,1524},{47,1507,2,1524},{48,1508,1,1524},{49,1509,2,1524},{50,1510,1,1524},{46,1511,1,1524},{48,1512,2,1524},{49,1513,2,1524},{51,1514,1,1524},{52,1515,2,1524},{53,1516,1,1524},{47,1517,1,1524},{49,1518,2,1524},{50,1519,2,1524},{52,1520,1,1524},{53,1521,2,1524},{54,1522,1,1524},{80,1505,1,1525},{81,1506,2,1525},{82,1507,2,1525},{83,1508,1,1525},{84,1509,2,1525},{85,1510,1,1525},{81,1511,1,1525},{83,1512,2,1525},{84,1513,2,1525},{86,1514,1,1525},{87,1515,2,1525},{88,1516,1,1525},{82,1517,1,1525},{84,1518,2,1525},{85,1519,2,1525},{87,1520,1,1525},{88,1521,2,1525},{89,1522,1,1525},{115,1505,1,1526},{116,1506,2,1526},{117,1507,2,1526},{118,1508,1,1526},{119,1509,2,1526},{120,1510,1,1526},{116,1511,1,1526},{118,1512,2,1526},{119,1513,2,1526},{121,1514,1,1526},{122,1515,2,1526},{123,1516,1,1526},{117,1517,1,1526},{119,1518,2,1526},{120,1519,2,1526},{122,1520,1,1526},{123,1521,2,1526},{124,1522,1,1526},{150,1505,1,1527},{151,1506,2,1527},{152,1507,2,1527},{153,1508,1,1527},{154,1509,2,1527},{155,1510,1,1527},{151,1511,1,1527},{153,1512,2,1527},{154,1513,2,1527},{156,1514,1,1527},{157,1515,2,1527},{158,1516,1,1527},{152,1517,1,1527},{154,1518,2,1527},{155,1519,2,1527},{157,1520,1,1527},{158,1521,2,1527},{159,1522,1,1527},{185,1505,1,1528},{186,1506,2,1528},{187,1507,2,1528},{188,1508,1,1528},{189,1509,2,1528},{190,1510,1,1528},{186,1511,1,1528},{188,1512,2,1528},{189,1513,2,1528},{191,1514,1,1528},{192,1515,2,1528},{193,1516,1,1528},{187,1517,1,1528},{189,1518,2,1528},{190,1519,2,1528},{192,1520,1,1528},{193,1521,2,1528},{194,1522,1,1528},{36,39,1,1529},{36,40,1,1530},{36,41,1,1531},{36,42,1,1532},{36,43,1,1533},{36,44,1,1534},{37,39,1,1535},{37,40,1,1536},{37,41,1,1537},{37,42,1,1538},{37,43,1,1539},{37,44,1,1540},{38,39,1,1541},{38,40,1,1542},{38,41,1,1543},{38,42,1,1544},{38,43,1,1545},{38,44,1,1546},{10,1529,1,1547},{11,1530,2,1547},{12,1531,2,1547},{13,1532,1,1547},{14,1533,2,1547},{15,1534,1,1547},{11,1535,1,1547},{13,1536,2,1547},{14,1537,2,1547},{16,1538,1,1547},{17,1539,2,1547},{18,1540,1,1547},{12,1541,1,1547},{14,1542,2,1547},{15,1543,2,1547},{17,1544,1,1547},{18,1545,2,1547},{19,1546,1,1547},{45,1529,1,1548},{46,1530,2,1548},{47,1531,2,1548},{48,1532,1,1548},{49,1533,2,1548},{50,1534,1,1548},{46,1535,1,1548},{48,1536,2,1548},{49,1537,2,1548},{51,1538,1,1548},{52,1539,2,1548},{53,1540,1,1548},{47,1541,1,1548},{49,1542,2,1548},{50,1543,2,1548},{52,1544,1,1548},{53,1545,2,1548},{54,1546,1,1548},{80,1529,1,1549},{81,1530,2,1549},{82,1531,2,1549},{83,1532,1,1549},{84,1533,2,1549},{85,1534,1,1549},{81,1535,1,1549},{83,1536,2,1549},{84,1537,2,1549},{86,1538,1,1549},{87,1539,2,1549},{88,1540,1,1549},{82,1541,1,1549},{84,1542,2,1549},{85,1543,2,1549},{87,1544,1,1549},{88,1545,2,1549},{89,1546,1,1549},{115,1529,1,1550},{116,1530,2,1550},{117,1531,2,1550},{118,1532,1,1550},{119,1533,2,1550},{120,1534,1,1550},{116,1535,1,1550},{118,1536,2,1550},{119,1537,2,1550},{121,1538,1,1550},{122,1539,2,1550},{123,1540,1,1550},{117,1541,1,1550},{119,1542,2,1550},{120,1543,2,1550},{122,1544,1,1550},{123,1545,2,1550},{124,1546,1,1550},{150,1529,1,1551},{151,1530,2,1551},{152,1531,2,1551},{153,1532,1,1551},{154,1533,2,1551},{155,1534,1,1551},{151,1535,1,1551},{153,1536,2,1551},{154,1537,2,1551},{156,1538,1,1551},{157,1539,2,1551},{158,1540,1,1551},{152,1541,1,1551},{154,1542,2,1551},{155,1543,2,1551},{157,1544,1,1551},{158,1545,2,1551},{159,1546,1,1551},{185,1529,1,1552},{186,1530,2,1552},{187,1531,2,1552},{188,1532,1,1552},{189,1533,2,1552},{190,1534,1,1552},{186,1535,1,1552},{188,1536,2,1552},{189,1537,2,1552},{191,1538,1,1552},{192,1539,2,1552},{193,1540,1,1552},{187,1541,1,1552},{189,1542,2,1552},{190,1543,2,1552},{192,1544,1,1552},{193,1545,2,1552},{194,1546,1,1552},{71,74,1,1553},{71,75,1,1554},{71,76,1,1555},{71,77,1,1556},{71,78,1,1557},{71,79,1,1558},{72,74,1,1559},{72,75,1,1560},{72,76,1,1561},{72,77,1,1562},{72,78,1,1563},{72,79,1,1564},{73,74,1,1565},{73,75,1,1566},{73,76,1,1567},{73,77,1,1568},{73,78,1,1569},{73,79,1,1570},{10,1553,1,1571},{11,1554,2,1571},{12,1555,2,1571},{13,1556,1,1571},{14,1557,2,1571},{15,1558,1,1571},{11,1559,1,1571},{13,1560,2,1571},{14,1561,2,1571},{16,1562,1,1571},{17,1563,2,1571},{18,1564,1,1571},{12,1565,1,1571},{14,1566,2,1571},{15,1567,2,1571},{17,1568,1,1571},{18,1569,2,1571},{19,1570,1,1571},{45,1553,1,1572},{46,1554,2,1572},{47,1555,2,1572},{48,1556,1,1572},{49,1557,2,1572},{50,1558,1,1572},{46,1559,1,1572},{48,1560,2,1572},{49,1561,2,1572},{51,1562,1,1572},{52,1563,2,1572},{53,1564,1,1572},{47,1565,1,1572},{49,1566,2,1572},{50,1567,2,1572},{52,1568,1,1572},{53,1569,2,1572},{54,1570,1,1572},{80,1553,1,1573},{81,1554,2,1573},{82,1555,2,1573},{83,1556,1,1573},{84,1557,2,1573},{85,1558,1,1573},{81,1559,1,1573},{83,1560,2,1573},{84,1561,2,1573},{86,1562,1,1573},{87,1563,2,1573},{88,1564,1,1573},{82,1565,1,1573},{84,1566,2,1573},{85,1567,2,1573},{87,1568,1,1573},{88,1569,2,1573},{89,1570,1,1573},{115,1553,1,1574},{116,1554,2,1574},{117,1555,2,1574},{118,1556,1,1574},{119,1557,2,1574},{120,1558,1,1574},{116,1559,1,1574},{118,1560,2,1574},{119,1561,2,1574},{121,1562,1,1574},{122,1563,2,1574},{123,1564,1,1574},{117,1565,1,1574},{119,1566,2,1574},{120,1567,2,1574},{122,1568,1,1574},{123,1569,2,1574},{124,1570,1,1574},{150,1553,1,1575},{151,1554,2,1575},{152,1555,2,1575},{153,1556,1,1575},{154,1557,2,1575},{155,1558,1,1575},{151,1559,1,1575},{153,1560,2,1575},{154,1561,2,1575},{156,1562,1,1575},{157,1563,2,1575},{158,1564,1,1575},{152,1565,1,1575},{154,1566,2,1575},{155,1567,2,1575},{157,1568,1,1575},{158,1569,2,1575},{159,1570,1,1575},{185,1553,1,1576},{186,1554,2,1576},{187,1555,2,1576},{188,1556,1,1576},{189,1557,2,1576},{190,1558,1,1576},{186,1559,1,1576},{188,1560,2,1576},{189,1561,2,1576},{191,1562,1,1576},{192,1563,2,1576},{193,1564,1,1576},{187,1565,1,1576},{189,1566,2,1576},{190,1567,2,1576},{192,1568,1,1576},{193,1569,2,1576},{194,1570,1,1576},{106,109,1,1577},{106,110,1,1578},{106,111,1,1579},{106,112,1,1580},{106,113,1,1581},{106,114,1,1582},{107,109,1,1583},{107,110,1,1584},{107,111,1,1585},{107,112,1,1586},{107,113,1,1587},{107,114,1,1588},{108,109,1,1589},{108,110,1,1590},{108,111,1,1591},{108,112,1,1592},{108,113,1,1593},{108,114,1,1594},{10,1577,1,1595},{11,1578,2,1595},{12,1579,2,1595},{13,1580,1,1595},{14,1581,2,1595},{15,1582,1,1595},{11,1583,1,1595},{13,1584,2,1595},{14,1585,2,1595},{16,1586,1,1595},{17,1587,2,1595},{18,1588,1,1595},{12,1589,1,1595},{14,1590,2,1595},{15,1591,2,1595},{17,1592,1,1595},{18,1593,2,1595},{19,1594,1,1595},{45,1577,1,1596},{46,1578,2,1596},{47,1579,2,1596},{48,1580,1,1596},{49,1581,2,1596},{50,1582,1,1596},{46,1583,1,1596},{48,1584,2,1596},{49,1585,2,1596},{51,1586,1,1596},{52,1587,2,1596},{53,1588,1,1596},{47,1589,1,1596},{49,1590,2,1596},{50,1591,2,1596},{52,1592,1,1596},{53,1593,2,1596},{54,1594,1,1596},{80,1577,1,1597},{81,1578,2,1597},{82,1579,2,1597},{83,1580,1,1597},{84,1581,2,1597},{85,1582,1,1597},{81,1583,1,1597},{83,1584,2,1597},{84,1585,2,1597},{86,1586,1,1597},{87,1587,2,1597},{88,1588,1,1597},{82,1589,1,1597},{84,1590,2,1597},{85,1591,2,1597},{87,1592,1,1597},{88,1593,2,1597},{89,1594,1,1597},{115,1577,1,1598},{116,1578,2,1598},{117,1579,2,1598},{118,1580,1,1598},{119,1581,2,1598},{120,1582,1,1598},{116,1583,1,1598},{118,1584,2,1598},{119,1585,2,1598},{121,1586,1,1598},{122,1587,2,1598},{123,1588,1,1598},{117,1589,1,1598},{119,1590,2,1598},{120,1591,2,1598},{122,1592,1,1598},{123,1593,2,1598},{124,1594,1,1598},{150,1577,1,1599},{151,1578,2,1599},{152,1579,2,1599},{153,1580,1,1599},{154,1581,2,1599},{155,1582,1,1599},{151,1583,1,1599},{153,1584,2,1599},{154,1585,2,1599},{156,1586,1,1599},{157,1587,2,1599},{158,1588,1,1599},{152,1589,1,1599},{154,1590,2,1599},{155,1591,2,1599},{157,1592,1,1599},{158,1593,2,1599},{159,1594,1,1599},{185,1577,1,1600},{186,1578,2,1600},{187,1579,2,1600},{188,1580,1,1600},{189,1581,2,1600},{190,1582,1,1600},{186,1583,1,1600},{188,1584,2,1600},{189,1585,2,1600},{191,1586,1,1600},{192,1587,2,1600},{193,1588,1,1600},{187,1589,1,1600},{189,1590,2,1600},{190,1591,2,1600},{192,1592,1,1600},{193,1593,2,1600},{194,1594,1,1600},{141,144,1,1601},{141,145,1,1602},{141,146,1,1603},{141,147,1,1604},{141,148,1,1605},{141,149,1,1606},{142,144,1,1607},{142,145,1,1608},{142,146,1,1609},{142,147,1,1610},{142,148,1,1611},{142,149,1,1612},{143,144,1,1613},{143,145,1,1614},{143,146,1,1615},{143,147,1,1616},{143,148,1,1617},{143,149,1,1618},{10,1601,1,1619},{11,1602,2,1619},{12,1603,2,1619},{13,1604,1,1619},{14,1605,2,1619},{15,1606,1,1619},{11,1607,1,1619},{13,1608,2,1619},{14,1609,2,1619},{16,1610,1,1619},{17,1611,2,1619},{18,1612,1,1619},{12,1613,1,1619},{14,1614,2,1619},{15,1615,2,1619},{17,1616,1,1619},{18,1617,2,1619},{19,1618,1,1619},{45,1601,1,1620},{46,1602,2,1620},{47,1603,2,1620},{48,1604,1,1620},{49,1605,2,1620},{50,1606,1,1620},{46,1607,1,1620},{48,1608,2,1620},{49,1609,2,1620},{51,1610,1,1620},{52,1611,2,1620},{53,1612,1,1620},{47,1613,1,1620},{49,1614,2,1620},{50,1615,2,1620},{52,1616,1,1620},{53,1617,2,1620},{54,1618,1,1620},{80,1601,1,1621},{81,1602,2,1621},{82,1603,2,1621},{83,1604,1,1621},{84,1605,2,1621},{85,1606,1,1621},{81,1607,1,1621},{83,1608,2,1621},{84,1609,2,1621},{86,1610,1,1621},{87,1611,2,1621},{88,1612,1,1621},{82,1613,1,1621},{84,1614,2,1621},{85,1615,2,1621},{87,1616,1,1621},{88,1617,2,1621},{89,1618,1,1621},{115,1601,1,1622},{116,1602,2,1622},{117,1603,2,1622},{118,1604,1,1622},{119,1605,2,1622},{120,1606,1,1622},{116,1607,1,1622},{118,1608,2,1622},{119,1609,2,1622},{121,1610,1,1622},{122,1611,2,1622},{123,1612,1,1622},{117,1613,1,1622},{119,1614,2,1622},{120,1615,2,1622},{122,1616,1,1622},{123,1617,2,1622},{124,1618,1,1622},{150,1601,1,1623},{151,1602,2,1623},{152,1603,2,1623},{153,1604,1,1623},{154,1605,2,1623},{155,1606,1,1623},{151,1607,1,1623},{153,1608,2,1623},{154,1609,2,1623},{156,1610,1,1623},{157,1611,2,1623},{158,1612,1,1623},{152,1613,1,1623},{154,1614,2,1623},{155,1615,2,1623},{157,1616,1,1623},{158,1617,2,1623},{159,1618,1,1623},{185,1601,1,1624},{186,1602,2,1624},{187,1603,2,1624},{188,1604,1,1624},{189,1605,2,1624},{190,1606,1,1624},{186,1607,1,1624},{188,1608,2,1624},{189,1609,2,1624},{191,1610,1,1624},{192,1611,2,1624},{193,1612,1,1624},{187,1613,1,1624},{189,1614,2,1624},{190,1615,2,1624},{192,1616,1,1624},{193,1617,2,1624},{194,1618,1,1624},{176,179,1,1625},{176,180,1,1626},{176,181,1,1627},{176,182,1,1628},{176,183,1,1629},{176,184,1,1630},{177,179,1,1631},{177,180,1,1632},{177,181,1,1633},{177,182,1,1634},{177,183,1,1635},{177,184,1,1636},{178,179,1,1637},{178,180,1,1638},{178,181,1,1639},{178,182,1,1640},{178,183,1,1641},{178,184,1,1642},{10,1625,1,1643},{11,1626,2,1643},{12,1627,2,1643},{13,1628,1,1643},{14,1629,2,1643},{15,1630,1,1643},{11,1631,1,1643},{13,1632,2,1643},{14,1633,2,1643},{16,1634,1,1643},{17,1635,2,1643},{18,1636,1,1643},{12,1637,1,1643},{14,1638,2,1643},{15,1639,2,1643},{17,1640,1,1643},{18,1641,2,1643},{19,1642,1,1643},{45,1625,1,1644},{46,1626,2,1644},{47,1627,2,1644},{48,1628,1,1644},{49,1629,2,1644},{50,1630,1,1644},{46,1631,1,1644},{48,1632,2,1644},{49,1633,2,1644},{51,1634,1,1644},{52,1635,2,1644},{53,1636,1,1644},{47,1637,1,1644},{49,1638,2,1644},{50,1639,2,1644},{52,1640,1,1644},{53,1641,2,1644},{54,1642,1,1644},{80,1625,1,1645},{81,1626,2,1645},{82,1627,2,1645},{83,1628,1,1645},{84,1629,2,1645},{85,1630,1,1645},{81,1631,1,1645},{83,1632,2,1645},{84,1633,2,1645},{86,1634,1,1645},{87,1635,2,1645},{88,1636,1,1645},{82,1637,1,1645},{84,1638,2,1645},{85,1639,2,1645},{87,1640,1,1645},{88,1641,2,1645},{89,1642,1,1645},{115,1625,1,1646},{116,1626,2,1646},{117,1627,2,1646},{118,1628,1,1646},{119,1629,2,1646},{120,1630,1,1646},{116,1631,1,1646},{118,1632,2,1646},{119,1633,2,1646},{121,1634,1,1646},{122,1635,2,1646},{123,1636,1,1646},{117,1637,1,1646},{119,1638,2,1646},{120,1639,2,1646},{122,1640,1,1646},{123,1641,2,1646},{124,1642,1,1646},{150,1625,1,1647},{151,1626,2,1647},{152,1627,2,1647},{153,1628,1,1647},{154,1629,2,1647},{155,1630,1,1647},{151,1631,1,1647},{153,1632,2,1647},{154,1633,2,1647},{156,1634,1,1647},{157,1635,2,1647},{158,1636,1,1647},{152,1637,1,1647},{154,1638,2,1647},{155,1639,2,1647},{157,1640,1,1647},{158,1641,2,1647},{159,1642,1,1647},{185,1625,1,1648},{186,1626,2,1648},{187,1627,2,1648},{188,1628,1,1648},{189,1629,2,1648},{190,1630,1,1648},{186,1631,1,1648},{188,1632,2,1648},{189,1633,2,1648},{191,1634,1,1648},{192,1635,2,1648},{193,1636,1,1648},{187,1637,1,1648},{189,1638,2,1648},{190,1639,2,1648},{192,1640,1,1648},{193,1641,2,1648},{194,1642,1,1648},{1505,1505,1,1649},{1506,1506,2,1649},{1507,1507,2,1649},{1508,1508,1,1649},{1509,1509,2,1649},{1510,1510,1,1649},{1511,1511,1,1649},{1512,1512,2,1649},{1513,1513,2,1649},{1514,1514,1,1649},{1515,1515,2,1649},{1516,1516,1,1649},{1517,1517,1,1649},{1518,1518,2,1649},{1519,1519,2,1649},{1520,1520,1,1649},{1521,1521,2,1649},{1522,1522,1,1649},{1505,1529,1,1650},{1506,1530,2,1650},{1507,1531,2,1650},{1508,1532,1,1650},{1509,1533,2,1650},{1510,1534,1,1650},{1511,1535,1,1650},{1512,1536,2,1650},{1513,1537,2,1650},{1514,1538,1,1650},{1515,1539,2,1650},{1516,1540,1,1650},{1517,1541,1,1650},{1518,1542,2,1650},{1519,1543,2,1650},{1520,1544,1,1650},{1521,1545,2,1650},{1522,1546,1,1650},{1505,1553,1,1651},{1506,1554,2,1651},{1507,1555,2,1651},{1508,1556,1,1651},{1509,1557,2,1651},{1510,1558,1,1651},{1511,1559,1,1651},{1512,1560,2,1651},{1513,1561,2,1651},{1514,1562,1,1651},{1515,1563,2,1651},{1516,1564,1,1651},{1517,1565,1,1651},{1518,1566,2,1651},{1519,1567,2,1651},{1520,1568,1,1651},{1521,1569,2,1651},{1522,1570,1,1651},{1505,1577,1,1652},{1506,1578,2,1652},{1507,1579,2,1652},{1508,1580,1,1652},{1509,1581,2,1652},{1510,1582,1,1652},{1511,1583,1,1652},{1512,1584,2,1652},{1513,1585,2,1652},{1514,1586,1,1652},{1515,1587,2,1652},{1516,1588,1,1652},{1517,1589,1,1652},{1518,1590,2,1652},{1519,1591,2,1652},{1520,1592,1,1652},{1521,1593,2,1652},{1522,1594,1,1652},{1505,1601,1,1653},{1506,1602,2,1653},{1507,1603,2,1653},{1508,1604,1,1653},{1509,1605,2,1653},{1510,1606,1,1653},{1511,1607,1,1653},{1512,1608,2,1653},{1513,1609,2,1653},{1514,1610,1,1653},{1515,1611,2,1653},{1516,1612,1,1653},{1517,1613,1,1653},{1518,1614,2,1653},{1519,1615,2,1653},{1520,1616,1,1653},{1521,1617,2,1653},{1522,1618,1,1653},{1505,1625,1,1654},{1506,1626,2,1654},{1507,1627,2,1654},{1508,1628,1,1654},{1509,1629,2,1654},{1510,1630,1,1654},{1511,1631,1,1654},{1512,1632,2,1654},{1513,1633,2,1654},{1514,1634,1,1654},{1515,1635,2,1654},{1516,1636,1,1654},{1517,1637,1,1654},{1518,1638,2,1654},{1519,1639,2,1654},{1520,1640,1,1654},{1521,1641,2,1654},{1522,1642,1,1654},{1529,1529,1,1655},{1530,1530,2,1655},{1531,1531,2,1655},{1532,1532,1,1655},{1533,1533,2,1655},{1534,1534,1,1655},{1535,1535,1,1655},{1536,1536,2,1655},{1537,1537,2,1655},{1538,1538,1,1655},{1539,1539,2,1655},{1540,1540,1,1655},{1541,1541,1,1655},{1542,1542,2,1655},{1543,1543,2,1655},{1544,1544,1,1655},{1545,1545,2,1655},{1546,1546,1,1655},{1529,1553,1,1656},{1530,1554,2,1656},{1531,1555,2,1656},{1532,1556,1,1656},{1533,1557,2,1656},{1534,1558,1,1656},{1535,1559,1,1656},{1536,1560,2,1656},{1537,1561,2,1656},{1538,1562,1,1656},{1539,1563,2,1656},{1540,1564,1,1656},{1541,1565,1,1656},{1542,1566,2,1656},{1543,1567,2,1656},{1544,1568,1,1656},{1545,1569,2,1656},{1546,1570,1,1656},{1529,1577,1,1657},{1530,1578,2,1657},{1531,1579,2,1657},{1532,1580,1,1657},{1533,1581,2,1657},{1534,1582,1,1657},{1535,1583,1,1657},{1536,1584,2,1657},{1537,1585,2,1657},{1538,1586,1,1657},{1539,1587,2,1657},{1540,1588,1,1657},{1541,1589,1,1657},{1542,1590,2,1657},{1543,1591,2,1657},{1544,1592,1,1657},{1545,1593,2,1657},{1546,1594,1,1657},{1529,1601,1,1658},{1530,1602,2,1658},{1531,1603,2,1658},{1532,1604,1,1658},{1533,1605,2,1658},{1534,1606,1,1658},{1535,1607,1,1658},{1536,1608,2,1658},{1537,1609,2,1658},{1538,1610,1,1658},{1539,1611,2,1658},{1540,1612,1,1658},{1541,1613,1,1658},{1542,1614,2,1658},{1543,1615,2,1658},{1544,1616,1,1658},{1545,1617,2,1658},{1546,1618,1,1658},{1529,1625,1,1659},{1530,1626,2,1659},{1531,1627,2,1659},{1532,1628,1,1659},{1533,1629,2,1659},{1534,1630,1,1659},{1535,1631,1,1659},{1536,1632,2,1659},{1537,1633,2,1659},{1538,1634,1,1659},{1539,1635,2,1659},{1540,1636,1,1659},{1541,1637,1,1659},{1542,1638,2,1659},{1543,1639,2,1659},{1544,1640,1,1659},{1545,1641,2,1659},{1546,1642,1,1659},{1553,1553,1,1660},{1554,1554,2,1660},{1555,1555,2,1660},{1556,1556,1,1660},{1557,1557,2,1660},{1558,1558,1,1660},{1559,1559,1,1660},{1560,1560,2,1660},{1561,1561,2,1660},{1562,1562,1,1660},{1563,1563,2,1660},{1564,1564,1,1660},{1565,1565,1,1660},{1566,1566,2,1660},{1567,1567,2,1660},{1568,1568,1,1660},{1569,1569,2,1660},{1570,1570,1,1660},{1553,1577,1,1661},{1554,1578,2,1661},{1555,1579,2,1661},{1556,1580,1,1661},{1557,1581,2,1661},{1558,1582,1,1661},{1559,1583,1,1661},{1560,1584,2,1661},{1561,1585,2,1661},{1562,1586,1,1661},{1563,1587,2,1661},{1564,1588,1,1661},{1565,1589,1,1661},{1566,1590,2,1661},{1567,1591,2,1661},{1568,1592,1,1661},{1569,1593,2,1661},{1570,1594,1,1661},{1553,1601,1,1662},{1554,1602,2,1662},{1555,1603,2,1662},{1556,1604,1,1662},{1557,1605,2,1662},{1558,1606,1,1662},{1559,1607,1,1662},{1560,1608,2,1662},{1561,1609,2,1662},{1562,1610,1,1662},{1563,1611,2,1662},{1564,1612,1,1662},{1565,1613,1,1662},{1566,1614,2,1662},{1567,1615,2,1662},{1568,1616,1,1662},{1569,1617,2,1662},{1570,1618,1,1662},{1553,1625,1,1663},{1554,1626,2,1663},{1555,1627,2,1663},{1556,1628,1,1663},{1557,1629,2,1663},{1558,1630,1,1663},{1559,1631,1,1663},{1560,1632,2,1663},{1561,1633,2,1663},{1562,1634,1,1663},{1563,1635,2,1663},{1564,1636,1,1663},{1565,1637,1,1663},{1566,1638,2,1663},{1567,1639,2,1663},{1568,1640,1,1663},{1569,1641,2,1663},{1570,1642,1,1663},{1577,1577,1,1664},{1578,1578,2,1664},{1579,1579,2,1664},{1580,1580,1,1664},{1581,1581,2,1664},{1582,1582,1,1664},{1583,1583,1,1664},{1584,1584,2,1664},{1585,1585,2,1664},{1586,1586,1,1664},{1587,1587,2,1664},{1588,1588,1,1664},{1589,1589,1,1664},{1590,1590,2,1664},{1591,1591,2,1664},{1592,1592,1,1664},{1593,1593,2,1664},{1594,1594,1,1664},{1577,1601,1,1665},{1578,1602,2,1665},{1579,1603,2,1665},{1580,1604,1,1665},{1581,1605,2,1665},{1582,1606,1,1665},{1583,1607,1,1665},{1584,1608,2,1665},{1585,1609,2,1665},{1586,1610,1,1665},{1587,1611,2,1665},{1588,1612,1,1665},{1589,1613,1,1665},{1590,1614,2,1665},{1591,1615,2,1665},{1592,1616,1,1665},{1593,1617,2,1665},{1594,1618,1,1665},{1577,1625,1,1666},{1578,1626,2,1666},{1579,1627,2,1666},{1580,1628,1,1666},{1581,1629,2,1666},{1582,1630,1,1666},{1583,1631,1,1666},{1584,1632,2,1666},{1585,1633,2,1666},{1586,1634,1,1666},{1587,1635,2,1666},{1588,1636,1,1666},{1589,1637,1,1666},{1590,1638,2,1666},{1591,1639,2,1666},{1592,1640,1,1666},{1593,1641,2,1666},{1594,1642,1,1666},{1601,1601,1,1667},{1602,1602,2,1667},{1603,1603,2,1667},{1604,1604,1,1667},{1605,1605,2,1667},{1606,1606,1,1667},{1607,1607,1,1667},{1608,1608,2,1667},{1609,1609,2,1667},{1610,1610,1,1667},{1611,1611,2,1667},{1612,1612,1,1667},{1613,1613,1,1667},{1614,1614,2,1667},{1615,1615,2,1667},{1616,1616,1,1667},{1617,1617,2,1667},{1618,1618,1,1667},{1601,1625,1,1668},{1602,1626,2,1668},{1603,1627,2,1668},{1604,1628,1,1668},{1605,1629,2,1668},{1606,1630,1,1668},{1607,1631,1,1668},{1608,1632,2,1668},{1609,1633,2,1668},{1610,1634,1,1668},{1611,1635,2,1668},{1612,1636,1,1668},{1613,1637,1,1668},{1614,1638,2,1668},{1615,1639,2,1668},{1616,1640,1,1668},{1617,1641,2,1668},{1618,1642,1,1668},{1625,1625,1,1669},{1626,1626,2,1669},{1627,1627,2,1669},{1628,1628,1,1669},{1629,1629,2,1669},{1630,1630,1,1669},{1631,1631,1,1669},{1632,1632,2,1669},{1633,1633,2,1669},{1634,1634,1,1669},{1635,1635,2,1669},{1636,1636,1,1669},{1637,1637,1,1669},{1638,1638,2,1669},{1639,1639,2,1669},{1640,1640,1,1669},{1641,1641,2,1669},{1642,1642,1,1669},{10,10,1,1670},{11,11,2,1670},{12,12,2,1670},{13,13,1,1670},{14,14,2,1670},{15,15,1,1670},{10,11,1,1671},{11,13,2,1671},{12,14,2,1671},{13,16,1,1671},{14,17,2,1671},{15,18,1,1671},{10,12,1,1672},{11,14,2,1672},{12,15,2,1672},{13,17,1,1672},{14,18,2,1672},{15,19,1,1672},{11,11,1,1673},{13,13,2,1673},{14,14,2,1673},{16,16,1,1673},{17,17,2,1673},{18,18,1,1673},{11,12,1,1674},{13,14,2,1674},{14,15,2,1674},{16,17,1,1674},{17,18,2,1674},{18,19,1,1674},{12,12,1,1675},{14,14,2,1675},{15,15,2,1675},{17,17,1,1675},{18,18,2,1675},{19,19,1,1675},{4,1670,1,1676},{5,1671,2,1676},{6,1672,2,1676},{7,1673,1,1676},{8,1674,2,1676},{9,1675,1,1676},{39,1670,1,1677},{40,1671,2,1677},{41,1672,2,1677},{42,1673,1,1677},{43,1674,2,1677},{44,1675,1,1677},{74,1670,1,1678},{75,1671,2,1678},{76,1672,2,1678},{77,1673,1,1678},{78,1674,2,1678},{79,1675,1,1678},{109,1670,1,1679},{110,1671,2,1679},{111,1672,2,1679},{112,1673,1,1679},{113,1674,2,1679},{114,1675,1,1679},{144,1670,1,1680},{145,1671,2,1680},{146,1672,2,1680},{147,1673,1,1680},{148,1674,2,1680},{149,1675,1,1680},{179,1670,1,1681},{180,1671,2,1681},{181,1672,2,1681},{182,1673,1,1681},{183,1674,2,1681},{184,1675,1,1681},{45,45,1,1682},{46,46,2,1682},{47,47,2,1682},{48,48,1,1682},{49,49,2,1682},{50,50,1,1682},{45,46,1,1683},{46,48,2,1683},{47,49,2,1683},{48,51,1,1683},{49,52,2,1683},{50,53,1,1683},{45,47,1,1684},{46,49,2,1684},{47,50,2,1684},{48,52,1,1684},{49,53,2,1684},{50,54,1,1684},{46,46,1,1685},{48,48,2,1685},{49,49,2,1685},{51,51,1,1685},{52,52,2,1685},{53,53,1,1685},{46,47,1,1686},{48,49,2,1686},{49,50,2,1686},{51,52,1,1686},{52,53,2,1686},{53,54,1,1686},{47,47,1,1687},{49,49,2,1687},{50,50,2,1687},{52,52,1,1687},{53,53,2,1687},{54,54,1,1687},{4,1682,1,1688},{5,1683,2,1688},{6,1684,2,1688},{7,1685,1,1688},{8,1686,2,1688},{9,1687,1,1688},{39,1682,1,1689},{40,1683,2,1689},{41,1684,2,1689},{42,1685,1,1689},{43,1686,2,1689},{44,1687,1,1689},{74,1682,1,1690},{75,1683,2,1690},{76,1684,2,1690},{77,1685,1,1690},{78,1686,2,1690},{79,1687,1,1690},{109,1682,1,1691},{110,1683,2,1691},{111,1684,2,1691},{112,1685,1,1691},{113,1686,2,1691},{114,1687,1,1691},{144,1682,1,1692},{145,1683,2,1692},{146,1684,2,1692},{147,1685,1,1692},{148,1686,2,1692},{149,1687,1,1692},{179,1682,1,1693},{180,1683,2,1693},{181,1684,2,1693},{182,1685,1,1693},{183,1686,2,1693},{184,1687,1,1693},{80,80,1,1694},{81,81,2,1694},{82,82,2,1694},{83,83,1,1694},{84,84,2,1694},{85,85,1,1694},{80,81,1,1695},{81,83,2,1695},{82,84,2,1695},{83,86,1,1695},{84,87,2,1695},{85,88,1,1695},{80,82,1,1696},{81,84,2,1696},{82,85,2,1696},{83,87,1,1696},{84,88,2,1696},{85,89,1,1696},{81,81,1,1697},{83,83,2,1697},{84,84,2,1697},{86,86,1,1697},{87,87,2,1697},{88,88,1,1697},{81,82,1,1698},{83,84,2,1698},{84,85,2,1698},{86,87,1,1698},{87,88,2,1698},{88,89,1,1698},{82,82,1,1699},{84,84,2,1699},{85,85,2,1699},{87,87,1,1699},{88,88,2,1699},{89,89,1,1699},{4,1694,1,1700},{5,1695,2,1700},{6,1696,2,1700},{7,1697,1,1700},{8,1698,2,1700},{9,1699,1,1700},{39,1694,1,1701},{40,1695,2,1701},{41,1696,2,1701},{42,1697,1,1701},{43,1698,2,1701},{44,1699,1,1701},{74,1694,1,1702},{75,1695,2,1702},{76,1696,2,1702},{77,1697,1,1702},{78,1698,2,1702},{79,1699,1,1702},{109,1694,1,1703},{110,1695,2,1703},{111,1696,2,1703},{112,1697,1,1703},{113,1698,2,1703},{114,1699,1,1703},{144,1694,1,1704},{145,1695,2,1704},{146,1696,2,1704},{147,1697,1,1704},{148,1698,2,1704},{149,1699,1,1704},{179,1694,1,1705},{180,1695,2,1705},{181,1696,2,1705},{182,1697,1,1705},{183,1698,2,1705},{184,1699,1,1705},{115,115,1,1706},{116,116,2,1706},{117,117,2,1706},{118,118,1,1706},{119,119,2,1706},{120,120,1,1706},{115,116,1,1707},{116,118,2,1707},{117,119,2,1707},{118,121,1,1707},{119,122,2,1707},{120,123,1,1707},{115,117,1,1708},{116,119,2,1708},{117,120,2,1708},{118,122,1,1708},{119,123,2,1708},{120,124,1,1708},{116,116,1,1709},{118,118,2,1709},{119,119,2,1709},{121,121,1,1709},{122,122,2,1709},{123,123,1,1709},{116,117,1,1710},{118,119,2,1710},{119,120,2,1710},{121,122,1,1710},{122,123,2,1710},{123,124,1,1710},{117,117,1,1711},{119,119,2,1711},{120,120,2,1711},{122,122,1,1711},{123,123,2,1711},{124,124,1,1711},{4,1706,1,1712},{5,1707,2,1712},{6,1708,2,1712},{7,1709,1,1712},{8,1710,2,1712},{9,1711,1,1712},{39,1706,1,1713},{40,1707,2,1713},{41,1708,2,1713},{42,1709,1,1713},{43,1710,2,1713},{44,1711,1,1713},{74,1706,1,1714},{75,1707,2,1714},{76,1708,2,1714},{77,1709,1,1714},{78,1710,2,1714},{79,1711,1,1714},{109,1706,1,1715},{110,1707,2,1715},{111,1708,2,1715},{112,1709,1,1715},{113,1710,2,1715},{114,1711,1,1715},{144,1706,1,1716},{145,1707,2,1716},{146,1708,2,1716},{147,1709,1,1716},{148,1710,2,1716},{149,1711,1,1716},{179,1706,1,1717},{180,1707,2,1717},{181,1708,2,1717},{182,1709,1,1717},{183,1710,2,1717},{184,1711,1,1717},{150,150,1,1718},{151,151,2,1718},{152,152,2,1718},{153,153,1,1718},{154,154,2,1718},{155,155,1,1718},{150,151,1,1719},{151,153,2,1719},{152,154,2,1719},{153,156,1,1719},{154,157,2,1719},{155,158,1,1719},{150,152,1,1720},{151,154,2,1720},{152,155,2,1720},{153,157,1,1720},{154,158,2,1720},{155,159,1,1720},{151,151,1,1721},{153,153,2,1721},{154,154,2,1721},{156,156,1,1721},{157,157,2,1721},{158,158,1,1721},{151,152,1,1722},{153,154,2,1722},{154,155,2,1722},{156,157,1,1722},{157,158,2,1722},{158,159,1,1722},{152,152,1,1723},{154,154,2,1723},{155,155,2,1723},{157,157,1,1723},{158,158,2,1723},{159,159,1,1723},{4,1718,1,1724},{5,1719,2,1724},{6,1720,2,1724},{7,1721,1,1724},{8,1722,2,1724},{9,1723,1,1724},{39,1718,1,1725},{40,1719,2,1725},{41,1720,2,1725},{42,1721,1,1725},{43,1722,2,1725},{44,1723,1,1725},{74,1718,1,1726},{75,1719,2,1726},{76,1720,2,1726},{77,1721,1,1726},{78,1722,2,1726},{79,1723,1,1726},{109,1718,1,1727},{110,1719,2,1727},{111,1720,2,1727},{112,1721,1,1727},{113,1722,2,1727},{114,1723,1,1727},{144,1718,1,1728},{145,1719,2,1728},{146,1720,2,1728},{147,1721,1,1728},{148,1722,2,1728},{149,1723,1,1728},{179,1718,1,1729},{180,1719,2,1729},{181,1720,2,1729},{182,1721,1,1729},{183,1722,2,1729},{184,1723,1,1729},{185,185,1,1730},{186,186,2,1730},{187,187,2,1730},{188,188,1,1730},{189,189,2,1730},{190,190,1,1730},{185,186,1,1731},{186,188,2,1731},{187,189,2,1731},{188,191,1,1731},{189,192,2,1731},{190,193,1,1731},{185,187,1,1732},{186,189,2,1732},{187,190,2,1732},{188,192,1,1732},{189,193,2,1732},{190,194,1,1732},{186,186,1,1733},{188,188,2,1733},{189,189,2,1733},{191,191,1,1733},{192,192,2,1733},{193,193,1,1733},{186,187,1,1734},{188,189,2,1734},{189,190,2,1734},{191,192,1,1734},{192,193,2,1734},{193,194,1,1734},{187,187,1,1735},{189,189,2,1735},{190,190,2,1735},{192,192,1,1735},{193,193,2,1735},{194,194,1,1735},{4,1730,1,1736},{5,1731,2,1736},{6,1732,2,1736},{7,1733,1,1736},{8,1734,2,1736},{9,1735,1,1736},{39,1730,1,1737},{40,1731,2,1737},{41,1732,2,1737},{42,1733,1,1737},{43,1734,2,1737},{44,1735,1,1737},{74,1730,1,1738},{75,1731,2,1738},{76,1732,2,1738},{77,1733,1,1738},{78,1734,2,1738},{79,1735,1,1738},{109,1730,1,1739},{110,1731,2,1739},{111,1732,2,1739},{112,1733,1,1739},{113,1734,2,1739},{114,1735,1,1739},{144,1730,1,1740},{145,1731,2,1740},{146,1732,2,1740},{147,1733,1,1740},{148,1734,2,1740},{149,1735,1,1740},{179,1730,1,1741},{180,1731,2,1741},{181,1732,2,1741},{182,1733,1,1741},{183,1734,2,1741},{184,1735,1,1741},{1670,1670,1,1742},{1671,1671,2,1742},{1672,1672,2,1742},{1673,1673,1,1742},{1674,1674,2,1742},{1675,1675,1,1742},{1670,1682,1,1743},{1671,1683,2,1743},{1672,1684,2,1743},{1673,1685,1,1743},{1674,1686,2,1743},{1675,1687,1,1743},{1670,1694,1,1744},{1671,1695,2,1744},{1672,1696,2,1744},{1673,1697,1,1744},{1674,1698,2,1744},{1675,1699,1,1744},{1670,1706,1,1745},{1671,1707,2,1745},{1672,1708,2,1745},{1673,1709,1,1745},{1674,1710,2,1745},{1675,1711,1,1745},{1670,1718,1,1746},{1671,1719,2,1746},{1672,1720,2,1746},{1673,1721,1,1746},{1674,1722,2,1746},{1675,1723,1,1746},{1670,1730,1,1747},{1671,1731,2,1747},{1672,1732,2,1747},{1673,1733,1,1747},{1674,1734,2,1747},{1675,1735,1,1747},{1682,1682,1,1748},{1683,1683,2,1748},{1684,1684,2,1748},{1685,1685,1,1748},{1686,1686,2,1748},{1687,1687,1,1748},{1682,1694,1,1749},{1683,1695,2,1749},{1684,1696,2,1749},{1685,1697,1,1749},{1686,1698,2,1749},{1687,1699,1,1749},{1682,1706,1,1750},{1683,1707,2,1750},{1684,1708,2,1750},{1685,1709,1,1750},{1686,1710,2,1750},{1687,1711,1,1750},{1682,1718,1,1751},{1683,1719,2,1751},{1684,1720,2,1751},{1685,1721,1,1751},{1686,1722,2,1751},{1687,1723,1,1751},{1682,1730,1,1752},{1683,1731,2,1752},{1684,1732,2,1752},{1685,1733,1,1752},{1686,1734,2,1752},{1687,1735,1,1752},{1694,1694,1,1753},{1695,1695,2,1753},{1696,1696,2,1753},{1697,1697,1,1753},{1698,1698,2,1753},{1699,1699,1,1753},{1694,1706,1,1754},{1695,1707,2,1754},{1696,1708,2,1754},{1697,1709,1,1754},{1698,1710,2,1754},{1699,1711,1,1754},{1694,1718,1,1755},{1695,1719,2,1755},{1696,1720,2,1755},{1697,1721,1,1755},{1698,1722,2,1755},{1699,1723,1,1755},{1694,1730,1,1756},{1695,1731,2,1756},{1696,1732,2,1756},{1697,1733,1,1756},{1698,1734,2,1756},{1699,1735,1,1756},{1706,1706,1,1757},{1707,1707,2,1757},{1708,1708,2,1757},{1709,1709,1,1757},{1710,1710,2,1757},{1711,1711,1,1757},{1706,1718,1,1758},{1707,1719,2,1758},{1708,1720,2,1758},{1709,1721,1,1758},{1710,1722,2,1758},{1711,1723,1,1758},{1706,1730,1,1759},{1707,1731,2,1759},{1708,1732,2,1759},{1709,1733,1,1759},{1710,1734,2,1759},{1711,1735,1,1759},{1718,1718,1,1760},{1719,1719,2,1760},{1720,1720,2,1760},{1721,1721,1,1760},{1722,1722,2,1760},{1723,1723,1,1760},{1718,1730,1,1761},{1719,1731,2,1761},{1720,1732,2,1761},{1721,1733,1,1761},{1722,1734,2,1761},{1723,1735,1,1761},{1730,1730,1,1762},{1731,1731,2,1762},{1732,1732,2,1762},{1733,1733,1,1762},{1734,1734,2,1762},{1735,1735,1,1762},{287,1484,1,1763},{287,1485,1,1764},{287,1486,1,1765},{287,1487,1,1766},{287,1488,1,1767},{287,1489,1,1768},{287,1490,1,1769},{287,1491,1,1770},{287,1492,1,1771},{287,1493,1,1772},{287,1494,1,1773},{287,1495,1,1774},{287,1496,1,1775},{287,1497,1,1776},{287,1498,1,1777},{287,1499,1,1778},{287,1500,1,1779},{287,1501,1,1780},{287,1502,1,1781},{287,1503,1,1782},{287,1504,1,1783},{288,1484,1,1784},{288,1485,1,1785},{288,1486,1,1786},{288,1487,1,1787},{288,1488,1,1788},{288,1489,1,1789},{288,1490,1,1790},{288,1491,1,1791},{288,1492,1,1792},{288,1493,1,1793},{288,1494,1,1794},{288,1495,1,1795},{288,1496,1,1796},{288,1497,1,1797},{288,1498,1,1798},{288,1499,1,1799},{288,1500,1,1800},{288,1501,1,1801},{288,1502,1,1802},{288,1503,1,1803},{288,1504,1,1804},{289,1484,1,1805},{289,1485,1,1806},{289,1486,1,1807},{289,1487,1,1808},{289,1488,1,1809},{289,1489,1,1810},{289,1490,1,1811},{289,1491,1,1812},{289,1492,1,1813},{289,1493,1,1814},{289,1494,1,1815},{289,1495,1,1816},{289,1496,1,1817},{289,1497,1,1818},{289,1498,1,1819},{289,1499,1,1820},{289,1500,1,1821},{289,1501,1,1822},{289,1502,1,1823},{289,1503,1,1824},{289,1504,1,1825},{290,1484,1,1826},{290,1485,1,1827},{290,1486,1,1828},{290,1487,1,1829},{290,1488,1,1830},{290,1489,1,1831},{290,1490,1,1832},{290,1491,1,1833},{290,1492,1,1834},{290,1493,1,1835},{290,1494,1,1836},{290,1495,1,1837},{290,1496,1,1838},{290,1497,1,1839},{290,1498,1,1840},{290,1499,1,1841},{290,1500,1,1842},{290,1501,1,1843},{290,1502,1,1844},{290,1503,1,1845},{290,1504,1,1846},{291,1484,1,1847},{291,1485,1,1848},{291,1486,1,1849},{291,1487,1,1850},{291,1488,1,1851},{291,1489,1,1852},{291,1490,1,1853},{291,1491,1,1854},{291,1492,1,1855},{291,1493,1,1856},{291,1494,1,1857},{291,1495,1,1858},{291,1496,1,1859},{291,1497,1,1860},{291,1498,1,1861},{291,1499,1,1862},{291,1500,1,1863},{291,1501,1,1864},{291,1502,1,1865},{291,1503,1,1866},{291,1504,1,1867},{292,1484,1,1868},{292,1485,1,1869},{292,1486,1,1870},{292,1487,1,1871},{292,1488,1,1872},{292,1489,1,1873},{292,1490,1,1874},{292,1491,1,1875},{292,1492,1,1876},{292,1493,1,1877},{292,1494,1,1878},{292,1495,1,1879},{292,1496,1,1880},{292,1497,1,1881},{292,1498,1,1882},{292,1499,1,1883},{292,1500,1,1884},{292,1501,1,1885},{292,1502,1,1886},{292,1503,1,1887},{292,1504,1,1888},{293,1484,1,1889},{293,1485,1,1890},{293,1486,1,1891},{293,1487,1,1892},{293,1488,1,1893},{293,1489,1,1894},{293,1490,1,1895},{293,1491,1,1896},{293,1492,1,1897},{293,1493,1,1898},{293,1494,1,1899},{293,1495,1,1900},{293,1496,1,1901},{293,1497,1,1902},{293,1498,1,1903},{293,1499,1,1904},{293,1500,1,1905},{293,1501,1,1906},{293,1502,1,1907},{293,1503,1,1908},{293,1504,1,1909},{294,1484,1,1910},{294,1485,1,1911},{294,1486,1,1912},{294,1487,1,1913},{294,1488,1,1914},{294,1489,1,1915},{294,1490,1,1916},{294,1491,1,1917},{294,1492,1,1918},{294,1493,1,1919},{294,1494,1,1920},{294,1495,1,1921},{294,1496,1,1922},{294,1497,1,1923},{294,1498,1,1924},{294,1499,1,1925},{294,1500,1,1926},{294,1501,1,1927},{294,1502,1,1928},{294,1503,1,1929},{294,1504,1,1930},{295,1484,1,1931},{295,1485,1,1932},{295,1486,1,1933},{295,1487,1,1934},{295,1488,1,1935},{295,1489,1,1936},{295,1490,1,1937},{295,1491,1,1938},{295,1492,1,1939},{295,1493,1,1940},{295,1494,1,1941},{295,1495,1,1942},{295,1496,1,1943},{295,1497,1,1944},{295,1498,1,1945},{295,1499,1,1946},{295,1500,1,1947},{295,1501,1,1948},{295,1502,1,1949},{295,1503,1,1950},{295,1504,1,1951},{296,1484,1,1952},{296,1485,1,1953},{296,1486,1,1954},{296,1487,1,1955},{296,1488,1,1956},{296,1489,1,1957},{296,1490,1,1958},{296,1491,1,1959},{296,1492,1,1960},{296,1493,1,1961},{296,1494,1,1962},{296,1495,1,1963},{296,1496,1,1964},{296,1497,1,1965},{296,1498,1,1966},{296,1499,1,1967},{296,1500,1,1968},{296,1501,1,1969},{296,1502,1,1970},{296,1503,1,1971},{296,1504,1,1972},{297,1484,1,1973},{297,1485,1,1974},{297,1486,1,1975},{297,1487,1,1976},{297,1488,1,1977},{297,1489,1,1978},{297,1490,1,1979},{297,1491,1,1980},{297,1492,1,1981},{297,1493,1,1982},{297,1494,1,1983},{297,1495,1,1984},{297,1496,1,1985},{297,1497,1,1986},{297,1498,1,1987},{297,1499,1,1988},{297,1500,1,1989},{297,1501,1,1990},{297,1502,1,1991},{297,1503,1,1992},{297,1504,1,1993},{298,1484,1,1994},{298,1485,1,1995},{298,1486,1,1996},{298,1487,1,1997},{298,1488,1,1998},{298,1489,1,1999},{298,1490,1,2000},{298,1491,1,2001},{298,1492,1,2002},{298,1493,1,2003},{298,1494,1,2004},{298,1495,1,2005},{298,1496,1,2006},{298,1497,1,2007},{298,1498,1,2008},{298,1499,1,2009},{298,1500,1,2010},{298,1501,1,2011},{298,1502,1,2012},{298,1503,1,2013},{298,1504,1,2014},{299,1484,1,2015},{299,1485,1,2016},{299,1486,1,2017},{299,1487,1,2018},{299,1488,1,2019},{299,1489,1,2020},{299,1490,1,2021},{299,1491,1,2022},{299,1492,1,2023},{299,1493,1,2024},{299,1494,1,2025},{299,1495,1,2026},{299,1496,1,2027},{299,1497,1,2028},{299,1498,1,2029},{299,1499,1,2030},{299,1500,1,2031},{299,1501,1,2032},{299,1502,1,2033},{299,1503,1,2034},{299,1504,1,2035},{300,1484,1,2036},{300,1485,1,2037},{300,1486,1,2038},{300,1487,1,2039},{300,1488,1,2040},{300,1489,1,2041},{300,1490,1,2042},{300,1491,1,2043},{300,1492,1,2044},{300,1493,1,2045},{300,1494,1,2046},{300,1495,1,2047},{300,1496,1,2048},{300,1497,1,2049},{300,1498,1,2050},{300,1499,1,2051},{300,1500,1,2052},{300,1501,1,2053},{300,1502,1,2054},{300,1503,1,2055},{300,1504,1,2056},{301,1484,1,2057},{301,1485,1,2058},{301,1486,1,2059},{301,1487,1,2060},{301,1488,1,2061},{301,1489,1,2062},{301,1490,1,2063},{301,1491,1,2064},{301,1492,1,2065},{301,1493,1,2066},{301,1494,1,2067},{301,1495,1,2068},{301,1496,1,2069},{301,1497,1,2070},{301,1498,1,2071},{301,1499,1,2072},{301,1500,1,2073},{301,1501,1,2074},{301,1502,1,2075},{301,1503,1,2076},{301,1504,1,2077},{302,1484,1,2078},{302,1485,1,2079},{302,1486,1,2080},{302,1487,1,2081},{302,1488,1,2082},{302,1489,1,2083},{302,1490,1,2084},{302,1491,1,2085},{302,1492,1,2086},{302,1493,1,2087},{302,1494,1,2088},{302,1495,1,2089},{302,1496,1,2090},{302,1497,1,2091},{302,1498,1,2092},{302,1499,1,2093},{302,1500,1,2094},{302,1501,1,2095},{302,1502,1,2096},{302,1503,1,2097},{302,1504,1,2098},{303,1484,1,2099},{303,1485,1,2100},{303,1486,1,2101},{303,1487,1,2102},{303,1488,1,2103},{303,1489,1,2104},{303,1490,1,2105},{303,1491,1,2106},{303,1492,1,2107},{303,1493,1,2108},{303,1494,1,2109},{303,1495,1,2110},{303,1496,1,2111},{303,1497,1,2112},{303,1498,1,2113},{303,1499,1,2114},{303,1500,1,2115},{303,1501,1,2116},{303,1502,1,2117},{303,1503,1,2118},{303,1504,1,2119},{304,1484,1,2120},{304,1485,1,2121},{304,1486,1,2122},{304,1487,1,2123},{304,1488,1,2124},{304,1489,1,2125},{304,1490,1,2126},{304,1491,1,2127},{304,1492,1,2128},{304,1493,1,2129},{304,1494,1,2130},{304,1495,1,2131},{304,1496,1,2132},{304,1497,1,2133},{304,1498,1,2134},{304,1499,1,2135},{304,1500,1,2136},{304,1501,1,2137},{304,1502,1,2138},{304,1503,1,2139},{304,1504,1,2140},{305,1484,1,2141},{305,1485,1,2142},{305,1486,1,2143},{305,1487,1,2144},{305,1488,1,2145},{305,1489,1,2146},{305,1490,1,2147},{305,1491,1,2148},{305,1492,1,2149},{305,1493,1,2150},{305,1494,1,2151},{305,1495,1,2152},{305,1496,1,2153},{305,1497,1,2154},{305,1498,1,2155},{305,1499,1,2156},{305,1500,1,2157},{305,1501,1,2158},{305,1502,1,2159},{305,1503,1,2160},{305,1504,1,2161},{306,1484,1,2162},{306,1485,1,2163},{306,1486,1,2164},{306,1487,1,2165},{306,1488,1,2166},{306,1489,1,2167},{306,1490,1,2168},{306,1491,1,2169},{306,1492,1,2170},{306,1493,1,2171},{306,1494,1,2172},{306,1495,1,2173},{306,1496,1,2174},{306,1497,1,2175},{306,1498,1,2176},{306,1499,1,2177},{306,1500,1,2178},{306,1501,1,2179},{306,1502,1,2180},{306,1503,1,2181},{306,1504,1,2182},{307,1484,1,2183},{307,1485,1,2184},{307,1486,1,2185},{307,1487,1,2186},{307,1488,1,2187},{307,1489,1,2188},{307,1490,1,2189},{307,1491,1,2190},{307,1492,1,2191},{307,1493,1,2192},{307,1494,1,2193},{307,1495,1,2194},{307,1496,1,2195},{307,1497,1,2196},{307,1498,1,2197},{307,1499,1,2198},{307,1500,1,2199},{307,1501,1,2200},{307,1502,1,2201},{307,1503,1,2202},{307,1504,1,2203},{308,1484,1,2204},{308,1485,1,2205},{308,1486,1,2206},{308,1487,1,2207},{308,1488,1,2208},{308,1489,1,2209},{308,1490,1,2210},{308,1491,1,2211},{308,1492,1,2212},{308,1493,1,2213},{308,1494,1,2214},{308,1495,1,2215},{308,1496,1,2216},{308,1497,1,2217},{308,1498,1,2218},{308,1499,1,2219},{308,1500,1,2220},{308,1501,1,2221},{308,1502,1,2222},{308,1503,1,2223},{308,1504,1,2224},{309,1484,1,2225},{309,1485,1,2226},{309,1486,1,2227},{309,1487,1,2228},{309,1488,1,2229},{309,1489,1,2230},{309,1490,1,2231},{309,1491,1,2232},{309,1492,1,2233},{309,1493,1,2234},{309,1494,1,2235},{309,1495,1,2236},{309,1496,1,2237},{309,1497,1,2238},{309,1498,1,2239},{309,1499,1,2240},{309,1500,1,2241},{309,1501,1,2242},{309,1502,1,2243},{309,1503,1,2244},{309,1504,1,2245},{310,1484,1,2246},{310,1485,1,2247},{310,1486,1,2248},{310,1487,1,2249},{310,1488,1,2250},{310,1489,1,2251},{310,1490,1,2252},{310,1491,1,2253},{310,1492,1,2254},{310,1493,1,2255},{310,1494,1,2256},{310,1495,1,2257},{310,1496,1,2258},{310,1497,1,2259},{310,1498,1,2260},{310,1499,1,2261},{310,1500,1,2262},{310,1501,1,2263},{310,1502,1,2264},{310,1503,1,2265},{310,1504,1,2266},{311,1484,1,2267},{311,1485,1,2268},{311,1486,1,2269},{311,1487,1,2270},{311,1488,1,2271},{311,1489,1,2272},{311,1490,1,2273},{311,1491,1,2274},{311,1492,1,2275},{311,1493,1,2276},{311,1494,1,2277},{311,1495,1,2278},{311,1496,1,2279},{311,1497,1,2280},{311,1498,1,2281},{311,1499,1,2282},{311,1500,1,2283},{311,1501,1,2284},{311,1502,1,2285},{311,1503,1,2286},{311,1504,1,2287},{312,1484,1,2288},{312,1485,1,2289},{312,1486,1,2290},{312,1487,1,2291},{312,1488,1,2292},{312,1489,1,2293},{312,1490,1,2294},{312,1491,1,2295},{312,1492,1,2296},{312,1493,1,2297},{312,1494,1,2298},{312,1495,1,2299},{312,1496,1,2300},{312,1497,1,2301},{312,1498,1,2302},{312,1499,1,2303},{312,1500,1,2304},{312,1501,1,2305},{312,1502,1,2306},{312,1503,1,2307},{312,1504,1,2308},{313,1484,1,2309},{313,1485,1,2310},{313,1486,1,2311},{313,1487,1,2312},{313,1488,1,2313},{313,1489,1,2314},{313,1490,1,2315},{313,1491,1,2316},{313,1492,1,2317},{313,1493,1,2318},{313,1494,1,2319},{313,1495,1,2320},{313,1496,1,2321},{313,1497,1,2322},{313,1498,1,2323},{313,1499,1,2324},{313,1500,1,2325},{313,1501,1,2326},{313,1502,1,2327},{313,1503,1,2328},{313,1504,1,2329},{314,1484,1,2330},{314,1485,1,2331},{314,1486,1,2332},{314,1487,1,2333},{314,1488,1,2334},{314,1489,1,2335},{314,1490,1,2336},{314,1491,1,2337},{314,1492,1,2338},{314,1493,1,2339},{314,1494,1,2340},{314,1495,1,2341},{314,1496,1,2342},{314,1497,1,2343},{314,1498,1,2344},{314,1499,1,2345},{314,1500,1,2346},{314,1501,1,2347},{314,1502,1,2348},{314,1503,1,2349},{314,1504,1,2350},{315,1484,1,2351},{315,1485,1,2352},{315,1486,1,2353},{315,1487,1,2354},{315,1488,1,2355},{315,1489,1,2356},{315,1490,1,2357},{315,1491,1,2358},{315,1492,1,2359},{315,1493,1,2360},{315,1494,1,2361},{315,1495,1,2362},{315,1496,1,2363},{315,1497,1,2364},{315,1498,1,2365},{315,1499,1,2366},{315,1500,1,2367},{315,1501,1,2368},{315,1502,1,2369},{315,1503,1,2370},{315,1504,1,2371},{316,1484,1,2372},{316,1485,1,2373},{316,1486,1,2374},{316,1487,1,2375},{316,1488,1,2376},{316,1489,1,2377},{316,1490,1,2378},{316,1491,1,2379},{316,1492,1,2380},{316,1493,1,2381},{316,1494,1,2382},{316,1495,1,2383},{316,1496,1,2384},{316,1497,1,2385},{316,1498,1,2386},{316,1499,1,2387},{316,1500,1,2388},{316,1501,1,2389},{316,1502,1,2390},{316,1503,1,2391},{316,1504,1,2392},{317,1484,1,2393},{317,1485,1,2394},{317,1486,1,2395},{317,1487,1,2396},{317,1488,1,2397},{317,1489,1,2398},{317,1490,1,2399},{317,1491,1,2400},{317,1492,1,2401},{317,1493,1,2402},{317,1494,1,2403},{317,1495,1,2404},{317,1496,1,2405},{317,1497,1,2406},{317,1498,1,2407},{317,1499,1,2408},{317,1500,1,2409},{317,1501,1,2410},{317,1502,1,2411},{317,1503,1,2412},{317,1504,1,2413},{318,1484,1,2414},{318,1485,1,2415},{318,1486,1,2416},{318,1487,1,2417},{318,1488,1,2418},{318,1489,1,2419},{318,1490,1,2420},{318,1491,1,2421},{318,1492,1,2422},{318,1493,1,2423},{318,1494,1,2424},{318,1495,1,2425},{318,1496,1,2426},{318,1497,1,2427},{318,1498,1,2428},{318,1499,1,2429},{318,1500,1,2430},{318,1501,1,2431},{318,1502,1,2432},{318,1503,1,2433},{318,1504,1,2434},{319,1484,1,2435},{319,1485,1,2436},{319,1486,1,2437},{319,1487,1,2438},{319,1488,1,2439},{319,1489,1,2440},{319,1490,1,2441},{319,1491,1,2442},{319,1492,1,2443},{319,1493,1,2444},{319,1494,1,2445},{319,1495,1,2446},{319,1496,1,2447},{319,1497,1,2448},{319,1498,1,2449},{319,1499,1,2450},{319,1500,1,2451},{319,1501,1,2452},{319,1502,1,2453},{319,1503,1,2454},{319,1504,1,2455},{320,1484,1,2456},{320,1485,1,2457},{320,1486,1,2458},{320,1487,1,2459},{320,1488,1,2460},{320,1489,1,2461},{320,1490,1,2462},{320,1491,1,2463},{320,1492,1,2464},{320,1493,1,2465},{320,1494,1,2466},{320,1495,1,2467},{320,1496,1,2468},{320,1497,1,2469},{320,1498,1,2470},{320,1499,1,2471},{320,1500,1,2472},{320,1501,1,2473},{320,1502,1,2474},{320,1503,1,2475},{320,1504,1,2476},{321,1484,1,2477},{321,1485,1,2478},{321,1486,1,2479},{321,1487,1,2480},{321,1488,1,2481},{321,1489,1,2482},{321,1490,1,2483},{321,1491,1,2484},{321,1492,1,2485},{321,1493,1,2486},{321,1494,1,2487},{321,1495,1,2488},{321,1496,1,2489},{321,1497,1,2490},{321,1498,1,2491},{321,1499,1,2492},{321,1500,1,2493},{321,1501,1,2494},{321,1502,1,2495},{321,1503,1,2496},{321,1504,1,2497},{322,1484,1,2498},{322,1485,1,2499},{322,1486,1,2500},{322,1487,1,2501},{322,1488,1,2502},{322,1489,1,2503},{322,1490,1,2504},{322,1491,1,2505},{322,1492,1,2506},{322,1493,1,2507},{322,1494,1,2508},{322,1495,1,2509},{322,1496,1,2510},{322,1497,1,2511},{322,1498,1,2512},{322,1499,1,2513},{322,1500,1,2514},{322,1501,1,2515},{322,1502,1,2516},{322,1503,1,2517},{322,1504,1,2518},{323,1484,1,2519},{323,1485,1,2520},{323,1486,1,2521},{323,1487,1,2522},{323,1488,1,2523},{323,1489,1,2524},{323,1490,1,2525},{323,1491,1,2526},{323,1492,1,2527},{323,1493,1,2528},{323,1494,1,2529},{323,1495,1,2530},{323,1496,1,2531},{323,1497,1,2532},{323,1498,1,2533},{323,1499,1,2534},{323,1500,1,2535},{323,1501,1,2536},{323,1502,1,2537},{323,1503,1,2538},{323,1504,1,2539},{324,1484,1,2540},{324,1485,1,2541},{324,1486,1,2542},{324,1487,1,2543},{324,1488,1,2544},{324,1489,1,2545},{324,1490,1,2546},{324,1491,1,2547},{324,1492,1,2548},{324,1493,1,2549},{324,1494,1,2550},{324,1495,1,2551},{324,1496,1,2552},{324,1497,1,2553},{324,1498,1,2554},{324,1499,1,2555},{324,1500,1,2556},{324,1501,1,2557},{324,1502,1,2558},{324,1503,1,2559},{324,1504,1,2560},{325,1484,1,2561},{325,1485,1,2562},{325,1486,1,2563},{325,1487,1,2564},{325,1488,1,2565},{325,1489,1,2566},{325,1490,1,2567},{325,1491,1,2568},{325,1492,1,2569},{325,1493,1,2570},{325,1494,1,2571},{325,1495,1,2572},{325,1496,1,2573},{325,1497,1,2574},{325,1498,1,2575},{325,1499,1,2576},{325,1500,1,2577},{325,1501,1,2578},{325,1502,1,2579},{325,1503,1,2580},{325,1504,1,2581},{326,1484,1,2582},{326,1485,1,2583},{326,1486,1,2584},{326,1487,1,2585},{326,1488,1,2586},{326,1489,1,2587},{326,1490,1,2588},{326,1491,1,2589},{326,1492,1,2590},{326,1493,1,2591},{326,1494,1,2592},{326,1495,1,2593},{326,1496,1,2594},{326,1497,1,2595},{326,1498,1,2596},{326,1499,1,2597},{326,1500,1,2598},{326,1501,1,2599},{326,1502,1,2600},{326,1503,1,2601},{326,1504,1,2602},{327,1484,1,2603},{327,1485,1,2604},{327,1486,1,2605},{327,1487,1,2606},{327,1488,1,2607},{327,1489,1,2608},{327,1490,1,2609},{327,1491,1,2610},{327,1492,1,2611},{327,1493,1,2612},{327,1494,1,2613},{327,1495,1,2614},{327,1496,1,2615},{327,1497,1,2616},{327,1498,1,2617},{327,1499,1,2618},{327,1500,1,2619},{327,1501,1,2620},{327,1502,1,2621},{327,1503,1,2622},{327,1504,1,2623},{328,1484,1,2624},{328,1485,1,2625},{328,1486,1,2626},{328,1487,1,2627},{328,1488,1,2628},{328,1489,1,2629},{328,1490,1,2630},{328,1491,1,2631},{328,1492,1,2632},{328,1493,1,2633},{328,1494,1,2634},{328,1495,1,2635},{328,1496,1,2636},{328,1497,1,2637},{328,1498,1,2638},{328,1499,1,2639},{328,1500,1,2640},{328,1501,1,2641},{328,1502,1,2642},{328,1503,1,2643},{328,1504,1,2644},{1484,1484,1,2645},{1484,1485,1,2646},{1484,1486,1,2647},{1484,1487,1,2648},{1484,1488,1,2649},{1484,1489,1,2650},{1484,1490,1,2651},{1484,1491,1,2652},{1484,1492,1,2653},{1484,1493,1,2654},{1484,1494,1,2655},{1484,1495,1,2656},{1484,1496,1,2657},{1484,1497,1,2658},{1484,1498,1,2659},{1484,1499,1,2660},{1484,1500,1,2661},{1484,1501,1,2662},{1484,1502,1,2663},{1484,1503,1,2664},{1484,1504,1,2665},{1485,1485,1,2666},{1485,1486,1,2667},{1485,1487,1,2668},{1485,1488,1,2669},{1485,1489,1,2670},{1485,1490,1,2671},{1485,1491,1,2672},{1485,1492,1,2673},{1485,1493,1,2674},{1485,1494,1,2675},{1485,1495,1,2676},{1485,1496,1,2677},{1485,1497,1,2678},{1485,1498,1,2679},{1485,1499,1,2680},{1485,1500,1,2681},{1485,1501,1,2682},{1485,1502,1,2683},{1485,1503,1,2684},{1485,1504,1,2685},{1486,1486,1,2686},{1486,1487,1,2687},{1486,1488,1,2688},{1486,1489,1,2689},{1486,1490,1,2690},{1486,1491,1,2691},{1486,1492,1,2692},{1486,1493,1,2693},{1486,1494,1,2694},{1486,1495,1,2695},{1486,1496,1,2696},{1486,1497,1,2697},{1486,1498,1,2698},{1486,1499,1,2699},{1486,1500,1,2700},{1486,1501,1,2701},{1486,1502,1,2702},{1486,1503,1,2703},{1486,1504,1,2704},{1487,1487,1,2705},{1487,1488,1,2706},{1487,1489,1,2707},{1487,1490,1,2708},{1487,1491,1,2709},{1487,1492,1,2710},{1487,1493,1,2711},{1487,1494,1,2712},{1487,1495,1,2713},{1487,1496,1,2714},{1487,1497,1,2715},{1487,1498,1,2716},{1487,1499,1,2717},{1487,1500,1,2718},{1487,1501,1,2719},{1487,1502,1,2720},{1487,1503,1,2721},{1487,1504,1,2722},{1488,1488,1,2723},{1488,1489,1,2724},{1488,1490,1,2725},{1488,1491,1,2726},{1488,1492,1,2727},{1488,1493,1,2728},{1488,1494,1,2729},{1488,1495,1,2730},{1488,1496,1,2731},{1488,1497,1,2732},{1488,1498,1,2733},{1488,1499,1,2734},{1488,1500,1,2735},{1488,1501,1,2736},{1488,1502,1,2737},{1488,1503,1,2738},{1488,1504,1,2739},{1489,1489,1,2740},{1489,1490,1,2741},{1489,1491,1,2742},{1489,1492,1,2743},{1489,1493,1,2744},{1489,1494,1,2745},{1489,1495,1,2746},{1489,1496,1,2747},{1489,1497,1,2748},{1489,1498,1,2749},{1489,1499,1,2750},{1489,1500,1,2751},{1489,1501,1,2752},{1489,1502,1,2753},{1489,1503,1,2754},{1489,1504,1,2755},{1490,1490,1,2756},{1490,1491,1,2757},{1490,1492,1,2758},{1490,1493,1,2759},{1490,1494,1,2760},{1490,1495,1,2761},{1490,1496,1,2762},{1490,1497,1,2763},{1490,1498,1,2764},{1490,1499,1,2765},{1490,1500,1,2766},{1490,1501,1,2767},{1490,1502,1,2768},{1490,1503,1,2769},{1490,1504,1,2770},{1491,1491,1,2771},{1491,1492,1,2772},{1491,1493,1,2773},{1491,1494,1,2774},{1491,1495,1,2775},{1491,1496,1,2776},{1491,1497,1,2777},{1491,1498,1,2778},{1491,1499,1,2779},{1491,1500,1,2780},{1491,1501,1,2781},{1491,1502,1,2782},{1491,1503,1,2783},{1491,1504,1,2784},{1492,1492,1,2785},{1492,1493,1,2786},{1492,1494,1,2787},{1492,1495,1,2788},{1492,1496,1,2789},{1492,1497,1,2790},{1492,1498,1,2791},{1492,1499,1,2792},{1492,1500,1,2793},{1492,1501,1,2794},{1492,1502,1,2795},{1492,1503,1,2796},{1492,1504,1,2797},{1493,1493,1,2798},{1493,1494,1,2799},{1493,1495,1,2800},{1493,1496,1,2801},{1493,1497,1,2802},{1493,1498,1,2803},{1493,1499,1,2804},{1493,1500,1,2805},{1493,1501,1,2806},{1493,1502,1,2807},{1493,1503,1,2808},{1493,1504,1,2809},{1494,1494,1,2810},{1494,1495,1,2811},{1494,1496,1,2812},{1494,1497,1,2813},{1494,1498,1,2814},{1494,1499,1,2815},{1494,1500,1,2816},{1494,1501,1,2817},{1494,1502,1,2818},{1494,1503,1,2819},{1494,1504,1,2820},{1495,1495,1,2821},{1495,1496,1,2822},{1495,1497,1,2823},{1495,1498,1,2824},{1495,1499,1,2825},{1495,1500,1,2826},{1495,1501,1,2827},{1495,1502,1,2828},{1495,1503,1,2829},{1495,1504,1,2830},{1496,1496,1,2831},{1496,1497,1,2832},{1496,1498,1,2833},{1496,1499,1,2834},{1496,1500,1,2835},{1496,1501,1,2836},{1496,1502,1,2837},{1496,1503,1,2838},{1496,1504,1,2839},{1497,1497,1,2840},{1497,1498,1,2841},{1497,1499,1,2842},{1497,1500,1,2843},{1497,1501,1,2844},{1497,1502,1,2845},{1497,1503,1,2846},{1497,1504,1,2847},{1498,1498,1,2848},{1498,1499,1,2849},{1498,1500,1,2850},{1498,1501,1,2851},{1498,1502,1,2852},{1498,1503,1,2853},{1498,1504,1,2854},{1499,1499,1,2855},{1499,1500,1,2856},{1499,1501,1,2857},{1499,1502,1,2858},{1499,1503,1,2859},{1499,1504,1,2860},{1500,1500,1,2861},{1500,1501,1,2862},{1500,1502,1,2863},{1500,1503,1,2864},{1500,1504,1,2865},{1501,1501,1,2866},{1501,1502,1,2867},{1501,1503,1,2868},{1501,1504,1,2869},{1502,1502,1,2870},{1502,1503,1,2871},{1502,1504,1,2872},{1503,1503,1,2873},{1503,1504,1,2874},{1504,1504,1,2875},{0,1484,1,2876},{0,1485,1,2877},{0,1486,1,2878},{0,1487,1,2879},{0,1488,1,2880},{0,1489,1,2881},{0,1490,1,2882},{0,1491,1,2883},{0,1492,1,2884},{0,1493,1,2885},{0,1494,1,2886},{0,1495,1,2887},{0,1496,1,2888},{0,1497,1,2889},{0,1498,1,2890},{0,1499,1,2891},{0,1500,1,2892},{0,1501,1,2893},{0,1502,1,2894},{0,1503,1,2895},{0,1504,1,2896},{35,1484,1,2897},{35,1485,1,2898},{35,1486,1,2899},{35,1487,1,2900},{35,1488,1,2901},{35,1489,1,2902},{35,1490,1,2903},{35,1491,1,2904},{35,1492,1,2905},{35,1493,1,2906},{35,1494,1,2907},{35,1495,1,2908},{35,1496,1,2909},{35,1497,1,2910},{35,1498,1,2911},{35,1499,1,2912},{35,1500,1,2913},{35,1501,1,2914},{35,1502,1,2915},{35,1503,1,2916},{35,1504,1,2917},{70,1484,1,2918},{70,1485,1,2919},{70,1486,1,2920},{70,1487,1,2921},{70,1488,1,2922},{70,1489,1,2923},{70,1490,1,2924},{70,1491,1,2925},{70,1492,1,2926},{70,1493,1,2927},{70,1494,1,2928},{70,1495,1,2929},{70,1496,1,2930},{70,1497,1,2931},{70,1498,1,2932},{70,1499,1,2933},{70,1500,1,2934},{70,1501,1,2935},{70,1502,1,2936},{70,1503,1,2937},{70,1504,1,2938},{105,1484,1,2939},{105,1485,1,2940},{105,1486,1,2941},{105,1487,1,2942},{105,1488,1,2943},{105,1489,1,2944},{105,1490,1,2945},{105,1491,1,2946},{105,1492,1,2947},{105,1493,1,2948},{105,1494,1,2949},{105,1495,1,2950},{105,1496,1,2951},{105,1497,1,2952},{105,1498,1,2953},{105,1499,1,2954},{105,1500,1,2955},{105,1501,1,2956},{105,1502,1,2957},{105,1503,1,2958},{105,1504,1,2959},{140,1484,1,2960},{140,1485,1,2961},{140,1486,1,2962},{140,1487,1,2963},{140,1488,1,2964},{140,1489,1,2965},{140,1490,1,2966},{140,1491,1,2967},{140,1492,1,2968},{140,1493,1,2969},{140,1494,1,2970},{140,1495,1,2971},{140,1496,1,2972},{140,1497,1,2973},{140,1498,1,2974},{140,1499,1,2975},{140,1500,1,2976},{140,1501,1,2977},{140,1502,1,2978},{140,1503,1,2979},{140,1504,1,2980},{175,1484,1,2981},{175,1485,1,2982},{175,1486,1,2983},{175,1487,1,2984},{175,1488,1,2985},{175,1489,1,2986},{175,1490,1,2987},{175,1491,1,2988},{175,1492,1,2989},{175,1493,1,2990},{175,1494,1,2991},{175,1495,1,2992},{175,1496,1,2993},{175,1497,1,2994},{175,1498,1,2995},{175,1499,1,2996},{175,1500,1,2997},{175,1501,1,2998},{175,1502,1,2999},{175,1503,1,3000},{175,1504,1,3001},{1,1,1,3002},{1,2,1,3003},{1,3,1,3004},{2,2,1,3005},{2,3,1,3006},{3,3,1,3007},{4,3002,1,3008},{5,3003,2,3008},{6,3004,2,3008},{7,3005,1,3008},{8,3006,2,3008},{9,3007,1,3008},{39,3002,1,3009},{40,3003,2,3009},{41,3004,2,3009},{42,3005,1,3009},{43,3006,2,3009},{44,3007,1,3009},{74,3002,1,3010},{75,3003,2,3010},{76,3004,2,3010},{77,3005,1,3010},{78,3006,2,3010},{79,3007,1,3010},{109,3002,1,3011},{110,3003,2,3011},{111,3004,2,3011},{112,3005,1,3011},{113,3006,2,3011},{114,3007,1,3011},{144,3002,1,3012},{145,3003,2,3012},{146,3004,2,3012},{147,3005,1,3012},{148,3006,2,3012},{149,3007,1,3012},{179,3002,1,3013},{180,3003,2,3013},{181,3004,2,3013},{182,3005,1,3013},{183,3006,2,3013},{184,3007,1,3013},{36,36,1,3014},{36,37,1,3015},{36,38,1,3016},{37,37,1,3017},{37,38,1,3018},{38,38,1,3019},{4,3014,1,3020},{5,3015,2,3020},{6,3016,2,3020},{7,3017,1,3020},{8,3018,2,3020},{9,3019,1,3020},{39,3014,1,3021},{40,3015,2,3021},{41,3016,2,3021},{42,3017,1,3021},{43,3018,2,3021},{44,3019,1,3021},{74,3014,1,3022},{75,3015,2,3022},{76,3016,2,3022},{77,3017,1,3022},{78,3018,2,3022},{79,3019,1,3022},{109,3014,1,3023},{110,3015,2,3023},{111,3016,2,3023},{112,3017,1,3023},{113,3018,2,3023},{114,3019,1,3023},{144,3014,1,3024},{145,3015,2,3024},{146,3016,2,3024},{147,3017,1,3024},{148,3018,2,3024},{149,3019,1,3024},{179,3014,1,3025},{180,3015,2,3025},{181,3016,2,3025},{182,3017,1,3025},{183,3018,2,3025},{184,3019,1,3025},{71,71,1,3026},{71,72,1,3027},{71,73,1,3028},{72,72,1,3029},{72,73,1,3030},{73,73,1,3031},{4,3026,1,3032},{5,3027,2,3032},{6,3028,2,3032},{7,3029,1,3032},{8,3030,2,3032},{9,3031,1,3032},{39,3026,1,3033},{40,3027,2,3033},{41,3028,2,3033},{42,3029,1,3033},{43,3030,2,3033},{44,3031,1,3033},{74,3026,1,3034},{75,3027,2,3034},{76,3028,2,3034},{77,3029,1,3034},{78,3030,2,3034},{79,3031,1,3034},{109,3026,1,3035},{110,3027,2,3035},{111,3028,2,3035},{112,3029,1,3035},{113,3030,2,3035},{114,3031,1,3035},{144,3026,1,3036},{145,3027,2,3036},{146,3028,2,3036},{147,3029,1,3036},{148,3030,2,3036},{149,3031,1,3036},{179,3026,1,3037},{180,3027,2,3037},{181,3028,2,3037},{182,3029,1,3037},{183,3030,2,3037},{184,3031,1,3037},{106,106,1,3038},{106,107,1,3039},{106,108,1,3040},{107,107,1,3041},{107,108,1,3042},{108,108,1,3043},{4,3038,1,3044},{5,3039,2,3044},{6,3040,2,3044},{7,3041,1,3044},{8,3042,2,3044},{9,3043,1,3044},{39,3038,1,3045},{40,3039,2,3045},{41,3040,2,3045},{42,3041,1,3045},{43,3042,2,3045},{44,3043,1,3045},{74,3038,1,3046},{75,3039,2,3046},{76,3040,2,3046},{77,3041,1,3046},{78,3042,2,3046},{79,3043,1,3046},{109,3038,1,3047},{110,3039,2,3047},{111,3040,2,3047},{112,3041,1,3047},{113,3042,2,3047},{114,3043,1,3047},{144,3038,1,3048},{145,3039,2,3048},{146,3040,2,3048},{147,3041,1,3048},{148,3042,2,3048},{149,3043,1,3048},{179,3038,1,3049},{180,3039,2,3049},{181,3040,2,3049},{182,3041,1,3049},{183,3042,2,3049},{184,3043,1,3049},{141,141,1,3050},{141,142,1,3051},{141,143,1,3052},{142,142,1,3053},{142,143,1,3054},{143,143,1,3055},{4,3050,1,3056},{5,3051,2,3056},{6,3052,2,3056},{7,3053,1,3056},{8,3054,2,3056},{9,3055,1,3056},{39,3050,1,3057},{40,3051,2,3057},{41,3052,2,3057},{42,3053,1,3057},{43,3054,2,3057},{44,3055,1,3057},{74,3050,1,3058},{75,3051,2,3058},{76,3052,2,3058},{77,3053,1,3058},{78,3054,2,3058},{79,3055,1,3058},{109,3050,1,3059},{110,3051,2,3059},{111,3052,2,3059},{112,3053,1,3059},{113,3054,2,3059},{114,3055,1,3059},{144,3050,1,3060},{145,3051,2,3060},{146,3052,2,3060},{147,3053,1,3060},{148,3054,2,3060},{149,3055,1,3060},{179,3050,1,3061},{180,3051,2,3061},{181,3052,2,3061},{182,3053,1,3061},{183,3054,2,3061},{184,3055,1,3061},{176,176,1,3062},{176,177,1,3063},{176,178,1,3064},{177,177,1,3065},{177,178,1,3066},{178,178,1,3067},{4,3062,1,3068},{5,3063,2,3068},{6,3064,2,3068},{7,3065,1,3068},{8,3066,2,3068},{9,3067,1,3068},{39,3062,1,3069},{40,3063,2,3069},{41,3064,2,3069},{42,3065,1,3069},{43,3066,2,3069},{44,3067,1,3069},{74,3062,1,3070},{75,3063,2,3070},{76,3064,2,3070},{77,3065,1,3070},{78,3066,2,3070},{79,3067,1,3070},{109,3062,1,3071},{110,3063,2,3071},{111,3064,2,3071},{112,3065,1,3071},{113,3066,2,3071},{114,3067,1,3071},{144,3062,1,3072},{145,3063,2,3072},{146,3064,2,3072},{147,3065,1,3072},{148,3066,2,3072},{149,3067,1,3072},{179,3062,1,3073},{180,3063,2,3073},{181,3064,2,3073},{182,3065,1,3073},{183,3066,2,3073},{184,3067,1,3073},{3002,3002,1,3074},{3003,3003,2,3074},{3004,3004,2,3074},{3005,3005,1,3074},{3006,3006,2,3074},{3007,3007,1,3074},{3002,3014,1,3075},{3003,3015,2,3075},{3004,3016,2,3075},{3005,3017,1,3075},{3006,3018,2,3075},{3007,3019,1,3075},{3002,3026,1,3076},{3003,3027,2,3076},{3004,3028,2,3076},{3005,3029,1,3076},{3006,3030,2,3076},{3007,3031,1,3076},{3002,3038,1,3077},{3003,3039,2,3077},{3004,3040,2,3077},{3005,3041,1,3077},{3006,3042,2,3077},{3007,3043,1,3077},{3002,3050,1,3078},{3003,3051,2,3078},{3004,3052,2,3078},{3005,3053,1,3078},{3006,3054,2,3078},{3007,3055,1,3078},{3002,3062,1,3079},{3003,3063,2,3079},{3004,3064,2,3079},{3005,3065,1,3079},{3006,3066,2,3079},{3007,3067,1,3079},{3014,3014,1,3080},{3015,3015,2,3080},{3016,3016,2,3080},{3017,3017,1,3080},{3018,3018,2,3080},{3019,3019,1,3080},{3014,3026,1,3081},{3015,3027,2,3081},{3016,3028,2,3081},{3017,3029,1,3081},{3018,3030,2,3081},{3019,3031,1,3081},{3014,3038,1,3082},{3015,3039,2,3082},{3016,3040,2,3082},{3017,3041,1,3082},{3018,3042,2,3082},{3019,3043,1,3082},{3014,3050,1,3083},{3015,3051,2,3083},{3016,3052,2,3083},{3017,3053,1,3083},{3018,3054,2,3083},{3019,3055,1,3083},{3014,3062,1,3084},{3015,3063,2,3084},{3016,3064,2,3084},{3017,3065,1,3084},{3018,3066,2,3084},{3019,3067,1,3084},{3026,3026,1,3085},{3027,3027,2,3085},{3028,3028,2,3085},{3029,3029,1,3085},{3030,3030,2,3085},{3031,3031,1,3085},{3026,3038,1,3086},{3027,3039,2,3086},{3028,3040,2,3086},{3029,3041,1,3086},{3030,3042,2,3086},{3031,3043,1,3086},{3026,3050,1,3087},{3027,3051,2,3087},{3028,3052,2,3087},{3029,3053,1,3087},{3030,3054,2,3087},{3031,3055,1,3087},{3026,3062,1,3088},{3027,3063,2,3088},{3028,3064,2,3088},{3029,3065,1,3088},{3030,3066,2,3088},{3031,3067,1,3088},{3038,3038,1,3089},{3039,3039,2,3089},{3040,3040,2,3089},{3041,3041,1,3089},{3042,3042,2,3089},{3043,3043,1,3089},{3038,3050,1,3090},{3039,3051,2,3090},{3040,3052,2,3090},{3041,3053,1,3090},{3042,3054,2,3090},{3043,3055,1,3090},{3038,3062,1,3091},{3039,3063,2,3091},{3040,3064,2,3091},{3041,3065,1,3091},{3042,3066,2,3091},{3043,3067,1,3091},{3050,3050,1,3092},{3051,3051,2,3092},{3052,3052,2,3092},{3053,3053,1,3092},{3054,3054,2,3092},{3055,3055,1,3092},{3050,3062,1,3093},{3051,3063,2,3093},{3052,3064,2,3093},{3053,3065,1,3093},{3054,3066,2,3093},{3055,3067,1,3093},{3062,3062,1,3094},{3063,3063,2,3094},{3064,3064,2,3094},{3065,3065,1,3094},{3066,3066,2,3094},{3067,3067,1,3094},{4,4,1,3095},{5,5,1,3095},{6,6,1,3095},{4,5,1,3096},{5,7,1,3096},{6,8,1,3096},{4,6,1,3097},{5,8,1,3097},{6,9,1,3097},{5,5,1,3098},{7,7,1,3098},{8,8,1,3098},{5,6,1,3099},{7,8,1,3099},{8,9,1,3099},{6,6,1,3100},{8,8,1,3100},{9,9,1,3100},{4,3095,1,3101},{5,3096,2,3101},{6,3097,2,3101},{7,3098,1,3101},{8,3099,2,3101},{9,3100,1,3101},{39,3095,1,3102},{40,3096,2,3102},{41,3097,2,3102},{42,3098,1,3102},{43,3099,2,3102},{44,3100,1,3102},{74,3095,1,3103},{75,3096,2,3103},{76,3097,2,3103},{77,3098,1,3103},{78,3099,2,3103},{79,3100,1,3103},{109,3095,1,3104},{110,3096,2,3104},{111,3097,2,3104},{112,3098,1,3104},{113,3099,2,3104},{114,3100,1,3104},{144,3095,1,3105},{145,3096,2,3105},{146,3097,2,3105},{147,3098,1,3105},{148,3099,2,3105},{149,3100,1,3105},{179,3095,1,3106},{180,3096,2,3106},{181,3097,2,3106},{182,3098,1,3106},{183,3099,2,3106},{184,3100,1,3106},{39,39,1,3107},{40,40,1,3107},{41,41,1,3107},{39,40,1,3108},{40,42,1,3108},{41,43,1,3108},{39,41,1,3109},{40,43,1,3109},{41,44,1,3109},{40,40,1,3110},{42,42,1,3110},{43,43,1,3110},{40,41,1,3111},{42,43,1,3111},{43,44,1,3111},{41,41,1,3112},{43,43,1,3112},{44,44,1,3112},{4,3107,1,3113},{5,3108,2,3113},{6,3109,2,3113},{7,3110,1,3113},{8,3111,2,3113},{9,3112,1,3113},{39,3107,1,3114},{40,3108,2,3114},{41,3109,2,3114},{42,3110,1,3114},{43,3111,2,3114},{44,3112,1,3114},{74,3107,1,3115},{75,3108,2,3115},{76,3109,2,3115},{77,3110,1,3115},{78,3111,2,3115},{79,3112,1,3115},{109,3107,1,3116},{110,3108,2,3116},{111,3109,2,3116},{112,3110,1,3116},{113,3111,2,3116},{114,3112,1,3116},{144,3107,1,3117},{145,3108,2,3117},{146,3109,2,3117},{147,3110,1,3117},{148,3111,2,3117},{149,3112,1,3117},{179,3107,1,3118},{180,3108,2,3118},{181,3109,2,3118},{182,3110,1,3118},{183,3111,2,3118},{184,3112,1,3118},{74,74,1,3119},{75,75,1,3119},{76,76,1,3119},{74,75,1,3120},{75,77,1,3120},{76,78,1,3120},{74,76,1,3121},{75,78,1,3121},{76,79,1,3121},{75,75,1,3122},{77,77,1,3122},{78,78,1,3122},{75,76,1,3123},{77,78,1,3123},{78,79,1,3123},{76,76,1,3124},{78,78,1,3124},{79,79,1,3124},{4,3119,1,3125},{5,3120,2,3125},{6,3121,2,3125},{7,3122,1,3125},{8,3123,2,3125},{9,3124,1,3125},{39,3119,1,3126},{40,3120,2,3126},{41,3121,2,3126},{42,3122,1,3126},{43,3123,2,3126},{44,3124,1,3126},{74,3119,1,3127},{75,3120,2,3127},{76,3121,2,3127},{77,3122,1,3127},{78,3123,2,3127},{79,3124,1,3127},{109,3119,1,3128},{110,3120,2,3128},{111,3121,2,3128},{112,3122,1,3128},{113,3123,2,3128},{114,3124,1,3128},{144,3119,1,3129},{145,3120,2,3129},{146,3121,2,3129},{147,3122,1,3129},{148,3123,2,3129},{149,3124,1,3129},{179,3119,1,3130},{180,3120,2,3130},{181,3121,2,3130},{182,3122,1,3130},{183,3123,2,3130},{184,3124,1,3130},{109,109,1,3131},{110,110,1,3131},{111,111,1,3131},{109,110,1,3132},{110,112,1,3132},{111,113,1,3132},{109,111,1,3133},{110,113,1,3133},{111,114,1,3133},{110,110,1,3134},{112,112,1,3134},{113,113,1,3134},{110,111,1,3135},{112,113,1,3135},{113,114,1,3135},{111,111,1,3136},{113,113,1,3136},{114,114,1,3136},{4,3131,1,3137},{5,3132,2,3137},{6,3133,2,3137},{7,3134,1,3137},{8,3135,2,3137},{9,3136,1,3137},{39,3131,1,3138},{40,3132,2,3138},{41,3133,2,3138},{42,3134,1,3138},{43,3135,2,3138},{44,3136,1,3138},{74,3131,1,3139},{75,3132,2,3139},{76,3133,2,3139},{77,3134,1,3139},{78,3135,2,3139},{79,3136,1,3139},{109,3131,1,3140},{110,3132,2,3140},{111,3133,2,3140},{112,3134,1,3140},{113,3135,2,3140},{114,3136,1,3140},{144,3131,1,3141},{145,3132,2,3141},{146,3133,2,3141},{147,3134,1,3141},{148,3135,2,3141},{149,3136,1,3141},{179,3131,1,3142},{180,3132,2,3142},{181,3133,2,3142},{182,3134,1,3142},{183,3135,2,3142},{184,3136,1,3142},{144,144,1,3143},{145,145,1,3143},{146,146,1,3143},{144,145,1,3144},{145,147,1,3144},{146,148,1,3144},{144,146,1,3145},{145,148,1,3145},{146,149,1,3145},{145,145,1,3146},{147,147,1,3146},{148,148,1,3146},{145,146,1,3147},{147,148,1,3147},{148,149,1,3147},{146,146,1,3148},{148,148,1,3148},{149,149,1,3148},{4,3143,1,3149},{5,3144,2,3149},{6,3145,2,3149},{7,3146,1,3149},{8,3147,2,3149},{9,3148,1,3149},{39,3143,1,3150},{40,3144,2,3150},{41,3145,2,3150},{42,3146,1,3150},{43,3147,2,3150},{44,3148,1,3150},{74,3143,1,3151},{75,3144,2,3151},{76,3145,2,3151},{77,3146,1,3151},{78,3147,2,3151},{79,3148,1,3151},{109,3143,1,3152},{110,3144,2,3152},{111,3145,2,3152},{112,3146,1,3152},{113,3147,2,3152},{114,3148,1,3152},{144,3143,1,3153},{145,3144,2,3153},{146,3145,2,3153},{147,3146,1,3153},{148,3147,2,3153},{149,3148,1,3153},{179,3143,1,3154},{180,3144,2,3154},{181,3145,2,3154},{182,3146,1,3154},{183,3147,2,3154},{184,3148,1,3154},{179,179,1,3155},{180,180,1,3155},{181,181,1,3155},{179,180,1,3156},{180,182,1,3156},{181,183,1,3156},{179,181,1,3157},{180,183,1,3157},{181,184,1,3157},{180,180,1,3158},{182,182,1,3158},{183,183,1,3158},{180,181,1,3159},{182,183,1,3159},{183,184,1,3159},{181,181,1,3160},{183,183,1,3160},{184,184,1,3160},{4,3155,1,3161},{5,3156,2,3161},{6,3157,2,3161},{7,3158,1,3161},{8,3159,2,3161},{9,3160,1,3161},{39,3155,1,3162},{40,3156,2,3162},{41,3157,2,3162},{42,3158,1,3162},{43,3159,2,3162},{44,3160,1,3162},{74,3155,1,3163},{75,3156,2,3163},{76,3157,2,3163},{77,3158,1,3163},{78,3159,2,3163},{79,3160,1,3163},{109,3155,1,3164},{110,3156,2,3164},{111,3157,2,3164},{112,3158,1,3164},{113,3159,2,3164},{114,3160,1,3164},{144,3155,1,3165},{145,3156,2,3165},{146,3157,2,3165},{147,3158,1,3165},{148,3159,2,3165},{149,3160,1,3165},{179,3155,1,3166},{180,3156,2,3166},{181,3157,2,3166},{182,3158,1,3166},{183,3159,2,3166},{184,3160,1,3166},{3095,3095,1,3167},{3096,3096,2,3167},{3097,3097,2,3167},{3098,3098,1,3167},{3099,3099,2,3167},{3100,3100,1,3167},{3095,3107,1,3168},{3096,3108,2,3168},{3097,3109,2,3168},{3098,3110,1,3168},{3099,3111,2,3168},{3100,3112,1,3168},{3095,3119,1,3169},{3096,3120,2,3169},{3097,3121,2,3169},{3098,3122,1,3169},{3099,3123,2,3169},{3100,3124,1,3169},{3095,3131,1,3170},{3096,3132,2,3170},{3097,3133,2,3170},{3098,3134,1,3170},{3099,3135,2,3170},{3100,3136,1,3170},{3095,3143,1,3171},{3096,3144,2,3171},{3097,3145,2,3171},{3098,3146,1,3171},{3099,3147,2,3171},{3100,3148,1,3171},{3095,3155,1,3172},{3096,3156,2,3172},{3097,3157,2,3172},{3098,3158,1,3172},{3099,3159,2,3172},{3100,3160,1,3172},{3107,3107,1,3173},{3108,3108,2,3173},{3109,3109,2,3173},{3110,3110,1,3173},{3111,3111,2,3173},{3112,3112,1,3173},{3107,3119,1,3174},{3108,3120,2,3174},{3109,3121,2,3174},{3110,3122,1,3174},{3111,3123,2,3174},{3112,3124,1,3174},{3107,3131,1,3175},{3108,3132,2,3175},{3109,3133,2,3175},{3110,3134,1,3175},{3111,3135,2,3175},{3112,3136,1,3175},{3107,3143,1,3176},{3108,3144,2,3176},{3109,3145,2,3176},{3110,3146,1,3176},{3111,3147,2,3176},{3112,3148,1,3176},{3107,3155,1,3177},{3108,3156,2,3177},{3109,3157,2,3177},{3110,3158,1,3177},{3111,3159,2,3177},{3112,3160,1,3177},{3119,3119,1,3178},{3120,3120,2,3178},{3121,3121,2,3178},{3122,3122,1,3178},{3123,3123,2,3178},{3124,3124,1,3178},{3119,3131,1,3179},{3120,3132,2,3179},{3121,3133,2,3179},{3122,3134,1,3179},{3123,3135,2,3179},{3124,3136,1,3179},{3119,3143,1,3180},{3120,3144,2,3180},{3121,3145,2,3180},{3122,3146,1,3180},{3123,3147,2,3180},{3124,3148,1,3180},{3119,3155,1,3181},{3120,3156,2,3181},{3121,3157,2,3181},{3122,3158,1,3181},{3123,3159,2,3181},{3124,3160,1,3181},{3131,3131,1,3182},{3132,3132,2,3182},{3133,3133,2,3182},{3134,3134,1,3182},{3135,3135,2,3182},{3136,3136,1,3182},{3131,3143,1,3183},{3132,3144,2,3183},{3133,3145,2,3183},{3134,3146,1,3183},{3135,3147,2,3183},{3136,3148,1,3183},{3131,3155,1,3184},{3132,3156,2,3184},{3133,3157,2,3184},{3134,3158,1,3184},{3135,3159,2,3184},{3136,3160,1,3184},{3143,3143,1,3185},{3144,3144,2,3185},{3145,3145,2,3185},{3146,3146,1,3185},{3147,3147,2,3185},{3148,3148,1,3185},{3143,3155,1,3186},{3144,3156,2,3186},{3145,3157,2,3186},{3146,3158,1,3186},{3147,3159,2,3186},{3148,3160,1,3186},{3155,3155,1,3187},{3156,3156,2,3187},{3157,3157,2,3187},{3158,3158,1,3187},{3159,3159,2,3187},{3160,3160,1,3187},{3002,3095,1,3188},{3003,3096,2,3188},{3004,3097,2,3188},{3005,3098,1,3188},{3006,3099,2,3188},{3007,3100,1,3188},{3002,3107,1,3189},{3003,3108,2,3189},{3004,3109,2,3189},{3005,3110,1,3189},{3006,3111,2,3189},{3007,3112,1,3189},{3002,3119,1,3190},{3003,3120,2,3190},{3004,3121,2,3190},{3005,3122,1,3190},{3006,3123,2,3190},{3007,3124,1,3190},{3002,3131,1,3191},{3003,3132,2,3191},{3004,3133,2,3191},{3005,3134,1,3191},{3006,3135,2,3191},{3007,3136,1,3191},{3002,3143,1,3192},{3003,3144,2,3192},{3004,3145,2,3192},{3005,3146,1,3192},{3006,3147,2,3192},{3007,3148,1,3192},{3002,3155,1,3193},{3003,3156,2,3193},{3004,3157,2,3193},{3005,3158,1,3193},{3006,3159,2,3193},{3007,3160,1,3193},{3014,3095,1,3194},{3015,3096,2,3194},{3016,3097,2,3194},{3017,3098,1,3194},{3018,3099,2,3194},{3019,3100,1,3194},{3014,3107,1,3195},{3015,3108,2,3195},{3016,3109,2,3195},{3017,3110,1,3195},{3018,3111,2,3195},{3019,3112,1,3195},{3014,3119,1,3196},{3015,3120,2,3196},{3016,3121,2,3196},{3017,3122,1,3196},{3018,3123,2,3196},{3019,3124,1,3196},{3014,3131,1,3197},{3015,3132,2,3197},{3016,3133,2,3197},{3017,3134,1,3197},{3018,3135,2,3197},{3019,3136,1,3197},{3014,3143,1,3198},{3015,3144,2,3198},{3016,3145,2,3198},{3017,3146,1,3198},{3018,3147,2,3198},{3019,3148,1,3198},{3014,3155,1,3199},{3015,3156,2,3199},{3016,3157,2,3199},{3017,3158,1,3199},{3018,3159,2,3199},{3019,3160,1,3199},{3026,3095,1,3200},{3027,3096,2,3200},{3028,3097,2,3200},{3029,3098,1,3200},{3030,3099,2,3200},{3031,3100,1,3200},{3026,3107,1,3201},{3027,3108,2,3201},{3028,3109,2,3201},{3029,3110,1,3201},{3030,3111,2,3201},{3031,3112,1,3201},{3026,3119,1,3202},{3027,3120,2,3202},{3028,3121,2,3202},{3029,3122,1,3202},{3030,3123,2,3202},{3031,3124,1,3202},{3026,3131,1,3203},{3027,3132,2,3203},{3028,3133,2,3203},{3029,3134,1,3203},{3030,3135,2,3203},{3031,3136,1,3203},{3026,3143,1,3204},{3027,3144,2,3204},{3028,3145,2,3204},{3029,3146,1,3204},{3030,3147,2,3204},{3031,3148,1,3204},{3026,3155,1,3205},{3027,3156,2,3205},{3028,3157,2,3205},{3029,3158,1,3205},{3030,3159,2,3205},{3031,3160,1,3205},{3038,3095,1,3206},{3039,3096,2,3206},{3040,3097,2,3206},{3041,3098,1,3206},{3042,3099,2,3206},{3043,3100,1,3206},{3038,3107,1,3207},{3039,3108,2,3207},{3040,3109,2,3207},{3041,3110,1,3207},{3042,3111,2,3207},{3043,3112,1,3207},{3038,3119,1,3208},{3039,3120,2,3208},{3040,3121,2,3208},{3041,3122,1,3208},{3042,3123,2,3208},{3043,3124,1,3208},{3038,3131,1,3209},{3039,3132,2,3209},{3040,3133,2,3209},{3041,3134,1,3209},{3042,3135,2,3209},{3043,3136,1,3209},{3038,3143,1,3210},{3039,3144,2,3210},{3040,3145,2,3210},{3041,3146,1,3210},{3042,3147,2,3210},{3043,3148,1,3210},{3038,3155,1,3211},{3039,3156,2,3211},{3040,3157,2,3211},{3041,3158,1,3211},{3042,3159,2,3211},{3043,3160,1,3211},{3050,3095,1,3212},{3051,3096,2,3212},{3052,3097,2,3212},{3053,3098,1,3212},{3054,3099,2,3212},{3055,3100,1,3212},{3050,3107,1,3213},{3051,3108,2,3213},{3052,3109,2,3213},{3053,3110,1,3213},{3054,3111,2,3213},{3055,3112,1,3213},{3050,3119,1,3214},{3051,3120,2,3214},{3052,3121,2,3214},{3053,3122,1,3214},{3054,3123,2,3214},{3055,3124,1,3214},{3050,3131,1,3215},{3051,3132,2,3215},{3052,3133,2,3215},{3053,3134,1,3215},{3054,3135,2,3215},{3055,3136,1,3215},{3050,3143,1,3216},{3051,3144,2,3216},{3052,3145,2,3216},{3053,3146,1,3216},{3054,3147,2,3216},{3055,3148,1,3216},{3050,3155,1,3217},{3051,3156,2,3217},{3052,3157,2,3217},{3053,3158,1,3217},{3054,3159,2,3217},{3055,3160,1,3217},{3062,3095,1,3218},{3063,3096,2,3218},{3064,3097,2,3218},{3065,3098,1,3218},{3066,3099,2,3218},{3067,3100,1,3218},{3062,3107,1,3219},{3063,3108,2,3219},{3064,3109,2,3219},{3065,3110,1,3219},{3066,3111,2,3219},{3067,3112,1,3219},{3062,3119,1,3220},{3063,3120,2,3220},{3064,3121,2,3220},{3065,3122,1,3220},{3066,3123,2,3220},{3067,3124,1,3220},{3062,3131,1,3221},{3063,3132,2,3221},{3064,3133,2,3221},